-0.038225345
-0.007007002
0.008198845
0.019903962
-0.047490552
0.034287974
0.019915113
-0.008090781
0.011848002
0.0023991591
0.018286629
-0.04766067
-0.03950377
0.06328931
0.15768144
0.04796289
0.026576748
0.04949274
0.034037318
0.06654419
-0.009847515
-0.06763044
0.042255238
-0.0008915711
0.016623177
-0.0008986373
0.07983853
0.017138353
-0.00587775
0.054473966
0.015594568
0.027360365
0.021265555
-0.120600715
-0.033636615
0.1275158
0.29134497
0.17694202
0.070719525
0.21048121
0.027290922
0.4481603
0.33227536
-0.084475555
0.39220303
-0.009482276
-0.32952252
-0.421587
-0.45953494
-0.33549786
-0.3636361
-0.255989
-0.020658255
-0.029698977
0.0006282606
-0.019491404
-0.016565995
0.03791851
-0.0769716
-0.20792641
-0.34333184
-0.0007394753
-0.012950905
0.02186581
0.24207982
0.20124598
-0.057167467
-0.44611138
-0.113106705
-0.19856825
-0.15398432
-0.24325779
-0.03441604
0.040168323
0.20075427
-0.30844295
-0.027301509
-0.010263288
-0.23387007
-0.2372877
0.2290869
0.23056266
-0.03052516
-0.049706433
0.03377064
0.047144335
-0.31743824
-0.26233643
-0.34363484
-0.66743666
-0.58275586
-0.2807499
-0.3295183
-0.08995514
0.012737797
-0.08288935
-0.048738502
0.264026
0.121039025
0.011171422
0.17084178
0.1714049
0.13801192
0.022322478
-0.15121095
-0.00031039523
0.32991078
0.20466009
0.17990558
0.39622825
-0.06764835
-0.009690307
-0.009254594
0.007619889
-0.52314645
-0.47375593
-0.318043
-0.5013857
-0.053836133
0.071870394
0.074393526
0.34089267
0.09190875
0.063185416
0.14721711
0.16046552
0.31045508
0.14199969
0.08446634
0.21267852
-0.025695609
-0.024434179
0.14815152
-0.13295174
-0.02132815
-0.047260396
0.25297207
0.38364366
0.33158776
0.065171175
-0.05586308
-0.009484101
-0.5977813
-0.22266896
-0.46278933
-0.5244924
-0.057638574
-0.07937192
-0.03820747
0.078795925
0.09535515
0.17586039
0.06555381
0.09710557
0.14189982
-0.042584416
0.070966244
0.10008381
0.0065850555
0.15210441
0.23894303
0.110480875
0.031680975
-0.1556575
0.014413366
0.52433616
0.19991286
-0.43488106
0.057098188
0.027985862
-0.12752235
-0.48425516
-0.27598292
-0.13458255
0.106068015
-0.019778576
0.067317635
0.019905023
0.07416044
-0.05680069
0.09832568
0.041824058
-0.0016970674
0.08860582
-0.09926815
0.038403966
-0.05901484
0.14558288
0.14014636
-0.027824104
0.06201478
0.03609537
-0.14494458
0.15680303
-0.3543831
0.03993681
0.033951636
-0.41563478
-0.021514947
-0.205088
0.022936782
0.1256717
0.007996592
0.051412683
0.24604991
0.03982208
0.16100904
0.06827843
0.058574334
0.11405262
-0.10478731
0.13102618
0.07356343
0.018690586
0.19328107
0.09299676
-0.028878184
0.14428973
0.19084863
0.29605955
0.31699014
0.18392393
-0.1265958
0.19535932
-0.21338633
-0.21892826
-0.14748481
0.06801241
0.033286076
0.011476483
-0.011127975
0.14097758
0.018911514
0.13007891
0.1713209
0.08077691
0.1527562
0.24077678
0.05441832
0.08354603
0.23995112
0.13937818
0.21935374
0.19211778
0.17188127
-0.005259595
0.0880472
0.5209897
0.5390101
0.23911875
0.3439809
0.42562822
-0.031721305
-0.50285715
-0.14080882
0.181015
-0.144077
0.10879161
0.06769204
-0.073781654
0.029274158
0.14619008
0.12966794
0.061254997
0.059698783
0.18647324
0.034763552
-0.1057129
0.040497683
0.10033804
0.16637082
0.14813095
0.15699981
0.16875581
0.16888933
0.47926015
0.44487357
0.43127757
0.35403013
-0.26850614
-0.0059733163
-0.4674049
-0.11531804
-0.14348426
0.0371341
-0.019286102
0.15039913
0.16832243
0.12697223
0.16400525
0.26921216
0.087166876
0.051388033
0.0129925655
0.05063875
-0.18259582
-0.15842585
-0.013245657
0.17241393
0.20518988
0.14881271
0.21857096
0.31130254
0.5155411
0.38781214
-0.10608184
0.028256811
0.015538945
-0.12758175
-0.32451618
-0.8007826
-0.044565637
0.11976414
0.21361391
0.18414462
0.22984052
0.12372702
0.16932763
-0.00026780248
0.053031515
-0.033461172
-0.051086113
-0.09332604
-0.22547896
-0.22592475
-0.16599865
-0.13609752
0.10814352
-0.033495642
0.12661362
0.34020326
0.41402128
0.6388949
0.117632605
0.31269312
-0.23425676
-0.2750433
-0.05249406
-0.72032076
0.15122837
-0.0032052107
0.2110044
-0.101899326
0.027332602
-0.04707093
-0.010545915
-0.14448035
-0.16309072
-0.015696589
-0.03610335
-0.18486537
-0.14603119
-0.23952699
-0.023469776
-0.21353634
0.1201627
0.14941101
0.19258827
0.09595783
0.18857628
0.62918484
-0.15036775
-0.13686638
-0.31607628
-0.09370549
-0.20852119
-0.5510565
0.15103579
-0.3154456
-0.029841086
-0.25476164
-0.027570872
-0.05420001
-0.11271095
-0.22907804
-0.057353884
0.011549801
0.021012338
-0.17163284
-0.0026471184
-0.08274738
-0.10147781
0.0090298895
0.019581653
0.00024521016
-0.051974904
0.11906952
0.10285169
0.19159861
0.28030926
0.14577961
0.42596135
0.12934637
-0.42453742
-0.59449375
0.119430535
-0.07460402
-0.15768412
0.050003923
-0.064633206
-0.19212672
-0.2835957
-0.06059654
0.010817439
-0.009010668
-0.022929693
-0.006103321
-0.056939274
-0.16740958
-0.075015746
-0.24745737
-0.08131314
-0.24832885
-0.36697197
-0.4333535
-0.2796154
-0.008487316
0.27742925
0.50345504
0.43828025
0.1019953
-0.22179832
-0.21494722
0.26936123
-0.04684104
0.0065473123
0.0810948
0.028757216
-0.12584408
-0.02654935
-0.21676955
-0.08517252
-0.050798018
0.020924523
0.0069532967
-0.09556367
-0.0914648
-0.1267256
-0.16404599
-0.16994752
-0.35660377
-0.389885
-0.37843642
-0.4071144
0.05253609
0.37062356
0.2521087
0.38789737
-0.20828734
-0.19543576
-0.46142694
0.14211191
-0.10490334
-0.009753938
0.2234939
0.061294354
-0.14548887
0.039417874
-0.06931813
-0.12021173
0.07470786
0.06271957
0.041883722
0.051009003
-0.019276472
0.007227267
-0.17001039
-0.26937425
-0.20811684
-0.08899151
-0.24306522
-0.21707289
-0.08404677
0.52222604
0.5654016
0.5440982
-0.02229427
-0.35194224
-0.4573326
-0.1566953
0.04084969
0.23902425
0.19145747
0.021489458
0.06404158
0.26741567
0.11513837
0.25350386
0.2115477
0.08939114
0.047517166
-0.0064113024
0.07838776
-0.14426874
-0.19114773
-0.20686571
0.014699216
-0.098514855
0.00033460365
-0.2163276
0.1411963
0.22465958
0.14594376
0.53124267
-0.3341331
-0.4933843
-0.79297495
-0.3111835
0.13903037
0.32191584
0.26835653
0.22633898
0.3668267
0.3716369
0.23686181
0.16969001
0.18106568
0.06608881
-0.069068216
-0.09550175
-0.18927902
-0.12141404
-0.053885315
0.031759482
0.03205199
0.005862712
0.1439807
0.27592376
0.5970461
-0.04857736
-0.34599587
0.2289064
-0.26976207
-0.36187354
-0.62621045
-0.4098262
0.053011365
0.1195926
0.18476585
0.20848995
0.3072297
0.25043005
0.36292946
0.1488986
0.16091132
0.10467605
-0.09341975
-0.0027502337
-0.14408037
0.07921596
0.031712204
0.046707287
0.100395374
0.026864134
0.3489178
0.39454782
0.32879984
0.03574361
0.4160039
0.18850002
0.050478257
0.073741816
-0.032028083
-0.18835779
-0.014658291
0.102327995
0.079513974
0.15389675
0.13054933
0.009561645
-0.005620525
0.00014725025
0.12451801
0.12907687
-0.14825301
0.11979911
-0.0864163
-0.0063187834
-0.03554849
0.15720686
0.20636132
0.20793954
0.35673478
0.35695803
0.0007235172
-0.34092754
0.20946915
-0.24653713
-0.26753733
-0.1519879
0.26664206
-0.03164238
-0.04973772
-0.012392043
0.12184163
0.1511373
-0.10967721
0.00059597305
-0.1476102
-0.006599093
-0.049382724
0.094893105
0.12678865
0.0009752042
-0.016531069
0.18426326
0.010063678
0.1170595
0.19158514
0.24107008
0.21744789
0.5025129
0.056912962
-0.34654817
0.10351596
-0.0059128357
-0.26992917
-0.37364304
0.2833335
0.038460188
0.23608992
-0.0065162694
0.14623165
0.1631144
-0.010226966
0.028242055
-0.05440659
0.15631352
0.12077407
0.12981716
0.04797535
-0.033180743
0.010332143
0.075929135
-0.008768264
0.12724276
0.0635743
0.24381065
0.25459963
0.2783338
0.23617199
-0.22603877
-0.4689673
0.029526932
-0.00029625822
0.031573746
0.27223274
-0.08477522
0.04915182
-0.18239504
0.034996264
0.01828705
0.27661124
0.1246566
-0.015786117
0.19581607
0.21730165
0.09122447
0.06624637
0.18189776
0.19366403
0.19505255
0.05314487
0.1309533
0.19898167
0.3593417
0.43839997
0.30017492
0.009003256
0.017824687
-0.7047172
-0.023243526
0.03014624
-0.023165302
-0.22745368
-0.3015931
-0.5349426
-0.5399533
-0.17085832
-0.13874516
0.10891442
0.077513814
-0.04580065
0.18566914
0.3310551
0.2959756
0.25341696
0.28188315
0.26801282
0.006482616
0.20983575
0.34670517
0.21929905
-0.009826048
0.15377533
-0.09887319
0.28855285
0.2623457
-0.27543667
-0.007966802
0.06394754
-0.0020203248
-0.4599542
-0.043294393
-0.59877443
-1.0393808
-0.11701677
-0.31447336
-0.5400971
-0.31599325
0.18558665
0.06835315
-0.10291914
0.0072315047
0.28476325
0.38989684
0.35619646
0.32068858
0.17969659
0.18912214
-0.22974843
-0.49523056
-0.6636425
-0.7943356
-0.4902305
-0.20566101
0.20800707
-0.030808806
0.03825633
-0.009159712
-0.06741658
-0.12206387
-0.38371813
-0.78370136
-0.8828201
-0.5007901
-0.21224014
-0.45953047
-0.4761808
-0.2930581
-0.21843274
-0.43260857
-0.56055754
-0.63895875
-0.51533854
-0.25361866
-0.08584282
-0.33249125
-0.61438054
-0.82515156
-0.67224276
-0.1336858
-0.22311479
0.061958972
-0.036432955
0.03957493
0.024146818
-0.037998687
-0.045941126
-0.06250118
0.024947157
-0.00042934783
-0.09180695
-0.18697035
-0.18755072
-0.25164577
-0.21974435
-0.22493775
-0.32910416
-0.077935815
-0.16762598
0.11025276
-0.028914085
-0.17088571
-0.4194973
-0.31443796
0.09233382
-0.27366447
-0.5175373
-0.40904185
-0.06635646
0.029073497
-0.08113262
0.07759038
0.0123410225
0.036176234
-0.014665882
0.019895572
-0.034906946
0.050493326
-0.009263366
0.06466466
0.025449812
0.01262782
0.015099177
0.067798994
-0.08816443
-0.10532831
-0.028974943
0.046310905
0.046197727
0.01043622
0.047532704
-0.032835066
0.024718855
-0.07543479
-0.009062545
0.025863314
0.020701787
-0.027632995
-0.043094344
-0.033922903
-0.033592794
0.037094437
0.023223376
0.004044276
-0.049991366
-0.08645446
-0.28017047
-0.25870717
-0.20204186
-0.23262599
-0.247892
0.1805492
0.10561348
-0.021734335
-0.3571841
-0.19823918
0.0038111457
-0.14011249
-0.55105656
-0.42762342
-0.40738776
-0.4908253
-0.1193461
-0.017371656
-0.028676825
-0.0002509926
-0.01647888
0.028843435
-0.022586102
0.00404185
0.03954973
0.15837646
0.09609876
-0.17875044
-0.13457605
-0.509173
-0.6869199
-0.44824028
-0.50590706
-0.55142534
-0.28374466
-0.2861736
-0.45844245
-0.47906986
-0.10794875
0.00022439408
0.06762356
-0.097309425
-0.15903872
-0.16462079
-0.12236334
0.021395331
-0.019667303
0.122392446
-0.0150029715
-0.05053859
0.014316433
0.043056093
0.22705081
0.23682919
0.24080685
0.101204894
-0.07156155
-0.009501753
0.18299097
-0.1890676
-0.082063496
-0.031602573
0.2879188
0.056789342
0.12864095
0.1359545
-0.08604295
-0.0428404
0.03934031
0.022733599
0.321076
-0.080107816
-0.3183305
-0.068924166
0.053164944
0.27748677
-0.018701142
0.049588405
-0.00197385
0.109684594
0.2572163
0.5813242
-0.23710121
-0.070980325
0.044615135
-0.036555193
0.07534987
0.15328993
0.23195527
0.27899784
0.13906157
0.07592015
0.07570436
0.25098458
0.097915746
0.13948286
0.23053817
0.08434407
0.051703982
0.150778
0.06025723
-0.061248414
0.30282182
0.34204715
-0.0011778184
-0.4654048
0.086738504
-0.009980438
-0.3916185
0.19461615
0.0129082175
0.20188482
0.16816017
0.16496126
0.09799926
0.16035742
-0.04833855
-0.10691702
-0.15406843
0.056741714
0.024452057
-0.00038490532
0.1771154
0.14087097
0.088740446
-0.017995115
-0.0115800155
-0.060862213
0.18300754
0.06518603
-0.012666753
0.21807632
-0.029159516
-0.4253499
-0.039381288
0.28859577
0.10321165
0.1535612
0.29213032
0.49172136
0.40342915
0.09825097
-0.0572208
0.015273343
-0.038712785
-0.1095672
-0.09278044
-0.13317406
-0.0661293
-0.21015517
-0.1619896
-0.1102919
0.012943515
0.06393342
0.07491708
0.035541695
0.22050618
0.19917797
0.26784986
0.17013897
0.273612
-0.38507208
-0.06718216
0.57528245
-0.06945706
0.3773308
0.33561668
0.46201038
0.13512331
0.18125255
0.14138865
-0.019717904
0.0031373748
0.027885161
-0.083542
-0.22511904
-0.18736526
-0.184933
-0.14682858
-0.006492878
0.038372025
0.015908027
0.06744997
-0.05992009
0.1354265
0.24095927
0.3780833
0.31069112
0.017286062
-0.2306407
0.29510835
0.29429466
-0.08134901
0.26068524
-0.015185806
0.07660378
-0.021048052
0.08815731
0.041132964
0.02928167
0.059546936
0.069658145
0.1256091
-0.052662164
-0.13920154
0.016378867
0.029032193
0.07549314
0.17073674
0.1448699
0.27551627
0.102744535
0.29645008
0.37913418
0.4914611
0.38598412
0.16550077
0.4856522
0.123655014
0.22384791
-0.22818212
0.011555741
0.09049866
0.06250482
-0.009624969
0.031575996
0.14564064
0.037294343
0.05219078
0.029547373
0.09380668
0.022241935
0.12307424
0.05624993
0.21704644
0.19820721
0.2150718
0.110782675
0.1795423
0.25210878
0.3410301
0.29583704
0.5235511
0.92929953
0.21344338
0.16244003
0.12864557
-0.0011642112
0.049260486
0.21475776
0.16148067
-0.0121307215
0.10732168
0.09506045
0.10913034
0.051012054
0.09354113
0.09780998
0.09211944
0.24810651
0.18957886
0.16909783
0.16423932
0.1544999
0.12068395
0.07666051
0.17630668
0.15012363
0.07939618
0.012964919
0.434908
0.845752
0.42373562
-0.090351604
0.044621002
0.105786204
0.008462125
0.05808356
0.39291492
-0.017485656
0.081128515
0.014915309
-0.0070730713
-0.035910938
0.021531802
0.2143667
0.12596688
0.17847013
0.06714966
0.12648219
-0.056291625
0.027117895
0.011709855
-0.059142806
-0.07657669
-0.40523022
-0.36404705
-0.33880317
0.012287447
0.49421483
0.48159367
-0.29965922
-0.041554842
0.016573407
-0.10018597
-0.01441065
0.1232318
0.13068949
0.10455414
-0.019133858
0.041372787
0.06732921
0.24942112
0.16791081
0.26154494
0.12709415
0.069293894
-0.03343372
-0.11677324
-0.043576505
0.04904343
-0.05755886
-0.005045001
-0.39217055
-0.5476161
-0.65976125
-0.42659667
-0.09356203
0.5234341
-0.4729611
-0.036221348
-0.22268267
0.04585843
0.114205465
-0.18354759
0.14235567
-0.00848251
0.08599219
0.065865666
0.10299937
0.11025921
0.18183893
0.10520954
-0.08118622
-0.14293596
-0.25033835
-0.11321206
-0.0005703433
0.1053941
-0.073001534
-0.041051056
-0.15755494
-0.5351909
-0.28142756
-0.06187498
-0.28180492
-0.020174984
-0.45410275
0.219599
0.19843133
0.17751378
0.17339306
0.11570807
-0.14588164
-0.08196945
0.07429432
0.053104587
0.119064346
0.076008596
-0.041151866
-0.08452679
-0.23674756
-0.03388009
-0.070269614
-0.1018688
0.04070427
0.023429126
-0.07116717
-0.09077089
-0.01897673
-0.019970577
0.43335715
0.6297177
-0.16224657
-0.3869496
-0.26579687
0.20449391
0.20740066
0.17392664
0.030666362
0.17770307
0.036845017
0.14296108
-0.039571572
-0.14913347
-0.11034108
-0.23712376
-0.18517144
-0.038900863
-0.1701663
-0.12759213
-0.036725335
-0.18947442
-0.084961705
0.05485908
0.088922985
0.0034422644
0.059197992
0.20959248
0.5399207
0.65493834
-0.32050595
-0.08349129
-0.1517801
0.1340247
0.3201812
-0.026345273
0.35223362
0.14520873
0.019224547
-0.14694557
-0.1894075
-0.32407966
-0.24964029
-0.27352104
-0.33731967
-0.12596427
-0.06442383
-0.058468126
-0.013398103
-0.11773628
0.15254486
0.14081012
0.23139645
0.14231296
0.17976227
0.27734956
0.21569459
0.62933725
-0.66336805
-0.022128906
0.14628674
-0.04080597
0.35437125
-0.25828502
0.61105937
0.340535
0.016609779
0.14838229
-0.09840198
-0.30575365
-0.36192152
-0.38118586
-0.22787885
-0.2477894
-0.19915073
-0.31328624
-0.108705014
0.12232216
0.20421968
0.093393095
0.120354496
0.10529098
0.031211589
0.12014921
0.22327642
0.24162716
-0.58576244
0.32233462
0.32089764
0.17444342
0.37569103
-0.25169155
0.4912146
0.27719662
0.2777439
0.30298665
0.07862768
0.043780293
-0.105560176
-0.1747098
-0.1415759
-0.13199776
-0.16439222
-0.0576543
0.0950306
0.16980954
0.06698055
-0.04742384
0.014224791
0.031342108
0.1517099
0.2416619
0.19201688
0.078703985
-0.36671194
0.17075023
-0.37260115
-0.022373706
0.42336693
-0.07117621
0.2657201
0.27744618
0.35502976
0.20139492
0.09005579
0.20067625
0.08678962
0.021679608
0.03836921
0.03328735
0.09388616
0.1461834
0.156669
-0.0032192338
0.04356734
0.021341149
-0.13826229
0.024955655
0.044747587
0.042076383
0.22314176
0.44598684
-0.1324417
-0.5589282
-0.37883413
-0.040603567
0.18829496
-0.3499974
0.054601375
0.0725105
0.13939112
0.1297767
-0.019900342
0.19863226
0.1961001
0.11074656
0.11645141
0.10448143
0.12389963
0.1000167
0.065591626
0.0020591912
0.07793844
0.039226107
-0.21600653
0.0128252
-0.2253138
0.10018418
0.21803072
-0.05369738
-0.515026
-0.3487308
-0.008388318
-0.2361718
0.059686482
-0.11033863
-0.27210397
0.14856976
-0.14760695
0.063500576
0.027088547
0.043459263
-0.14109848
-0.03460621
0.04282711
0.12501581
0.02739727
0.034180116
0.06554014
-0.016394794
-0.028846389
-0.058564126
-0.045361485
-0.094795175
-0.06051345
0.077989124
0.1515032
-0.3201489
-0.48736072
0.0036662898
0.03784899
-0.16694424
-0.07958008
0.030095018
-0.27538347
-0.10678439
-0.28689384
-0.098034605
-0.05861788
-0.11842641
0.070867814
-0.12727265
0.06483403
-0.010016108
-0.027706644
0.00823047
0.02950009
0.09133629
0.07711757
0.09785491
0.013733411
-0.079091586
-0.21861999
-0.09698553
0.0077101365
-0.38706544
-0.72073174
0.12868068
0.014493399
0.032942954
-0.0541632
0.4801901
0.17481115
0.26900682
0.09255082
0.031162364
0.049606636
-0.04834324
0.14286056
0.19353206
0.2597466
0.014105267
-0.03683933
0.06038844
0.14516793
0.062062338
0.012612471
-0.08903426
-0.15458849
-0.103016034
-0.42927697
-0.60070056
-0.43097243
-0.06881665
-0.4505739
-0.06729256
-0.027708035
-0.0035457448
-0.024716927
-0.054749757
0.4612388
0.07989453
0.069207385
0.012680495
0.024785232
-0.034586534
0.047577187
0.020317057
0.031450532
0.012865043
0.24813212
0.3415091
0.17599875
-0.021731447
0.06502975
-0.105732515
-0.13594644
-0.21307434
-0.11095561
0.044307098
-0.22065237
0.09099458
-0.5305614
-0.2948537
0.013911749
-0.0073442315
0.0432928
-0.20718333
0.21915354
0.065225914
0.04125049
0.1709843
0.01588705
-0.039282136
-0.046732713
0.120627604
0.041467614
0.26153806
0.17552385
-0.10100914
0.13700293
0.23435654
0.15445237
0.4001939
0.37682357
0.002703052
0.0437522
0.3199268
0.34082782
0.40683421
-0.09251869
-0.0011048418
-0.0060296617
0.055505753
-0.033987332
-0.057278525
-0.06431479
-0.38640904
-0.424441
-0.3977634
-0.3533408
-0.18086626
-0.21003653
-0.09838337
0.0059533846
0.005435816
0.024614802
-0.13741803
0.20203668
0.11197018
-0.036597703
-0.0074987295
0.33413973
0.17577799
-0.0772474
-0.17985028
-0.079820424
-0.251359
0.150429
0.059431866
0.039596878
0.001704843
-0.03149955
0.009885167
-0.07422253
0.13536808
0.31102377
-0.08399397
-0.1286008
-0.05417735
-0.24301109
-0.14956255
-0.15150434
-0.29934162
-0.034556657
-0.37767348
-0.28794578
-0.3627149
0.04663142
-0.12505795
-0.17391764
0.22690462
-0.13698849
-0.38054705
-0.04429174
0.034094322
0.013155526
-0.002858736
-0.0049172733
0.021167014
0.061372515
-0.02414338
0.005258482
0.028765846
-0.02811431
-0.047094062
-0.026887292
0.072354555
-0.001037292
0.0075673657
-0.021715635
-0.1814461
-0.23677097
-0.084670134
-0.050519653
-0.021230055
0.01984698
-0.00033586542
0.072824344
0.0019445566
-0.010818154
0.012416625
-0.046260703
-0.08549709
0.02957907
0.033299245
-0.0021272758
-0.0043910616
0.01378058
0.033636782
-0.041532505
-0.087076455
-0.103228055
-0.37520632
-0.4376129
-0.30030322
-0.07692344
-0.07855053
-0.1668956
-0.21995993
-0.06983752
-0.029115662
-0.63275295
-0.012456229
-0.12140955
-0.4902962
-0.3821407
-0.571573
-0.4379846
-0.38962916
-0.2427942
0.02074384
0.103489675
-0.045095358
0.012467245
-0.028581189
-0.024035428
-0.050368227
0.25281933
-0.10937203
-0.124902405
-0.17906919
-0.5478843
-0.14230812
0.2771534
-0.2361077
-0.108417116
0.050853726
-0.22815582
0.0071516423
-0.27506462
-0.30546045
-0.3120574
-0.31276482
-0.35218987
-0.20862819
0.28067455
0.10389139
-0.3065471
0.21344887
0.2709748
0.0057360805
-0.011301585
0.037295114
0.037615385
-0.36236432
-0.30842978
-0.44602168
0.2304696
-0.4283807
-0.121472515
-0.058381822
0.022464879
0.32049644
0.47998908
-0.0773777
-0.18344659
0.15126102
-0.10737612
-0.11150188
-0.116369024
-0.28891346
-0.28871042
-0.34219316
-0.16625568
-0.12171802
-0.4053515
-0.2603193
0.068327345
0.19681706
-0.030556746
0.012304309
0.014187378
-0.36563346
-0.43027043
-0.12565582
-0.024559673
-0.09860163
0.17650029
0.021770194
0.014035979
-0.024310684
0.11176129
0.05130133
0.03086716
-0.0023942648
0.045749232
-0.0015806844
0.071026996
0.029445259
-0.0023875393
0.01590985
-0.19414379
0.08277028
-0.01993142
-0.057705104
-0.12029037
-0.17266034
0.14060497
-0.008723007
-0.0034695312
-0.51145124
-0.20054501
-0.0044386336
-0.29399619
-0.42658117
-0.15802132
0.03887693
-0.13020876
0.14354956
0.107295245
0.08372337
-0.03232105
0.011848249
0.038391035
0.13834035
0.10875553
0.14204107
0.036631886
0.0055821706
-0.09963916
-0.18092272
0.044508487
-0.124234244
-0.10141709
-0.029846815
0.3246329
-0.020823577
-0.24316014
0.3563828
-0.10360212
0.032946978
-0.09431173
-0.0681117
-0.03685293
0.025381235
0.0072113425
-0.02946926
-0.07855373
-0.12538788
-0.03391199
0.03331732
0.082659855
0.13064878
0.03367569
0.07150314
0.055579506
-0.037339315
0.20357285
0.14456159
-0.11096955
-0.18999547
-0.41882563
0.1628322
0.16342656
0.03453655
-0.45858333
0.4105653
0.27211148
0.3301158
0.22801948
0.19358385
-0.0653158
-0.036157377
0.080464736
-0.08531935
0.0058045154
-0.081935875
0.13725863
0.10642325
-0.011366507
0.11181345
0.18236987
0.08984432
0.06534406
0.03126905
0.08685559
0.18276688
0.0887777
0.03198455
-0.113218114
0.20643917
0.09840068
0.39787135
-0.2087598
0.6001889
0.17968754
0.26267922
0.14788759
0.033056457
-0.08286176
0.061927173
0.11502111
-0.055761844
-0.053220358
-0.1552887
-0.119236276
0.11283941
0.12535414
0.16273317
0.14719371
0.1944427
0.07121396
0.08742855
0.1913863
0.08034361
0.000113255825
-0.055706427
-0.011994329
-0.18607906
-0.5121563
-0.19319479
-0.17514741
0.47893795
0.27593425
-0.10562565
0.36573032
0.04017967
-0.1446702
-0.21501355
-0.026183572
0.06287124
-0.15403427
-0.029838003
-0.032447115
-0.010874292
0.17973049
0.29507315
0.32032597
0.3068112
0.16842747
0.28395492
0.012320042
0.093341656
0.050053656
-0.32500404
-0.44838065
-0.43268132
0.2480659
-0.11413475
-0.16199097
0.31175467
0.7496475
-0.20331186
0.24795008
0.15560436
0.056466196
-0.1546959
-0.112046495
-0.23944274
-0.24159952
-0.11461571
-0.2692862
-0.09951261
0.049817923
0.20559685
0.3451422
0.36183062
0.1858516
0.078181066
0.061018754
0.24246505
-0.06818718
-0.22037587
0.084184006
-0.38945612
-0.030600367
-0.09078088
0.42139673
0.1306344
0.33992544
-0.30749878
-0.037794877
0.09070148
-0.09325177
0.0077781784
0.041223202
-0.05255489
-0.046763133
-0.06161678
-0.11687741
-0.13976695
-0.055725023
0.010516122
0.1808634
0.18982935
0.24223724
0.2451547
0.23072106
0.15705632
-0.29163563
-0.557118
-0.13146025
-0.5444657
-0.13818327
-0.053358793
0.26806855
0.02697889
-0.09047562
-0.24579838
-0.18032381
0.025791802
-0.11427784
-0.025122814
0.07522852
0.18210626
0.20262018
0.23387991
0.17084888
-0.16537397
-0.23003869
-0.10784065
-0.07313324
0.112668656
0.2336001
0.16726594
0.042215064
0.051438756
-0.3468372
-0.3269134
-0.2574344
-0.31666073
0.13417627
-0.2900705
0.18406266
-0.013142423
-0.18100648
-0.0014376871
-0.042887438
0.11340936
0.095926546
0.20056406
0.19595812
0.19002007
0.27494922
0.2913846
0.22982232
0.007797559
-0.1335401
-0.06356942
-0.040445585
0.14049794
0.031498153
-0.054814037
0.06062867
0.024794806
-0.16404459
0.035380997
-0.052237216
0.018548394
0.36185455
-0.20209326
-0.19039549
-0.32346636
-0.25186336
0.03463957
0.20101328
0.09779422
0.45715588
0.28669074
0.16879953
0.11931326
0.2136446
0.3305006
0.19320075
-0.06844357
-0.04919389
-0.010478863
0.14959954
0.14033279
0.058137596
0.09414972
-0.09184062
0.09140674
-0.024624238
0.046062976
0.246803
0.47776023
0.28974217
-0.2254901
-0.04083737
-0.06732831
0.087360255
0.16662769
0.13107014
0.028290942
0.22305998
0.18030468
0.11994133
0.11320039
0.1540756
0.25472715
0.0452111
-0.11251771
0.124202944
0.104783274
0.26582488
0.013883525
0.07796379
-0.034313824
0.030594809
0.14786924
0.13325617
0.19169937
0.015475283
0.85753804
0.33700684
0.2112553
-0.2767306
-0.16660441
0.013199034
0.22149627
0.04987937
0.058847256
0.14741877
0.08627632
-0.010658141
0.14609592
0.3481909
0.25471175
-0.03283679
-0.018550968
0.10391446
0.17840324
0.35140765
0.16031574
0.09508613
0.19637783
0.15250652
0.08569996
0.14373022
0.10477764
0.13518453
0.69855
0.39064074
-0.012158133
-0.29087362
0.5513536
-0.34556508
0.17650095
0.13161214
0.0071982946
-0.0003060388
0.07695058
0.14363809
0.22917289
0.18781185
0.1164539
0.011058136
-0.13661472
0.15691137
0.16753186
0.15549916
0.05144805
-0.03387057
0.047354802
0.15529981
0.1739275
-0.009007797
-0.14339752
0.10234353
0.4552533
0.35232374
-0.38162285
0.13274212
0.31459194
-0.24955536
0.05237876
0.05346926
0.021328636
0.0640178
0.14402452
0.18319789
0.10882288
0.122312635
0.12160618
0.0064190426
-0.101751514
0.06166868
0.21413
0.008310483
0.004473023
-0.064941935
-0.11386963
0.11026476
-0.06365166
-0.050772447
-0.07505177
0.046204396
0.4049564
0.48097724
-0.3222639
-0.20053771
0.04263218
0.13736063
0.25746432
0.14596027
-0.023641998
0.14614613
0.015244554
-0.07567696
-0.039050706
0.010625256
0.015344291
-0.06033539
0.06628037
-0.02688234
0.015497701
-0.017935349
0.020786405
-0.062072933
-0.12444075
0.1237178
-0.12090909
-0.22656369
-0.29880056
-0.064833894
0.4901449
0.37028956
-0.038409907
0.30363473
0.3080787
0.2324567
0.26990834
0.21557227
-0.0034113917
0.009761651
-0.067713246
-0.066292316
-0.049080443
0.021544768
-0.069954455
0.0012745495
-0.06423682
-0.051821407
-0.02621885
-0.026018187
-0.09784531
0.00965928
0.023946168
0.16003853
-0.20896402
-0.20733672
-0.007681858
-0.199031
0.38268888
-0.16506232
-0.20453387
0.0481799
0.3431546
0.099949546
-0.029992653
0.02373443
-0.12601565
-0.15226634
-0.01049367
0.02241024
-0.0051041385
0.02952308
0.10022814
-0.074365266
-0.1651851
-0.13477638
-0.0128852185
-0.1517868
-0.09747402
0.035261292
-0.024927404
-0.023648757
0.08419502
0.15444799
-0.014376726
-0.15677439
0.60477847
-0.0068386365
-0.24846566
-0.2078997
0.40223902
0.10670079
-0.097633295
-0.08366562
0.20111941
0.032440666
0.16863543
-0.045361117
0.17123698
0.20006108
0.10562266
0.075459115
-0.03482658
-0.08761678
-0.011740415
-0.032451008
-0.03666553
-0.042031046
-0.17556375
0.099867895
0.2951355
0.2078706
0.18575576
-0.08316961
-0.20943834
0.003570938
0.013328705
-0.0014754718
-0.17831175
-0.14162356
-0.2469043
0.040120337
0.19784585
0.31565508
0.24608737
0.16680051
0.22129513
0.2722458
0.08058626
0.034054313
0.10609564
-0.014906463
0.024952926
0.13850717
0.10077217
0.055427734
-0.1336397
0.3755004
0.36833748
0.28314632
0.23062667
0.2592677
-0.30443516
-0.014994766
-0.008429728
0.08369169
0.1279477
0.2435068
0.2522315
0.26375428
0.006361754
0.1386175
0.022993743
0.06338897
-0.09646925
-0.12921458
0.07940435
-0.1460484
-0.03329883
-0.01145179
0.11587704
0.10639253
0.15443788
-0.11636067
0.12200158
0.47807673
0.5674715
0.43483594
0.2605367
0.73922616
0.082254745
0.020462502
-0.072588965
-0.0010492312
0.047208842
0.32802373
0.32670674
0.11263796
-0.27963
0.021348141
-0.051206764
-0.08365
-0.013491778
-0.029508945
-0.26762018
-0.009953962
-0.0061636795
-0.098484874
-0.01517321
-0.13476585
-0.13030536
-0.39420474
-0.019638643
-0.0013553763
-0.1500139
-0.30604014
-0.6198158
0.30247387
0.2151739
-0.017722523
-0.07642042
-0.0037985088
-0.035953756
-0.008764616
0.19671275
0.13617946
0.13522136
-0.115187556
-0.060726896
-0.07661632
-0.07595082
-0.20123497
-0.004146827
-0.19815905
-0.16365264
-0.14663322
-0.1461431
-0.23034285
-0.2925696
-0.27071285
-0.422032
-0.33481675
-0.6495983
-0.34284657
-0.28423125
0.05037433
-0.017673446
-0.02402893
0.017441265
-0.0040500215
-0.010675623
-0.068725824
0.054617796
0.013099284
-0.11210863
-0.10735423
-0.12592404
0.14090629
-0.4014185
-0.31252125
-0.13616908
-0.12481535
-0.47444513
0.009171888
0.1407068
-0.24263623
0.057059575
0.22635429
0.11555087
-0.28449252
-0.20788623
-0.2991721
0.03672086
-0.019408107
-0.019037364
-0.0287644
0.025277318
0.0018057724
0.0319231
0.020468678
0.0041034888
0.042042986
-0.0006689691
-0.04210487
0.05480928
-0.044331677
-0.014238489
0.022975264
-0.2369735
-0.25958943
0.11250178
0.02066267
0.0112086255
0.0024954788
0.032810897
-0.04280085
0.06285562
-0.037769675
-0.057291556
-0.021206329
-0.0042308834
-0.087492265
-0.039277293
-0.026110902
-0.026772007
5.6738354e-05
-0.013306326
0.018338459
-0.008036485
0.0099107595
-0.31677547
-0.37358713
-0.39156553
-0.3458255
-0.26263842
-0.31380048
-0.28251296
-0.22638382
0.046288382
-0.04741001
0.12471871
-0.023609834
-0.24856123
-0.20202783
-0.23125368
-0.13078916
-0.102560826
-0.024902625
0.011683326
0.018866578
0.015689172
0.036430262
-0.020342387
-0.01460912
-0.03561973
-0.035170637
0.032296963
0.006003309
-0.2821753
-0.5774658
-0.3735001
0.1503455
0.054374754
-0.076434396
-0.5313654
-0.57146513
-0.5547923
-0.38541886
-0.099660866
0.041506533
0.25148362
0.14447092
0.22827102
0.048833977
-0.14714073
-0.0522675
0.2032783
0.19361745
-0.04294376
0.051419776
0.01663638
-0.03639254
0.029301602
-0.0066561624
0.15846393
0.23710543
0.1068115
-0.112083346
-0.084009655
-0.02032247
0.109399535
0.096937224
-0.06413724
-0.20456411
-0.07073039
0.0064098397
-0.111067176
-0.08874707
-0.10219779
-0.18619403
-0.3059324
-0.03748324
-0.101954155
0.13419288
0.3008174
-0.07425586
0.008015652
-0.045159005
-0.0014145599
0.10302896
0.25683632
0.196159
-0.06397035
-0.10984715
0.12786147
0.10336531
-0.08345193
-0.0234067
-0.012063897
-0.02950476
-0.0019242064
-0.14403026
0.058216527
-0.03851642
-0.06790951
-0.030007483
0.17563976
0.08670594
0.023627374
0.09924639
0.19931099
0.17235847
0.46568137
0.5446558
0.31496793
0.043189786
-0.04548264
-0.024123617
-0.20584537
-0.2993117
-0.112148255
-0.1600689
-0.040692016
0.095768854
0.117090575
0.20953503
0.00043352917
0.1457796
0.17208529
0.15686947
-0.06476275
-0.010909704
0.08242733
0.16254213
0.10246971
0.051418956
0.28471094
0.13208337
0.19443986
0.22724399
0.010363871
0.17295553
0.3802027
-0.030827722
-0.021735093
0.29316062
0.11139138
-0.3192237
-0.24269101
-0.10408922
0.06801841
0.00045812337
0.2565118
0.29099193
0.17950568
0.11425515
0.205921
0.26341167
0.19728911
0.27396953
0.2689877
0.27451935
0.046649367
0.06290352
0.09627944
-0.04364936
-0.10961301
0.11644397
0.04306883
-0.021958286
-0.06555712
0.02104809
-0.013193233
0.491016
0.31507388
0.055802606
0.046400562
-0.16731855
0.18369876
-0.117529154
0.2321788
0.0626149
0.15591139
0.0839109
0.15619028
0.183686
0.22572406
0.28891376
0.25312737
0.0764794
-0.044188395
-0.20839772
-0.051164027
-0.21177763
-0.17292605
-0.32167056
-0.18334837
0.06083009
-0.32877913
0.056030937
-0.010065205
-0.19674778
0.16752806
0.19541669
0.21204706
0.104749076
0.0063036415
-0.057546113
0.117724344
0.11781708
0.14831243
0.15401706
0.095837004
0.2742161
0.25049743
0.08626551
0.0086466
-0.09806642
0.0600026
0.012840458
-0.20976937
-0.054422848
-0.0029626314
-0.1601315
-0.2653701
0.11145244
-0.005999127
0.37046763
-0.022010813
-0.1022732
-0.070966445
0.11493604
0.14347324
0.0297245
0.16291855
0.10274316
0.16406564
0.23808877
0.046229023
-0.040000454
0.013554006
-0.081644475
-0.0969949
-0.1433343
-0.2317492
0.033794794
0.01612559
0.024405958
-0.024485512
-0.06455844
0.07934129
0.050863806
-0.5305902
-0.22074705
-0.08570162
-0.16282684
-0.060500167
-0.19668658
-0.2536551
0.3937938
0.14267783
0.061540015
0.18263774
0.21956904
0.18331209
-0.057516135
-0.2222419
-0.37675548
-0.3854893
-0.58836144
-0.43136147
-0.4261364
-0.13339141
-0.13243876
0.054672603
0.05368913
0.058814593
-0.047879364
0.1847907
0.16722387
-0.36861643
-0.092886135
0.2051123
-0.10309594
-0.019315816
-0.2461319
-0.17680387
0.057550084
0.16551428
0.14063072
0.15136853
-0.043080755
-0.12217935
-0.18278623
-0.44545266
-0.46777925
-0.49280748
-0.33121884
-0.026477795
0.05932292
0.110188745
0.11450418
-0.012185384
0.10137876
0.056308534
-0.021325018
0.17639303
0.057430983
-0.03756846
0.22559108
0.23658833
-0.3044988
0.012951775
-0.32045174
-0.013331958
0.01422579
-0.11845907
-0.08164478
-0.12640323
-0.22002546
-0.36880997
-0.2653702
-0.16456169
-0.048377603
-0.044972762
0.18395455
0.3065132
0.13166171
0.037146095
0.08666423
0.019305952
0.011684369
0.040282357
-0.13074058
-0.08630933
-0.1914696
-0.027848119
-0.20505151
0.03185213
-0.35327792
-0.24371755
-0.26335377
-0.23137835
-0.02867912
-0.25797462
-0.26820338
-0.3588036
-0.14109322
-0.16275018
-0.033120558
0.07919835
0.27767375
0.15853445
0.32663453
0.17162949
-0.017874124
-0.11853025
-0.022716476
-0.005257095
-0.095819056
0.1517632
0.021900453
-0.011785691
-0.28624395
0.0038178116
-0.020637685
0.4193395
-0.031078732
-0.28872785
0.31604314
-0.3940396
0.076342314
-0.15438353
-0.34170663
-0.0152757885
0.09094206
0.13242954
0.15495431
0.27741387
0.22272941
0.17615391
0.27566805
0.1551165
-0.01724223
0.011463722
0.04590092
-0.029558273
-0.23023762
0.020405822
-0.052561138
-0.016781786
-0.30745637
-0.052245144
0.18437187
0.116038635
0.13509125
-0.28328487
0.256171
-0.3947426
0.10445346
-0.014824303
-0.08823926
0.06913755
0.102343515
0.11769706
0.1459578
0.19473013
0.14194463
0.087375626
0.15538828
0.061056025
0.15868883
-0.0008748764
0.017134856
-0.013670722
0.004171257
0.08648089
0.037734877
0.0010223561
-0.17135784
-0.00434983
-0.009713615
-0.004497813
0.21106826
-0.07398356
0.37004742
0.15174034
0.19764964
0.13147618
-0.1726592
-0.03519123
-0.04288952
-0.18037036
-0.006062745
-0.063854694
-0.13218792
0.13907465
0.190537
0.08534911
0.13373674
0.06744194
0.13301238
0.13217825
0.046360098
0.12468621
0.08776474
0.04138793
-0.22621378
-0.13314322
0.22904097
0.29123193
0.10543113
-0.03684025
0.425366
-0.03196781
0.046944983
0.057652034
-0.06380352
-0.084472485
-0.2660251
-0.11020308
-0.18536395
-0.24241748
-0.23617925
0.020306308
0.12789202
0.018826328
0.23601294
0.0453361
0.15912968
0.1781554
-0.017081454
0.118191615
0.2603889
-0.024294259
-0.28650582
0.023080714
0.041176207
0.0038453399
-0.13264796
0.25370592
0.4856534
0.02876549
0.05296993
0.17510219
0.20752183
0.038684037
-0.28259137
-0.30248684
-0.31491813
-0.16701125
-0.1691299
-0.38014624
-0.11256622
-3.811889e-05
0.12673283
0.09211519
0.08288687
0.09766365
0.16928181
0.0648206
0.2160361
-0.072058246
-0.12267562
0.18890606
-0.040208668
0.27140728
0.2878159
-0.35362497
-0.046135858
0.20037808
-0.07957313
0.14335589
0.15287758
-0.12798007
-0.25242227
-0.18123892
-0.21571903
-0.19610035
-0.267902
-0.4344772
-0.27351105
-0.23740146
-0.19913551
-0.059282903
0.13116698
0.1466848
0.035800274
0.11257425
0.18289725
-0.0018584547
0.010555082
0.028973533
0.090915896
0.28478473
0.25732112
-0.025976134
-0.040706567
0.27354532
0.2686006
0.23940368
0.17741925
0.050340746
-0.0302241
-0.179957
-0.12167761
-0.15856354
-0.09469776
-0.14829029
-0.081124626
-0.14985698
-0.075708255
-0.028010532
-0.02895173
0.026699284
0.072370045
0.123276636
0.19583641
0.18695739
0.011529098
-0.15159847
-0.147751
-0.0686677
-0.2683152
-0.30514053
0.06414557
0.3467636
0.1944583
0.22899999
0.16153225
0.20686641
0.17573917
0.060031768
-0.03600553
0.080842644
0.05306098
0.12016609
0.0036261922
-0.053794343
-0.09910794
-0.0034946958
-0.12678537
-0.063872784
0.048341222
0.11480127
0.27300462
-0.08832791
-0.068411045
-0.18322553
-0.33462995
-0.19282362
0.003709606
-0.23446773
-0.172883
0.015636377
0.068160795
0.14329247
-0.13022126
0.013664657
0.103583604
0.10943883
-0.1284001
0.07093812
0.19560443
0.040798962
-0.1283265
-0.056832876
-0.12299437
-0.067480184
-0.08031095
-0.18812747
-0.102656655
0.08418152
-0.081234716
0.04778465
-0.08102195
-0.018933676
-0.18100205
-0.20248906
0.05896196
-0.056525096
-0.010926534
0.08138712
0.30328587
0.34510756
0.13597319
0.08567377
0.23766345
0.23153707
0.046236377
0.05431959
0.12097429
-0.06719678
0.080773324
0.0015299062
0.014542464
-0.16278593
-0.24988446
-0.092941254
-0.066853866
-0.032505453
-0.18464574
0.17682272
0.40712017
0.06696879
-0.058934987
-0.26837775
0.034065347
0.020206256
-0.0024674956
-0.1622269
0.19904113
0.36061832
0.1122886
0.13784622
0.13738984
0.08265766
0.13699752
0.13552651
0.19434147
-0.021731997
0.110469446
-0.022502746
-0.08432626
-0.0996658
-0.14738713
-0.094241664
-0.0017372909
0.19600435
0.20207286
0.2544063
0.29646873
0.009433572
-0.34853202
-0.3914176
0.0040248083
0.049560163
-0.0579963
0.4246147
-0.2759147
0.1714489
0.47963944
0.22538994
0.3294824
0.3684233
0.33729413
0.41072044
0.1830299
0.07469047
0.12025936
0.13182198
0.103398874
-0.05104612
-0.19614421
-0.03503015
-0.0038944848
-0.06945481
-0.29368064
-0.377597
-0.09469548
-0.08502341
-0.28728238
-0.24407369
0.009325186
-0.022487467
-0.013923768
0.009835232
0.21660216
0.12424693
0.21333143
0.33402324
0.51699114
0.34678063
0.44138888
0.4985813
0.5104681
0.23615064
0.38222256
0.47991547
0.06604067
0.093200125
0.25897107
0.23780653
-0.12612142
0.25512612
0.12645629
0.26534513
0.34131813
0.329326
0.003275645
-0.0008759197
-0.02984487
0.040538587
-0.018335138
0.035840742
-0.0065422347
-0.010494169
-0.063790284
0.07235632
0.09854893
0.09648227
0.21232082
0.37330326
0.2784913
0.15110463
0.18809834
0.6716793
0.004225293
-0.28342316
-0.42025003
-0.24341232
0.041897148
0.1483227
0.075448155
0.0030733866
-0.09506968
-0.0074504795
0.005895777
-0.023947304
-0.036837287
-0.07783116
-0.055146918
-0.014908523
-0.013178012
0.008060252
0.010225458
0.016356729
-0.03507169
0.022410681
0.0012658151
-0.014921933
-0.046876352
0.018504288
0.05031118
0.019056123
-0.048137445
0.032297667
0.039666433
0.07366011
0.047031865
0.010120634
-0.011422669
0.01689819
-0.057270985
0.018775241
-0.009320452
0.003568632
0.04505022
0.006530143
-0.03788461
-0.010358471
-0.021805145
0.097022876
0.006574301
0.04859249
0.074444085
0.018832989
-0.0092727095
-0.0005421641
0.07251991
-0.030042551
0.08334239
0.10654705
0.0845797
0.009535888
-0.051075693
0.01804346
0.08803294
0.04058478
0.02337048
0.03552004
-0.00758233
-0.050123304
0.010447955
-0.02979337
-0.01829839
0.0229628
-0.05308367
-0.0333664
0.0013389353
0.011856245
0.009015202
0.089965396
0.06235819
-0.23834732
-0.36870342
-0.22024217
0.033805434
-0.16078646
0.17667025
-0.079633035
-0.28761742
-0.1438822
0.14370899
-0.047589693
-0.052431144
-0.15622647
-0.24436389
-0.30594212
-0.24643387
-0.045935128
-0.013696942
0.04874231
-0.057859357
0.0182566
-0.0064747455
0.0028392454
-0.06520572
-0.0112221865
-0.1545667
-0.18860053
-0.36058846
-0.27541193
-0.17657128
-0.066488594
-0.25478086
0.19565602
0.5051925
0.37472636
0.16375995
0.2683127
0.06790039
0.098682836
0.40126467
-0.14602154
-0.32233396
-0.24552809
-0.12595779
0.45059654
0.09317746
-0.10290173
-0.012540631
0.034602124
-0.0032853228
-0.27943
0.10428911
0.11275519
0.02312046
-0.046629757
-0.09549738
0.090293676
0.11573958
-0.041742265
0.101715684
0.007597456
-0.037239898
-0.176799
0.06471171
0.032641254
-0.012258986
-0.0712714
-0.027918339
-0.0018156904
0.2282891
0.28290814
0.07499923
-0.3137282
0.017902426
0.3446209
-0.0072896318
0.028364012
0.01591967
-0.17671858
0.25756618
0.051504035
-0.0421431
-0.18538626
0.058789354
0.2092539
0.052767105
0.24724995
0.0860262
0.03193421
0.121656165
0.063710675
-0.18672197
-0.004263796
-0.050748724
0.049415566
0.044756666
-0.035662785
0.12194326
0.15555632
0.20101218
-0.13828313
-0.15377143
-0.31211898
-0.35323235
-0.058634616
0.07979301
0.18298279
0.22133636
0.11007471
-0.049399827
-0.021583965
0.16469933
-0.0013335323
0.04213603
0.2654
0.04715545
0.1461017
0.1855389
0.16384949
-0.008851165
-0.08813766
0.06494765
0.123417124
0.04057437
0.0629393
0.0940224
0.22799931
0.094411366
-0.0302245
-0.010164113
-0.05552529
-0.110068955
0.008985521
-0.003810026
-0.23739806
-0.3663816
-0.08817337
0.19005333
0.093355946
0.25202408
0.09039278
0.23142841
0.18288362
0.20980416
0.2659657
0.2589284
0.33633837
0.10201953
0.2652316
0.18354931
0.27191556
0.32487735
0.19285175
0.16782556
-0.02721055
0.047621187
0.0035744875
-0.0018873756
0.110037036
-0.179561
-0.06607094
-0.15506399
-0.1494827
-0.43401775
-0.076306775
-0.08694389
-0.082030155
0.07623972
0.029590914
0.06254377
0.078373134
0.14710814
0.4061975
0.28692213
0.2958621
0.17761056
0.2603128
0.11272642
0.04635127
0.040139016
0.11278507
0.017154027
0.0881361
0.16285358
0.03446809
-0.31090006
0.16144633
-0.26331842
-0.055626117
-0.19984813
0.073556684
-0.24405049
0.15335993
-0.051211685
-0.16342978
-0.034929506
-0.08817113
0.022402193
-0.046125833
-0.039720982
0.12786949
0.28251272
0.10770014
-0.056637347
-0.1181254
-0.11756295
-0.044679455
-0.009955572
-0.13024184
0.02864302
0.07880959
0.103059284
0.14365664
0.25518978
-0.18424898
0.38720798
-0.0723786
-0.29269072
0.13813445
-0.0365069
-0.006726206
0.037004404
-0.07110584
-0.18935488
-0.06125161
0.030543735
-0.006341955
0.0027795723
0.09194966
0.085284464
-0.22965978
-0.3888204
-0.27381447
-0.22047333
-0.15401357
-0.26973248
-0.10662449
-0.021250842
-0.047953203
-0.074674465
0.2254471
0.13729843
0.55468
0.34867382
-0.27218583
0.14610066
-0.2958417
-0.17281933
0.12836605
-0.2962539
-0.15718126
-0.1820475
-0.033622097
-0.05003897
0.01920631
0.13781425
0.061481945
-0.19519036
-0.4642998
-0.3956287
-0.34124073
-0.06725717
0.03518414
-0.15269229
-0.23637602
-0.2517686
-0.18164963
0.030537317
0.2524939
0.06560292
0.47245607
0.2323049
-0.20247786
0.26046088
0.029172808
-0.09875828
0.12744766
-0.09545888
0.049641207
-0.073788255
0.17384821
0.0538187
0.13250035
0.10208229
-0.1213467
-0.3055723
-0.28785145
-0.16345191
-0.18721624
-0.11184166
-0.053384997
-0.2908579
-0.12231751
-0.124425344
-0.2833318
-0.053740807
-0.0047142874
-0.14030181
0.2622364
0.2929005
0.020971056
-0.10720734
-0.1174637
0.33143458
0.006385127
-0.1964332
0.11867206
0.0011414145
-0.06964493
-0.0075980173
-0.07356792
-0.11985452
-0.3506979
-0.2171861
0.04163229
-0.15688454
-0.29414034
-0.16641058
-0.1622655
-0.24280496
-0.29792482
-0.013522195
-0.34939668
-0.10347781
0.142482
-0.23756257
-0.23915918
0.0984825
0.27867743
-0.24086444
-0.09323052
0.11927862
0.0026053702
-0.19626898
-0.1400215
0.08971586
0.020077098
-0.05914267
-0.09048844
-0.22378619
-0.21014635
-0.18079934
-0.06669913
-0.02656198
-0.2648078
-0.17143255
-0.2064875
-0.26408026
0.011387426
0.09474835
-0.15377076
-0.041227624
0.10391563
-0.30342928
-0.10302059
0.036638618
0.2773054
-0.15416417
0.017254282
0.033531368
-0.10546613
0.12156719
-0.06397855
0.019932076
0.08100462
-0.05536308
-0.011813535
-0.08294607
-0.03633637
-0.27669737
-0.29251108
-0.18189676
-0.051280007
-0.12525746
-0.1331985
-0.28465444
0.07315064
0.15453468
-0.16426869
0.029693898
-0.050859377
-0.2544004
0.14582296
0.11768988
-0.023898834
-0.12848978
-0.26962066
0.004542743
-0.15386498
0.09115797
-0.1176172
-0.05800523
0.11956832
0.029283376
0.040894765
-0.086575314
-0.09988518
-0.106642745
-0.20108609
-0.1254539
-0.25377735
-0.31930023
-0.21868673
-0.008887596
-0.03973375
0.10301959
-0.034321994
-0.15111399
-0.052284315
-0.34197292
-0.30637935
0.1270893
0.018130016
-0.10926764
-0.41543388
0.1265757
0.052037973
-0.043479126
-0.089987196
-0.025565973
-0.062206946
-0.05784479
0.03308019
-0.060683247
-0.019538404
-0.0047262427
-0.029959654
-0.1968079
-0.38390386
-0.21719494
-0.099505864
0.021879937
0.013453898
-0.019075777
0.00292037
0.0346323
-0.18701808
-0.044053447
-0.4980689
-0.24280666
0.0022565965
-0.26183462
-0.44972712
-0.16976343
0.09972774
-0.16290705
-0.082282625
-0.026726538
-0.13904357
-0.09936291
-0.11852814
-0.26831368
-0.19138454
-0.24942687
-0.31832907
-0.4051134
-0.28957123
-0.14909136
-0.10630159
0.052570105
0.120367624
-0.011446098
0.006362374
-0.06403785
-0.24003725
-0.13073248
-0.38881412
-0.41682976
0.045324884
-0.25714892
0.32342973
-0.3026481
0.03790835
-0.20126994
-0.035688676
-0.014854935
-0.109005384
-0.26987034
-0.26647335
-0.1382397
-0.13290837
-0.33754465
-0.33671343
-0.1447791
-0.039564803
-0.0065918555
-0.11677649
0.021334453
0.21498272
0.110563
0.023520777
-0.054835968
-0.11331476
-0.19162612
-0.28095046
-0.27299348
0.056638744
-0.07330421
0.14161114
-0.043600265
-0.042991314
-0.059941065
-0.105801016
-0.11060993
-0.120909296
-0.03297887
-0.1028562
-0.018111853
0.054762207
0.044028126
0.13150202
0.22895567
0.1490026
0.058432564
0.003173896
0.050878108
0.11138891
0.079675384
0.07806089
0.01799731
-0.10041921
0.15429217
0.28082287
0.07028851
0.031193772
-0.16024707
0.15575598
-0.096548304
0.060626816
-0.19263451
-0.1794209
-0.13341437
0.043716036
-0.0039800187
0.04263413
0.26051244
0.22127323
0.30653405
0.39740387
0.36919516
0.18168922
0.024073958
0.18431035
0.14285181
0.057279423
0.082069576
0.09253041
0.32977694
0.4614736
0.07505695
0.20494694
-0.03131018
0.003159013
-0.12893258
0.21855608
-0.027015781
-0.12247863
0.06769829
0.1118448
-0.07609226
0.20628338
0.19088231
0.0897332
0.27216476
0.22849101
0.29196647
0.2906156
0.2697012
0.20207845
0.1855666
0.23418738
0.08141208
0.14747882
0.061982248
0.19427103
0.2978408
-0.06621264
-0.17017707
0.5122231
0.04340774
-0.05301093
-0.017914878
-0.06471762
-0.08595596
0.06549039
0.2063669
0.18045382
0.17422256
0.12774532
0.25595888
0.23076473
0.27581432
0.13479275
0.1923567
0.21298161
0.20795777
0.19484589
0.22268917
0.109104894
0.06036683
0.13570298
-0.042952213
0.22744381
0.012485778
-0.064251736
-0.1299616
0.47230527
0.07672111
0.019521352
-0.020359756
-0.28543913
0.07110126
0.4015721
0.3756196
0.19152817
0.3491683
0.33750823
0.35805178
0.17120215
0.10408605
0.26639897
0.21424653
0.19741733
0.16654694
0.08425025
0.42066053
0.4680581
0.0042594043
0.070825554
0.104533084
0.25073215
-0.13210185
0.35506752
0.10862456
-0.07780826
0.013224419
-0.025225079
-0.066240884
-0.26625058
0.30766442
0.40912154
-0.06649144
0.09467001
0.3113093
0.5394278
0.3793371
0.21613608
0.27149096
0.3492573
0.22483651
0.03400466
0.32648325
0.2911907
0.21714433
0.31048387
0.5683297
0.3275156
0.3304825
0.4763086
0.36931223
0.3866311
0.02309007
-0.026101943
0.065990604
0.03694619
0.022606492
0.023737948
-0.023297574
0.42608255
-0.23826462
-0.11261354
0.036788985
-0.011146927
-0.1357009
0.18621747
0.13308626
0.21050645
0.16924258
0.21415377
0.56448454
0.46130815
-0.2947259
0.04053502
0.37446123
0.14718066
0.113198
0.4714375
-0.018220153
-0.012962783
0.04438241
-0.005046956
0.029211909
0.027329277
0.07852933
0.039200503
-0.034002203
-0.031939838
0.025656132
-0.035674375
0.045220796
0.05055336
0.21669915
0.38525245
0.4870438
0.77830046
0.68564796
0.4435084
0.5106142
0.4825221
0.09351509
-0.26928082
-0.18427175
-0.024533546
-0.1506775
-0.17374684
-0.077375785
0.016113762
-0.0023302152
-0.012955337
-0.017577099
0.020840626
0.031987064
0.06988542
-0.05336019
-0.016530367
-0.023691291
0.018669078
0.06447447
0.025014067
0.01249901
0.014275815
-0.044462554
0.048416495
0.08897708
0.043856476
0.05846721
0.01262115
0.028409734
0.04149486
0.0197024
0.040419996
-0.017906085
-0.03391747
0.01723823
0.011335317
0.08216608
-0.005685468
-0.00950213
-0.0065394114
0.006173374
0.038843226
0.012904238
0.0051988335
-0.004745887
-0.22953886
-0.24590474
-0.18153448
-0.08790291
-0.29205135
0.10566941
0.088108495
-0.025728952
0.29874852
0.34148645
0.37701243
0.27620953
-0.2706833
-0.18266691
-0.1466824
-0.0336809
-0.13457501
-0.16324595
-0.0007715398
0.051265545
-0.00020289901
0.035427757
-0.026001744
0.032278914
0.048732296
0.17365755
0.10009882
-0.0023153855
-0.07362981
-0.32870045
-0.3213399
0.09682924
0.27242607
0.10073564
-0.23692417
-0.07540342
-0.18118382
-0.21237244
-0.21295013
-0.54728615
-0.5668469
-0.114939354
-0.052989032
-0.053125717
-0.16621713
-0.049213216
0.02161599
0.0021697916
0.011086554
-0.07238628
-0.024500702
-0.0366641
0.43191743
0.28123555
-0.010667663
-0.016499314
-0.17036648
0.11593603
0.014268181
-0.03155559
0.028505849
-0.025763502
-0.026579026
-0.19978897
-0.41632506
-0.27731934
-0.19008169
-0.29363444
-0.43951544
-0.21183243
-0.33027852
-0.41024506
-0.25588214
-0.15070032
-0.04524057
-0.030340021
0.012772107
0.014682041
0.080177106
0.019149385
0.3645012
0.3792918
0.10798172
0.020834485
0.06985218
-0.16136573
0.10783921
-0.13830587
-0.006076917
-0.020734645
0.046951327
-0.016828578
-0.27462476
-0.2695507
-0.30027026
-0.31877652
-0.2973157
-0.38301224
-0.6231855
-0.119908795
-0.42432785
-0.07374568
0.07441909
0.14286338
-0.103103474
-0.058764514
-0.008649905
0.010070198
0.36418775
0.100401305
0.20160335
0.19613595
0.10639367
0.10197697
0.09113002
0.004508384
-0.10353117
0.06818555
0.15030208
0.070920564
-0.009770544
-0.010792654
-0.16091004
-0.36418983
-0.2193572
-0.3605147
-0.590704
-0.30119208
-0.33847615
-0.14986202
0.022806922
0.14321291
-0.29199064
-0.11178206
-0.02408663
0.10505293
-0.041628707
0.25652424
0.09908878
-0.07304402
0.2633898
0.0762659
0.079529114
0.0006653286
0.08263548
0.12552273
0.10200185
0.061923478
0.075822145
-0.10745691
-0.025167722
-0.08884705
-0.08424382
-0.39681095
-0.28735387
0.15281941
-0.30016744
-0.09845162
-0.35574403
-0.41189414
-0.14355424
-0.1274897
0.15615258
0.40508848
0.23205991
0.46158975
0.26920485
-0.078152835
0.19173115
0.11447775
-0.043144293
0.09749535
0.056314852
0.034924287
0.1862197
0.17576252
0.105335936
0.14510709
0.06748727
-0.01449896
-0.16294882
-0.2647771
-0.21172072
-0.1939939
-0.35585535
-0.29802418
-0.6891091
-0.5587711
-0.38918388
-0.21774636
0.0061860126
0.49837166
0.070265524
0.11744172
0.1724236
0.057927176
0.10784016
0.19328398
0.007829243
0.11536038
0.2889552
-0.009288234
0.11364087
0.1751419
0.2316704
0.26430404
0.10819187
0.038425792
-0.013871739
-0.22035931
-0.18027999
-0.24934816
-0.20112602
-0.36041263
-0.6274302
-0.56985825
-0.4363513
-0.26258758
0.08351558
0.48600677
0.10956563
0.16763256
0.33575422
0.23892507
0.08230393
0.010046854
-0.01828058
0.060549773
0.12978125
0.039245296
0.22656211
0.31362882
0.4615083
0.41096658
0.16741289
0.15090017
-0.01464916
-0.15478827
-0.2682017
-0.2065444
-0.13167395
-0.552626
-0.40830362
-0.54841954
-0.44963816
-0.008841993
0.15894154
0.41653037
0.35612068
0.1432585
0.20095678
0.031345192
0.001321115
-0.03317119
-0.03883369
-0.0050634146
0.118507944
0.09914298
0.05993527
0.3847207
0.52843475
0.27828437
0.18209417
0.018348662
-0.077847004
-0.09006981
-0.18135755
-0.16157025
0.13533777
-0.18837316
-0.69105184
-0.30955404
-0.25044703
0.20758945
0.22992857
0.30519065
0.47953802
0.118520424
0.28144816
0.06156795
0.0321846
0.14161175
0.006567553
-0.0054546846
-0.0052948534
0.13356513
0.114303336
0.31150076
0.39089626
0.06174984
-0.17601044
-0.065670624
-0.07277076
-0.016122822
-0.04602202
-0.09909214
0.043900482
-0.06140682
-0.6607521
-0.2564627
-0.24671926
0.28182542
0.18359345
0.26711312
0.33021578
-0.13442314
0.17047267
0.13565195
-0.057346612
0.009178064
0.05624604
0.0133985765
-0.06401397
-0.060444906
-0.07866077
-0.05054237
0.15219282
-0.065004565
-0.11670083
-0.04892458
-0.035367455
-0.14136395
-0.14010957
-0.12538694
0.12216786
-0.02441333
-0.12712112
0.014208252
-0.06670093
0.3025014
0.12247021
0.13500631
0.4331176
-0.11383654
-0.08024448
-0.14282748
0.035202347
-0.009531761
0.010515683
-0.06332359
-0.14209975
-0.09714531
-0.20324706
-0.07824638
0.15623252
-0.07996514
-0.086997375
0.015987765
0.005445204
-0.22156698
-0.032462105
0.021871002
-0.057186455
-0.050930887
0.16719325
0.16138281
-0.020669784
-0.24950495
-0.2918218
0.098624244
0.5505616
-0.14237978
-0.3840842
-0.19192414
-0.07173256
-0.122583866
-0.026109733
0.0066147055
0.041661177
-0.080446795
-0.099122815
-0.049225554
0.0880471
0.010992343
-0.14896129
0.015249069
0.04127089
0.0384921
0.028252961
-0.024162715
-0.08238905
0.006214995
0.042396706
0.118039116
0.44772407
0.23737274
-0.22022533
0.046737354
0.21641989
-0.14687169
-0.18243958
-0.019716997
-0.03790688
-0.054986406
-0.07717628
-0.026454346
0.014548181
-0.087837905
-0.16732413
-0.043271776
0.08111044
0.089176506
0.0053495937
0.080624856
0.025238553
-0.031750504
0.12688933
-0.11199623
0.006971328
-0.13339832
-0.07268952
-0.04253
0.22364861
0.26630574
0.319992
0.050022334
0.26232398
-0.15205579
0.04869295
-0.14772251
0.048603535
0.24514355
0.07236299
0.07222057
0.04622644
-0.10476351
-0.17908625
-0.09259883
0.0375134
-0.074090414
0.074719824
0.012911005
0.024656482
0.047900725
0.02142479
-0.016686589
-0.11995156
-0.07404463
0.18231939
-0.0047059157
0.41025186
0.3091594
0.03890114
0.12787755
0.039415885
0.027804673
0.030210797
-0.18008967
-0.046731014
0.07998572
-0.20701121
-0.16586137
-0.02733681
-0.20524952
-0.13963458
0.026608454
0.15832883
0.105011016
0.071032375
0.054219272
0.11591811
0.058459148
0.059234597
0.07655736
0.23296425
0.02697603
0.11143145
0.45656356
0.4690776
0.22871704
0.38871634
0.2783806
0.29974607
-0.016751975
0.17246744
-0.14477266
-0.092895836
-0.096676074
-0.090388246
-0.16399069
0.0057449704
-0.14994718
-0.09616671
0.07956733
0.012066039
0.07515927
0.0044406224
0.040859327
0.059137784
0.05053662
0.100795865
0.17217828
0.13826033
-0.13808444
0.0038753562
0.5897756
0.7132347
-0.01650151
0.12467104
0.3783795
0.2624723
-0.14198896
0.3070312
-0.051324643
-0.11490988
-0.13750082
-0.23283666
-0.030565433
-0.050849646
-0.18570663
-0.004055689
0.11250792
0.06481373
0.044488605
0.030598324
0.0867411
-0.024616487
0.15770389
0.06753278
0.017017432
0.05278959
-0.07691634
0.008542829
0.38049218
0.23466249
-0.026151216
-0.051298212
0.3338365
0.13419288
-0.2131893
-0.08910964
-0.18677157
-0.0043225815
0.029850287
-0.1598437
-0.06123294
-0.12725332
-0.1242792
0.028893981
0.104741946
0.09836141
0.07215235
0.021493558
-0.07405933
-0.12711143
-0.048829798
0.020282583
0.035126213
-0.022313172
-0.065267146
0.2442811
-0.061908633
0.2971349
0.0076086447
0.14822847
-0.024254007
0.19949192
-0.054752495
-0.23966396
-0.057798743
-0.018368114
-0.18973745
-0.20183021
-0.19170082
-0.026338456
-0.103142925
0.07199272
0.03789744
0.062158976
-0.02180184
0.011117685
-0.09048688
-0.00013933089
0.077702455
-0.070604436
-0.021796906
-0.23947158
-0.16637334
0.014320747
0.17321776
0.27939725
-0.020439973
0.14814249
0.09581249
0.23300298
-0.06753454
-0.03467148
0.084924854
0.020822486
-0.07914976
-0.030502262
-0.0013931917
-0.008807741
-0.07091688
0.02713578
-0.08726922
0.046213254
0.07523465
-0.013888173
-0.04622657
-0.12769346
-0.07573461
0.054803118
-0.074399866
-0.069999464
-0.099987
-0.017521009
0.12163441
-0.28147238
-0.007629939
0.0038822656
-0.011026662
-0.20360479
-0.30071798
-0.16701895
-0.15335514
-0.17704666
0.058411706
-0.037976105
0.09917663
-0.024148718
0.081122704
0.059762772
0.09139066
0.0040002083
0.06275208
-0.028061455
0.075032346
-0.06429317
-0.1729112
-0.22748248
-0.13205543
-0.08888758
-0.19462448
-0.24665555
0.03200773
-0.14173084
0.003234051
-0.0030883348
-0.071989626
0.3289252
0.21352707
0.24504927
0.32396665
0.117217325
0.030926565
0.008945206
-0.05345439
-0.056250844
-0.07247178
-0.057166375
0.010098811
0.05143104
0.077874765
-0.10340614
0.16011469
0.047272548
0.119782805
-0.11258988
-0.017528333
-0.395188
-0.19695397
-0.008391105
0.3322803
0.3091732
0.047602348
0.015691165
-0.019207768
-0.32743144
-0.1724308
-0.110970415
-0.101234846
0.040951803
0.17995961
0.29453933
0.015581081
-0.17554797
0.10321713
0.19812053
-0.035598237
0.09207026
-0.034203578
0.00039174754
-0.056442074
-0.050582748
-0.08707469
-0.2839047
-0.22605519
-0.3985125
-0.46069753
-0.4208165
-0.23207003
0.089632556
0.06199118
0.012890115
-0.058035918
0.04418738
-0.05903632
-0.31685868
-0.35854644
-0.1268709
0.22387563
0.39381948
0.2888173
0.29679933
0.08604898
-0.048606116
0.20461106
0.26856488
0.1713123
0.082401395
0.062951975
0.07594537
0.20472899
-0.050453927
0.20470169
0.44669333
0.45606664
0.040582966
0.106217325
-0.011929045
-0.113159746
0.036704484
-0.02666447
0.0116659505
-0.06399127
0.1152279
0.14612329
0.37917322
0.15499307
0.3455361
0.07129329
0.39928705
0.050858688
-0.060845587
0.42663687
0.50514436
0.17719422
0.007960416
0.4848013
0.13311355
0.2842801
0.22444926
0.53732646
0.483047
0.43301374
0.020915043
-0.0374854
-0.035965133
-0.0070041916
0.04677003
-0.041278336
0.015086007
0.040967137
0.040842943
-0.06579869
-0.014399369
0.06366918
0.09916216
0.027410598
-0.030417794
-0.012460529
-0.03052471
-0.047494125
-0.01921589
-0.026382238
-0.047587965
-0.016808016
-0.0067270733
-0.066668294
-0.016444882
0.02153363
-0.019102097
0.0010470236
-0.00065000105
0.039209787
0.013740081
0.008207169
-0.027132535
0.025604578
0.0071897134
0.038222175
0.011353572
-0.032500215
-0.013766602
-0.0979456
-0.20075347
-0.17799498
-0.13605437
-0.021548204
-0.0071339654
-0.11224365
0.3802814
0.45843318
-0.4086913
-0.48032302
-0.18217489
0.040998843
-0.10284595
0.028998297
0.08665625
-0.09911768
0.0011434287
0.0019345257
0.016125359
-0.019643253
0.09531778
-0.024266755
0.018572927
0.009761586
0.013430694
-0.040488493
-0.078893796
-0.1944928
-0.21057975
-0.18432017
-0.32723996
-0.31712723
-0.54942876
-0.5702962
-0.27413496
-0.09163864
-0.06981026
-0.34478974
-0.652087
-0.11450005
-0.4797926
-0.3055335
-0.39514104
-0.42176324
-0.254619
0.097029835
0.08976399
0.023416564
0.065187104
0.025758604
0.13801606
0.048074845
-0.052322887
-0.18582247
-0.2089811
0.047708202
-0.38920608
-0.34213048
-0.38469544
-0.4718159
-0.36734274
-0.4515168
-0.4713683
-0.285525
-0.28475094
-0.27712715
-0.23771115
-0.08961849
-0.40849498
-0.42823005
-0.11161612
-0.51237863
-0.47016013
-0.06475468
-0.2833238
-0.0020809495
0.023116324
0.023968386
0.14099237
0.02005876
-0.17177942
-0.12345221
0.15568988
0.07478639
-0.4120619
-0.7367832
-0.58367306
-0.089803234
-0.017619068
0.3063809
0.15806438
-0.05617588
-0.029313112
-0.09260349
-0.08977094
-0.004629172
-0.09806098
-0.15982644
-0.22246003
0.04962732
-0.4036788
-0.4142138
-0.5702667
-0.48465207
0.0028114915
-0.030130493
0.32735506
0.36312497
0.38178942
0.16485982
0.033414904
0.3036473
-0.5526268
-0.47393733
-0.4802028
-0.42464763
-0.22286768
-0.1469518
-0.03533339
-0.035431676
0.004873545
-0.14866339
-0.051368725
-0.05816797
0.043416686
-0.033368696
0.036272217
0.013463321
-0.29031983
-0.7246295
-0.35786435
-0.17157136
-0.021003023
-0.25444323
-0.049714223
0.31332558
0.5286583
-0.39791793
-0.13562082
0.18021652
-0.087587096
-0.29685295
-0.3821169
-0.30969524
-0.20045388
-0.20158915
-0.017573634
-0.078296304
-0.052326255
0.049799252
0.12654941
0.03405266
0.1413134
-0.043484073
-0.0007965501
0.21921872
-0.15399201
-0.58128184
0.15076095
-0.10714547
-0.025009306
-0.46843463
0.023272226
0.3914085
0.28722137
-0.1453324
-0.3144064
0.1737069
-0.025148604
-0.22581674
-0.21530734
-0.11431024
0.0734989
0.06435781
0.11732982
-0.080816895
-0.08399623
0.039106604
0.0027450603
0.023074724
-0.045495246
-0.1054532
0.09471691
0.22203094
-0.3319223
-0.36576974
0.30158603
-0.23445235
0.276522
-0.57809883
0.07259758
0.309626
0.19157258
0.12696338
-0.33326447
-0.12767042
-0.06786825
-0.24273975
-0.30463207
-0.19249824
-0.07746662
0.09053345
0.031756382
0.002043587
-0.09764628
0.17500712
0.15604545
0.17586131
0.04925492
0.098819785
0.078787714
0.06352106
0.096310616
0.01576244
0.13871
-0.076325744
-0.012316301
0.025749052
-0.1857519
0.121607795
0.26731375
0.14198247
-0.4525217
0.0768362
-0.22728856
-0.09589549
-0.023314506
-0.38343233
-0.2147506
0.07809629
0.16550373
0.1645964
0.18603505
0.17808011
0.22848213
0.22532389
0.06761656
0.06908873
0.09054868
-0.064284496
0.12467012
-0.19350603
0.120054916
-0.17037618
0.03270933
0.27920792
0.10404237
0.19104683
0.26406172
0.09444794
-0.4158478
0.06650995
-0.15012786
-0.20017512
-0.15054452
-0.21874674
-0.27971
-0.029234096
0.32010204
0.25538668
0.13613155
-0.039830536
0.13585907
0.25206763
-0.008526544
0.29532713
0.21594417
0.25758728
0.35384983
0.29265693
0.11180634
-0.20183629
0.057827737
0.28144336
0.41202927
-0.075494625
0.35356826
0.2038821
-0.19736922
-0.07176745
-0.12146822
-0.19449969
-0.30173618
-0.11356866
-0.30114022
0.016506633
0.0867953
0.083728015
0.01081477
-0.1005884
0.12101632
0.0691447
-0.025034094
0.40431887
0.18453297
0.35422295
0.4399862
0.24444564
-0.07257404
-0.03365101
0.0071007195
0.039877314
0.15666632
0.4654467
0.51741654
-0.37161034
-0.5917674
0.048713416
-0.42871258
-0.37463924
-0.2628931
-0.089059755
-0.025662074
0.084716454
0.27065834
0.080094166
-0.06036935
-0.03303659
-0.13968259
-0.12750489
-0.11821069
-0.095801525
-0.14121144
0.022979988
0.25900993
0.31680614
0.42787564
-0.13324435
0.26186574
-0.019742044
-0.4070682
0.33230466
0.16890424
-0.8888025
-0.5256981
0.13970152
-0.091822155
-0.26355818
-0.16528912
0.034863073
0.045371253
0.109486066
0.24911126
-0.0022402008
0.035997305
0.0047185514
-0.19987947
-0.19599923
-0.62754774
-0.4880201
-0.7311324
-0.8817836
-0.3660577
0.19236492
0.2617086
0.04275377
0.008318662
0.16235618
0.37960702
0.3781349
-0.1663414
-0.22230048
-0.43100294
-0.05538591
-0.11014836
-0.2811342
-0.08097798
0.10061781
0.15144233
0.12265317
0.18336605
0.036195092
0.07587391
-0.103642926
0.024565946
-0.19419047
-0.3990359
-0.11897581
-0.31845585
-0.30705944
-0.07705907
0.07202738
0.0033665693
-0.041929506
0.022078983
0.029462557
0.23948523
-0.15041779
-0.21924716
-0.16412255
0.13009134
-0.029547645
-0.03828344
-0.042843897
0.08528903
0.11838132
0.13630551
0.24696994
0.15888868
-0.03341915
0.07204337
-0.028600182
0.115757555
-0.3030326
-0.45901957
-0.102258824
-0.32211983
-0.5946437
-0.47003314
-0.40267706
0.05836736
-0.04053963
0.015621676
0.050073717
-0.061710667
-0.17326823
0.048084885
0.21655418
0.12710707
-0.0069626104
-0.169551
-0.023738813
-0.05962807
-0.01742529
0.10515444
0.21475646
0.11403636
0.054751128
0.07329916
0.0014767726
0.049718007
-0.2233193
-0.31207994
-0.30570957
-0.6720956
-0.41388837
0.042220954
-0.25822026
-0.11434109
-0.033053033
-0.0155390445
0.32048416
-0.33227262
-0.37173548
0.20184639
0.11299579
0.11693619
0.014048441
-0.019699585
0.07674561
0.08424153
0.07612132
0.12606701
0.1449291
0.087119505
-0.046388753
-0.11527071
-0.08079019
0.0806882
-0.15234397
-0.23973702
-0.11583731
-0.03508271
-0.054384127
0.025959088
0.095729575
0.32519752
-0.32551062
-0.13698028
0.35603863
-0.22795783
-0.6133693
0.075241394
-0.02286607
-0.14829983
-0.07464531
-0.029318985
0.14143583
0.11672782
0.27623606
0.1594286
0.22405232
0.10861244
-0.048938837
-0.12386397
0.11723498
-0.013942991
-0.1572891
-0.9179154
-0.5596889
-0.29943025
-0.03538497
0.004895087
0.13819884
0.49678412
0.21557936
0.37509984
0.4241158
0.24169384
-0.44401827
-0.1537923
-0.06773667
-0.118824586
0.117541485
0.03439863
0.108025916
0.005764112
0.14585842
0.24540006
0.21341626
-0.03467008
-0.12966307
-0.07274384
-0.00405302
-0.018196803
-0.33364394
-1.0418302
-0.6154743
-0.033791766
0.13334157
0.22103968
0.22201988
0.15394914
0.3490133
-0.026787378
0.21001938
0.08958342
-0.4983144
-0.1651608
0.06972766
0.22409737
0.11994402
0.04955967
-0.088229656
0.065179154
0.079092585
0.20046988
-0.023361161
0.033594187
-0.10618226
0.021563595
-0.11576147
-0.2506416
-0.37290516
-0.8501586
-0.79664135
-0.06787134
0.13816033
0.20735182
0.111334786
0.2343251
0.2095861
0.30614364
0.097313195
0.1439517
-0.33694538
-0.25085562
-0.0063623013
0.17425124
0.0009316136
-0.14060237
0.022751441
0.028820898
0.0939041
0.07800609
-0.02037082
0.02447303
-0.14803405
-0.3770037
-0.21871792
-0.30050308
-0.52437353
-0.53627324
-0.7436494
-0.052849572
0.21591258
0.3069365
-0.04435387
-0.084888935
-0.02513943
0.23888329
0.22668004
0.20248808
-0.20797406
-0.3695291
0.139619
0.24891078
0.11939435
0.014029852
0.14410579
0.069377676
-0.04141014
-0.021667458
-0.0060224514
-0.01733464
-0.22371951
-0.11824713
-0.097775
-0.17011665
-0.3570162
-0.5585711
-0.8434619
-0.22434705
0.09967406
0.18848373
-0.032607306
0.4036505
0.013203476
0.013178343
0.012530031
-0.42022583
-0.7125155
-0.16476797
0.16173938
0.07060039
0.07944032
0.18066458
0.18126625
-0.004756313
0.16079646
0.1285118
0.011615565
-0.058767583
0.1301624
-0.0428423
-0.0769705
-0.44199744
-0.6172578
-0.24742062
-0.21568571
0.13912891
0.09845924
0.28746334
0.20516367
0.4548955
0.03988377
-0.024717195
-0.016611217
-0.32045805
-0.3156751
-0.33910212
0.08662725
-0.21578157
-0.0150264
-0.07098106
0.04690696
-0.09718621
-0.1196701
-0.073653534
-0.08016814
-0.11374608
0.010971017
-0.44547236
-0.20131785
-0.33539385
-0.014431731
0.22891535
0.28600615
0.26871482
-0.12710194
0.046040583
0.26083696
0.30969474
0.005677407
0.025964167
-0.004050356
-0.0629188
-0.08946221
-0.09376737
-0.07312499
-0.35201392
-0.24814369
-0.024099356
-0.01719825
-0.32605064
-0.18059136
-0.059815694
-0.28970563
-0.53893566
-0.50052506
-0.046216473
0.05664741
-0.18742043
-0.31147206
0.01593124
0.039231036
0.16460517
-0.30872923
-0.3694927
0.022427164
-0.0107279215
0.027112816
-0.011575336
0.022494037
0.0051694927
0.13653071
-0.0066468357
0.042061243
-0.12658425
0.00031185616
-0.18092254
0.049119744
-0.25348788
-0.30403933
-0.15134728
-0.19986686
-0.146292
-0.04409768
0.025527466
0.29057726
0.2513588
0.16667262
-0.00798672
-0.07976968
-0.4438247
-0.51102763
0.040857777
-0.28295332
-0.0077331746
0.050403625
0.065103434
0.034185406
0.037007652
0.014526789
-0.095784485
-0.061045695
-0.114447236
-0.40863892
0.022524731
0.17461137
0.207332
0.20385431
0.13127585
0.11123915
-0.027341206
-0.06544801
0.036344916
0.21949738
0.12508114
0.15446368
-0.045607183
-0.010796425
0.048635043
0.056559283
-0.03828243
-0.04531537
-0.025430689
-0.011460801
0.029803656
-0.04810385
-0.10182192
0.0329304
-0.025813738
-0.0016802773
0.022337448
0.0076264013
0.07907783
0.052566618
0.047659937
0.03625046
0.036398225
-0.07143868
-0.23391624
-0.11251907
-0.0049193115
-0.0010043911
-0.06403549
0.0071945395
0.004112848
0.044306204
0.005126291
0.025407081
0.016500175
0.00090647704
0.014309287
-0.0083209025
0.017612629
0.038015626
0.050017286
0.033227023
0.07939375
-0.003824154
-0.08174713
-0.031902064
0.01488793
0.122451566
0.4340617
-0.15717283
-0.11361035
0.07325129
0.055824112
-0.46661046
-0.4212588
-0.2769187
0.5914558
0.27333143
0.28779623
0.08581276
0.2510559
0.30825245
0.018059844
0.0112606855
-0.04809466
0.011148583
0.08535772
0.02491922
0.13688856
-0.3783261
-0.32374853
0.23402914
-0.017806655
-0.027194219
0.21779332
0.2754731
0.25735235
0.5529743
0.612662
0.84060276
0.86922
0.7043947
0.43079948
0.2697708
0.108094536
0.52138966
0.37448984
0.1668834
0.24176915
0.04873474
0.011895724
-0.07641268
-0.054807458
0.019238578
0.045027003
-0.017049441
0.31122273
-0.39021048
-0.24377279
0.060044535
0.44687518
0.38026237
0.07621921
0.23314239
0.07060697
0.05708779
-0.05187743
-0.03689926
0.035787255
0.111383006
0.09327568
-0.022067238
-0.04296041
0.27658343
-0.1760726
0.16845007
0.3254375
0.19647148
0.013881259
-0.21794552
0.20830593
-0.061934948
-0.036310613
-0.09084593
0.1613432
-0.4847855
0.42995816
0.55779755
0.42002043
0.31619507
0.24933009
0.14700557
0.19391981
-0.07023972
0.17233843
0.24550456
0.10989407
-0.13725896
0.076232284
0.15633994
0.0034812829
0.27656695
0.33370715
0.23794611
0.23494901
0.29963362
-0.085872635
-0.11689378
-0.109111086
0.28444725
-0.0017898603
0.03462637
0.32075545
0.093574956
0.30169493
0.17899959
0.1942963
0.13642031
0.24649043
0.15543196
-0.0040058778
-0.16828476
-0.028444644
-0.19575699
0.062379014
-0.008708004
0.07664061
0.12706852
0.17456187
0.11634585
0.16335346
0.24670571
0.38891584
0.6197824
0.40225315
0.047432087
-0.020732075
0.43829727
0.06377081
0.28339988
-0.30937847
-0.13133831
0.17666382
0.28115726
0.015055357
0.03712442
-0.007881715
-0.028135467
-0.15072046
-0.17279734
-0.10433483
-0.23297587
-0.27563968
-0.104537435
-0.16705723
-0.18891287
-0.21469936
-0.15579386
-0.23562653
-0.1364516
-0.055947877
0.33534658
0.47384605
0.22948508
0.13128623
0.329642
0.013655581
-0.034939446
-0.26006487
-0.32442528
0.23998748
0.2806091
-0.06961701
0.07853808
0.010846527
-0.08807645
-0.08827675
-0.08669275
-0.17922461
-0.16449344
-0.16724128
-0.21015176
-0.16546361
-0.13820343
-0.150244
-0.0804271
-0.17255141
-0.14779705
-0.037160177
0.03177935
0.16642658
0.012560707
0.46144977
0.29231542
0.21969463
-0.21623427
0.1969392
0.011645816
0.23605707
0.14226642
-0.16491102
0.10934785
-0.10547286
0.042059835
0.057904463
-0.047355838
-0.08505846
-0.014174308
-0.19978002
-0.20173834
-0.30782434
-0.09849395
-0.1608358
-0.11896029
-0.025392873
-0.047617264
-0.13105468
-0.023940837
-0.09618027
0.20213814
0.11445138
-0.27644396
0.12835972
-0.22558942
0.23599043
-0.12847233
-0.015227653
0.0912574
-0.21758647
-0.042600412
-0.013605248
-0.07267893
-0.20745829
-0.115609415
-0.15082648
-0.20840904
-0.2042389
-0.18829675
-0.07687282
-0.14913936
-0.046794087
0.04301449
-0.010842257
0.16060211
-0.02750195
-0.08840203
-0.0728033
-0.14107272
-0.10933737
-0.5100616
0.13689613
0.22128825
-0.13491489
-0.21562293
0.066588014
-0.031920493
-0.20562647
-0.012817738
-0.0027763767
-0.095933475
-0.25018632
-0.22456358
-0.120923
-0.12922052
-0.22210892
-0.0045827013
-0.093515776
0.00080304383
-0.11212208
-0.015432752
-0.08697891
-0.027258504
-0.097807184
-0.28335586
0.011685503
-0.3318925
-0.6089876
-0.35911968
0.07993769
-0.21998428
-0.14741571
-0.049907945
-0.017998928
0.14703636
-0.07667011
-0.053342286
-0.11231293
-0.015562098
0.030313205
-0.07468317
0.15080856
-0.014420926
-0.09340375
-0.040576637
-0.0029861045
-0.18884365
-0.22587183
0.061566826
-0.30902344
-0.26960075
-0.2632864
-0.18662228
-0.21805392
-0.41935384
-0.66422063
-0.3250137
-0.058691006
0.086956546
-0.16032001
-0.0075253006
-0.33303362
-0.04826019
-0.088344306
0.029739259
0.013888053
0.022544885
0.13669848
0.15104438
0.3607439
0.20126443
-0.12165591
-0.0015835324
0.06470009
-0.15597008
-0.08788661
-0.15201549
-0.1041358
-0.026988924
-0.22176024
-0.3302131
0.14823227
-0.12186274
-0.64339507
-0.4344455
0.23641185
0.17456001
-0.04195314
0.014645639
-0.4778623
-0.09796839
0.013259607
-0.041784767
0.029587056
0.22660077
0.17313907
0.22136779
0.21825583
0.071064845
-0.081238545
0.15113695
0.0101682395
0.08000151
-0.038663443
-0.053793423
-0.11254299
0.106070094
-0.17856425
-0.003574278
0.030720038
-0.120761044
-0.16067766
-0.18875283
0.19293937
-0.29280007
-0.2729105
0.07378758
-0.21099772
0.1281345
0.048333913
0.001144142
0.15023056
0.27503818
0.12225082
0.14376035
0.18570466
-0.0012633518
0.1933109
0.04999372
0.068172045
0.014901614
0.009461001
0.0677746
-0.031012615
-0.052890614
-0.027616907
-0.0548688
0.010646983
0.29758203
-0.12908676
-0.022670906
0.17341408
-0.19140978
0.5665518
0.40063366
-0.06823969
0.05162676
0.067762114
0.14671376
0.20225362
0.1524228
-0.0020398952
0.053101003
0.08614994
0.1905881
0.38569525
0.16453338
0.15800188
0.03338455
-0.09132002
-0.03358435
-0.16792794
0.012933077
0.06702199
-0.0026725666
0.015336855
0.46281826
0.10776308
0.5162147
0.21341003
-0.22179954
0.049479876
0.5322939
-0.12327841
0.08190993
0.19438079
0.17049907
-0.005754148
0.086795695
-0.06604067
-0.08301806
0.043892767
0.18940666
0.3704879
0.28027138
0.19144167
-0.014893396
0.07586111
0.06581217
0.006169802
0.13200332
-0.031991217
0.1560612
0.3346541
0.7856644
-0.032824814
0.19050443
0.03395141
-0.35675034
0.42132097
0.030271782
-0.030334264
0.14063743
0.06066806
0.031249568
0.043000598
-0.03007108
-0.18736799
-0.09863022
-0.047278613
0.2110493
0.36983865
0.23304068
0.158413
0.03265105
0.17523754
0.08858522
0.12200081
0.12640212
0.16000006
0.23102672
0.16291016
0.7801051
0.090671234
-0.2706426
-0.4422211
-0.18873684
0.18821266
0.04689908
0.094824314
0.06992005
-0.06853195
0.14106278
-0.04053064
-0.063825265
-0.32043654
-0.37345642
0.21381378
0.37707332
0.27509075
0.17472835
0.19672689
0.16235489
0.16541326
0.119561926
0.16983797
0.21546789
-0.018781923
0.24926463
0.39150134
0.34171906
0.14575553
0.4558245
0.2488773
-0.37342316
-0.1016959
0.10927273
0.17974204
0.11823996
-0.04477251
0.041375514
-0.1440111
0.025788367
-0.08678798
0.04584607
-0.11853992
0.16953772
0.37493026
0.32652137
0.2346239
0.2260155
0.11193203
-0.016070314
0.16839093
0.3184291
0.101699404
0.019465907
-0.024661092
-0.10824285
0.44063744
0.3017031
0.003244942
-0.27020738
0.13906933
0.124828
-0.11167078
-0.33879444
-0.1207438
0.059284188
0.040397353
0.12049304
0.11222824
0.099229656
0.121996574
0.008844297
0.2212426
0.27753234
0.2533778
0.25020242
0.27819398
0.028030768
0.31066677
0.29989374
0.008503088
0.026275123
-0.12524535
-0.19792059
0.6124501
0.09244321
0.31127328
0.008236952
0.19681047
0.31782836
-0.2419936
-0.05737381
-0.23581769
-0.002704906
0.13193317
0.12546286
0.07317758
0.106383756
0.09679963
0.114716
0.1386957
0.170737
0.12997295
0.39094308
0.26292303
0.16304815
0.17607373
0.048335075
0.098900706
0.10739795
-0.11600894
-0.0097134
0.32923627
0.013644814
0.35057566
0.28831977
0.37189633
0.29054353
0.27928615
0.2399317
-0.06943522
0.025011694
-0.07729004
-0.03096084
0.04655293
-0.010728091
-0.0034230014
0.044524774
-0.08342639
0.14298035
0.026478574
0.071861215
0.10882858
0.3254324
0.09957138
0.3318279
-0.16270356
-0.11985267
-0.1759557
-0.36920688
-0.098003745
-0.024322793
-0.05644657
-0.09989239
0.4079691
0.14565827
0.3017063
0.1134904
0.12566152
0.15136611
0.057672955
0.10512589
-0.06407409
0.005976098
0.029640587
-0.037603203
-0.019711683
0.04656092
0.054152515
-0.051334716
0.050197903
0.17718257
0.168271
0.036452197
-0.14762743
-0.0636877
-0.38313776
-0.25492865
0.09917475
-0.026565459
0.010875925
0.016367469
0.026711892
-0.37382624
-0.20241514
-0.202003
-0.17022978
-0.17272355
-0.019720733
0.14140089
-0.016927203
0.037472114
-0.0787978
-0.11778036
0.050771512
-0.087799214
-0.04784737
-0.10105068
-0.08542533
0.003393392
-0.039457995
0.047632795
-0.08776494
-0.16822703
0.057614096
0.5753969
0.3840969
0.044069666
0.028533401
-0.004379699
-0.24666409
0.07081451
-0.1603797
-0.48616716
-0.28575596
-0.434016
-0.40545884
-0.092738815
-0.06871487
-0.16174789
-0.19502828
-0.172545
-0.19443795
-0.13684607
-0.27322453
-0.15663248
-0.2516907
-0.15385784
-0.22135618
-0.27793387
0.03313777
0.14986534
0.045291375
-0.12215392
0.2341042
-0.008171441
0.03217388
0.04728331
-0.02235384
-0.035004813
-0.23680708
-0.3932207
-0.5832634
-0.5926902
-0.30860162
-0.57082343
-0.4688007
-0.4587341
-0.40038824
-0.8252766
-1.0636345
-0.67355406
-0.56404454
-0.5286965
-0.562583
-0.5373116
-0.6395264
-0.35147488
-0.5149686
-0.19675903
-0.339577
0.065481246
0.0029632729
0.0039387867
-0.028949741
-0.033531927
-0.050801247
0.0104889525
-0.009686268
0.050500017
-0.116578035
-0.180791
-0.23882231
-0.49424326
-0.57741714
-0.47860932
-0.58072287
-0.5948251
-0.8612761
-0.6400281
-0.42654586
-0.17400539
-0.38268912
-0.5509982
0.009525005
0.18385407
0.21017557
-0.032403093
-0.011250929
-0.03167475
-0.043450557
-0.02761212
0.013096066
-0.0020903684
0.045919407
0.075748995
-0.053640544
-0.023721265
0.020195948
0.08182259
0.0041971724
0.030296426
-0.00044222845
0.026936358
0.25218087
0.23620866
-0.01675629
0.0076773125
-0.029038778
0.031879514
-0.015721872
0.034192387
0.02167029
0.035928514
-0.012863933
-0.027833166
-0.052828945
0.029625645
0.0022345295
0.011346586
-0.048912097
0.051093377
-0.0238511
0.032663096
0.038686585
-0.013242306
0.10018967
0.17366822
0.23651668
0.3907821
0.41039386
0.390044
0.50965995
0.5739393
0.27128974
0.55173886
0.3194418
0.43166813
0.42334923
0.27092168
0.39640668
0.2987049
0.25958195
0.21104704
-0.018244931
0.045544192
0.047255475
0.0034446316
0.01330843
0.025250541
0.083462484
0.19906545
0.24866536
0.040714677
0.12746464
0.44117498
0.096711226
-0.25011677
0.023889963
-0.009198636
-0.0025089986
-0.12066519
0.106298804
0.2625716
0.47750202
0.5381042
0.4711671
0.50162166
0.33249062
0.4426326
0.7153526
0.49890587
-0.2697396
-0.2617215
-0.012608835
0.01994293
0.014590168
0.022226764
-0.16484687
0.29523876
0.21595356
0.10703448
0.14819834
-0.09694975
-0.090333045
0.07458512
0.13273245
-0.13481945
0.047612123
0.08091737
-0.16368482
0.10699739
0.025986997
0.08168557
0.12579152
-0.059628893
0.08893799
0.3890477
0.45949683
0.45674846
0.20996225
0.13772927
0.30339107
0.020020265
0.015184578
-0.025972446
-0.37049466
0.027265143
-0.032820143
-0.052560598
-0.16421942
-0.16779152
-0.13442335
0.07160222
0.20120893
0.3080356
0.18194696
0.0046798433
0.10429635
0.15020911
0.25628674
0.087559484
0.018812342
-0.07380061
-0.058785528
-0.01456204
-0.07494154
0.16933931
0.22228275
0.41803223
0.28952664
0.15459858
0.010347079
0.022368219
0.015914246
0.11217472
-0.24174254
-0.2135304
-0.08561003
0.019989239
-0.14363225
-0.078059025
0.061734162
0.2227824
0.13147421
0.08218061
-0.0448593
-0.031035835
0.011294633
-0.038527593
-0.065445565
0.018972097
0.25241545
0.12494224
0.17867188
0.06001279
0.15867454
0.22849622
0.7533612
0.3739982
-0.0283139
-0.24925108
0.061001517
-0.1663202
-0.20043886
-0.017817961
-0.07586867
0.019535251
0.07996116
0.058038007
0.081516854
0.13204983
0.1428066
0.0723313
0.008827586
0.052304752
-0.010172162
0.07384473
-0.025021601
0.04770608
0.036595855
-0.051892333
0.122654624
0.24308516
0.49350187
0.69474715
0.44232798
0.2926614
-0.22134358
-0.37749043
-0.25291544
-0.42745417
-0.23679246
0.07257228
-0.118322305
-0.06265445
0.22097719
0.046378918
0.1121839
0.08185679
0.11232778
0.017153503
0.07442644
-0.0030630361
0.06740022
-0.07784245
-0.022127464
-0.06260691
-0.04853995
0.17944449
0.222995
0.11665851
0.11842437
0.27047834
0.22291121
0.49957088
0.09620818
-0.5137459
0.03708185
-0.07056785
0.013720584
-0.0013486552
0.0656719
0.018149648
0.07222
-0.0099069
0.03908636
0.0800274
-0.05242668
0.081385314
-0.03830586
-0.08521661
0.0932852
0.06865046
-0.118399255
0.07996414
-0.018136242
0.011854638
0.09968917
0.07466006
0.13079602
0.17204513
0.2622229
0.65928
-0.025483614
-0.19850063
0.028196363
-0.068062186
-0.06009335
-0.039621282
0.09816563
0.11263669
0.18104702
-0.014966489
0.1201591
0.18627876
0.030115603
-0.043981273
-0.056115285
-0.016053472
-0.072589025
-0.14233959
-0.21130398
-0.21093406
-0.19891661
0.009756497
0.07812253
0.019919775
0.18838827
0.3274519
0.3910335
-0.36229712
-0.09070117
0.046574928
-0.12365928
-0.14656456
-0.042919688
-0.020287668
-0.03338244
0.06666171
0.026794545
0.024514198
0.15405294
0.15488727
0.14539412
0.007882397
0.09595219
-0.035413865
-0.2538368
-0.20953025
-0.14116558
-0.122532256
-0.08145435
-0.09371806
-0.10944825
0.08368739
0.14626752
0.1732185
0.45821032
-0.33739558
-0.1973078
-0.22214648
-0.20703922
-0.4202975
-0.06365138
0.11067952
0.011506681
-0.04873246
0.027048742
0.060461473
0.075386085
0.066005185
0.09173321
0.2230109
0.16827862
0.0122796735
-0.036807377
-0.22230354
-0.007293025
-0.06583942
-0.15572236
0.026076764
-0.1679722
-0.07487084
0.34166837
0.38049427
0.8892797
-0.16568542
-0.06744364
-0.26268744
-0.28542033
0.0017462552
-0.28904906
-0.04117661
0.016073013
0.076247625
0.056739766
0.27120763
0.11953109
0.14558917
0.23457631
0.34499565
0.2299219
0.017431067
-0.1652851
-0.12550838
-0.15646027
-0.118501715
-0.07584424
-0.002954065
-0.20341215
-0.013424915
0.18636034
0.26051906
0.49820265
-0.35634
0.25025058
-0.009008672
-0.43345395
-0.20371386
-0.3651926
0.015207557
-0.14666535
0.1976569
0.16493498
0.16803049
0.08329966
0.11339989
0.33154052
0.27968854
0.14553535
0.032016538
-0.07853164
-0.155556
-0.18567921
-0.004938001
0.015754722
-0.1588911
-0.10508046
-0.1909237
0.06742197
-0.04116143
0.3049237
0.05157218
0.24362576
-0.028719196
-0.28507784
-0.2525985
-0.27274704
-0.22785272
0.0879655
-0.055012506
0.028483767
0.10794568
0.09099089
0.11994422
0.16328786
0.22001705
0.22728683
-0.042286057
-0.038097613
-0.15406811
-0.16545993
-0.21077542
-0.09719646
-0.18835773
-0.13115731
-0.26951057
0.010717549
0.040555105
-0.16627476
-0.32769567
0.19997223
0.11087327
0.07578717
-0.18029736
-0.27133274
-0.2913148
-0.095101476
-0.2008295
0.021525763
0.16146499
0.112414725
0.12017296
0.3535286
0.25743702
0.27848113
-0.07475668
0.13232724
-0.11522377
-0.12293715
-0.13950591
-0.29968223
-0.15590294
-0.20576398
-0.061913047
0.14850996
0.39614293
-0.4083186
-0.23712002
-0.34337276
0.14967977
0.21179745
0.13081078
-0.38192222
-0.42243683
-0.49974194
-0.4519611
-0.2511287
-0.10994888
0.11581585
0.25080454
0.24570332
0.23084903
0.1740361
0.038729552
0.03115502
-0.13253802
-0.038787093
-0.17481402
-0.22768883
-0.13541678
-0.06341409
0.17951353
0.015121625
0.22230165
-0.23314993
-0.09094417
-0.021535195
0.20192891
-0.17725208
0.18126443
-0.15873624
-0.17708999
-0.25033218
-0.41443577
-0.4288777
-0.27091873
0.026858592
0.18816808
0.261414
0.15469384
-0.0075663393
-0.091047905
-0.11222197
-0.06443984
-0.17381665
-0.09593047
0.04168998
0.13802922
0.0011407868
0.09905694
0.024819618
-0.31819904
-0.09685727
0.248583
-0.27996635
-0.22875705
-0.29518488
0.10948669
0.028875988
0.09410478
0.025151849
-0.15659618
-0.4142263
-0.3202192
-0.21375448
-0.11829497
0.117337786
-0.035432056
-0.06147134
-0.17096049
-0.11931565
-0.102631375
-0.28457558
-0.08124471
0.121201314
0.14701918
-0.05846738
0.07163083
0.21936463
-0.12719916
-0.5592587
0.23896292
0.30520898
-0.37686354
-0.04967135
0.2352717
-0.12121312
0.014465779
0.08992361
-0.071891844
-0.14163557
-0.11978516
-0.15449487
-0.41777572
-0.22782226
-0.111498654
-0.12106968
-0.047531914
0.03359943
-0.11322525
-0.047593817
0.0014787195
0.14902675
0.06060612
0.11266477
0.33241603
0.21795934
0.035579227
0.0316204
0.15607335
-0.026481975
-0.06223665
0.1445672
0.27034113
-0.044123504
0.052342612
0.14270048
-0.009224021
0.12562141
0.13628545
0.06681225
-0.02821754
-0.07151647
0.026409036
-0.10080426
0.030476589
-0.022160808
-0.025725123
0.1264409
0.15630698
0.22160277
0.13618878
0.2733353
0.25738212
-0.09993698
0.3175882
-0.05602923
0.29679295
0.15050325
0.09442727
-0.26539522
0.17761362
0.2903375
0.017503267
0.08735064
0.17433053
0.09845842
0.18795203
0.098979376
0.1203602
0.13778408
0.13371117
0.14413744
0.123220265
0.04605272
0.13970938
0.18240646
0.0071260305
0.1942794
0.13228948
0.21625929
0.28936324
0.037049495
0.11253136
-0.17719463
-0.059232052
0.1963483
0.18212423
-0.38000163
0.31155664
0.23047894
0.0042154877
0.04668561
0.21124585
0.044031143
0.015864499
0.11422003
0.19352873
0.102773204
0.13696133
0.20096725
0.10448379
0.16766597
0.15576269
0.27144033
0.14151835
0.3312493
0.18252611
0.0755296
0.39591962
0.1623413
0.020686064
0.35393816
0.029539747
-0.020164851
-0.012427828
0.28767046
0.48376584
0.33400062
0.22825524
0.12614629
-0.042604625
0.31043768
0.2178213
0.17536283
0.06992351
0.1863859
0.12631105
0.097834624
0.192564
0.29938024
0.1065171
0.21636066
0.27623245
0.270607
0.1037473
0.22172882
0.41039646
0.15591659
-0.04937859
0.40521628
-0.04304775
-0.005795518
0.051059064
0.45021024
0.20619862
0.1414129
-0.27828345
-0.046231776
0.071823135
0.07463328
0.13399217
0.074407734
0.19129452
0.10557037
0.15140457
0.18014534
0.2095409
0.23013058
0.018263998
0.24950898
0.10386968
0.094112314
0.08843469
0.1252866
0.3236616
-0.009175874
-0.47142783
-0.26881048
-0.01151502
0.0038716844
0.04094149
0.33654895
0.0050602015
-0.16724287
-0.21953422
-0.17631835
-0.11864539
0.04869169
0.070245646
0.14629082
0.13133681
0.15194727
0.2744135
0.2237647
0.23913883
0.12281821
0.2384555
0.16287991
0.13952239
0.06960404
-0.07571939
0.4513799
0.40136895
0.69799477
-0.021728372
-0.25918013
0.048221026
0.012625632
-0.036951207
-0.02840921
0.15024164
0.200074
-0.15154797
-0.24340108
-0.10881008
-0.09457957
0.14288029
0.10273796
0.33028412
0.24224406
0.031315062
0.08727086
0.024639623
0.1736445
0.17785004
0.050539095
-0.32965657
0.0227503
-0.12169741
-0.093290776
-0.016486937
0.09835925
-0.009931871
-0.0017467394
-0.018457802
-0.019275779
0.00034383932
-0.03837956
0.01260139
0.059377093
-0.02217399
-0.09240692
-0.37403065
-0.36986667
0.060124878
-0.11770379
0.12127195
0.20041706
-0.17607273
0.09745261
0.08894695
0.08828159
-0.022781773
0.22848429
-0.08529342
-0.45546612
-0.5533918
-0.42275217
-0.053649742
-0.06885185
0.0115038045
-0.005735963
0.00778926
0.048554827
0.042802747
0.01725403
-0.04601852
0.023069447
0.034466553
0.048486482
-0.037028678
-0.0023518393
0.00093069725
0.05682744
0.026885295
0.25180042
0.26189768
0.24037908
0.30539358
0.003711945
0.011838158
0.052423716
0.07575987
0.00911676
0.054165456
0.028698925
-0.018890705
-0.08628514
-0.01916274
-0.028952923
0.037011284
-0.019651853
0.011679711
0.06518019
-0.0040146564
-0.039126307
-0.02272115
0.054926936
0.14032008
0.2375326
0.3063673
0.02695775
-0.2527306
-0.26870105
0.09396766
0.28313717
-0.024279423
0.113079324
-0.23262572
-0.24271916
-0.3607825
-0.44522035
-0.3872413
-0.39209965
-0.21709543
0.012733025
0.073072776
-0.003940151
-0.040841598
0.039294176
0.06552611
-0.032059558
0.009954292
-0.24371378
0.14929752
0.19074954
0.16204815
0.22715445
-0.103641905
-0.23216511
-0.11894467
0.054318823
-0.15467776
-0.17056644
-0.14284232
-0.26425186
-0.19876379
-0.0060270163
-0.7032834
-0.5719123
-0.7602513
-0.59364223
-0.28576106
0.2728049
0.3203703
-0.03587813
0.01007558
0.0054994468
0.012190097
0.390632
0.014846539
0.17079224
-0.35957113
-0.26039067
-0.30529037
-0.27315974
-0.0008740163
-0.10566787
-0.083932064
-0.23045103
0.15888663
0.0020825567
-0.083878614
0.0031945668
-0.2722096
-0.06331936
-0.097075745
-0.3423626
-0.28591362
-0.1518139
0.0031924248
0.1111077
-0.10565575
-0.36664537
0.031574517
0.031934254
-0.1201373
0.45396844
0.14034596
0.034985363
-0.063975945
-0.03038779
-0.03199186
-0.23718427
-0.14110194
-0.16841204
-0.042812403
0.13869378
0.012173499
-0.030912425
-0.018436713
0.18396884
0.0024844315
0.034028288
0.02500664
0.062461145
-0.017037632
0.089895636
-0.40157843
-0.3584015
-0.42652413
0.35320368
-0.17322814
-0.009677905
0.051473875
0.37692276
-0.11185893
0.18525927
0.40130952
0.07665786
-0.16738781
-0.055244412
-0.031920597
-0.2659077
-0.15143135
0.058273774
-0.09066162
-0.027272621
-0.063742965
0.16107878
0.036152635
0.08839934
-0.07685459
-0.0974209
0.05068014
0.059634097
-0.12624416
-0.17216335
-0.07128175
-0.120647185
-0.4597188
0.014670502
0.31901336
-0.3184545
-0.19843909
-0.13078223
-0.0023617935
-0.19067867
-0.13837026
0.0054548336
0.085238144
0.03740764
0.109321766
0.119116545
0.022234866
-0.068084575
-0.07123736
0.01728375
0.029535333
-0.026959423
0.011449475
0.016618032
0.020596411
-0.0361766
-0.042044204
-0.32924426
0.098643295
0.2839411
0.15764703
0.09952168
0.5739481
0.17395088
0.06879682
-0.34730175
-0.13652305
0.005487023
0.04921691
-0.0133562535
0.12431397
0.19660568
0.07485682
0.012083748
0.11712402
-0.09485843
-0.09509713
-0.02553601
0.019744989
0.012678209
0.059148714
0.10594916
0.11281156
0.04220075
0.020857565
0.09330984
-0.15802592
0.24434055
0.13336085
0.031043502
0.51001513
-0.20026414
-0.288326
-0.27215725
0.1160318
0.09662325
0.3143625
0.1798468
0.031997398
0.02364123
0.086711876
0.12879308
-0.01905193
0.13881718
-0.051335424
0.027530894
0.17714518
0.15377714
0.16633779
0.03114311
-0.097998574
0.13561235
-0.004476833
-0.3597206
-0.009658865
0.19974227
0.30730316
0.034541663
0.2532803
0.1521726
0.09081054
0.11056634
0.2521595
0.17660277
0.17208733
0.19539423
0.20241138
-0.055168506
0.12206156
0.054768533
-0.029249754
-0.06811731
-0.01563327
0.120730415
0.19403079
0.1408365
0.07038065
0.06627279
-0.003994955
0.12232764
0.058100745
-0.20709148
-0.0012695867
0.43625942
0.23635352
0.07403795
-0.073054105
0.08564304
-0.21762191
0.13575858
0.03282518
0.21803223
0.28663084
0.22410366
0.15739726
0.11458514
0.026865473
-0.15292001
-0.1780892
0.030918559
0.16258521
0.18740642
0.21111813
0.0960275
0.12261856
-0.044191837
0.0023428844
-0.01711798
-0.10009072
-0.14737667
0.0019372122
0.14927097
0.30355242
0.06335248
-0.35571703
-0.24887437
-0.16899298
-0.05915061
0.21342461
0.3158359
0.41166052
0.17001383
0.15902944
-0.057774223
-0.1533412
-0.1619188
-0.12235425
0.2609534
0.27488226
0.028185401
0.06475319
-0.011183211
0.019606452
-0.0035496654
-0.025502956
-0.098822236
-0.17443144
0.19026797
0.09431897
0.11624946
0.44403255
0.10231531
0.06776717
0.05116826
0.009704226
-0.112641625
0.039362505
-0.025636608
0.01177577
-0.3539584
-0.46715325
-0.4460478
-0.4544762
-0.10294697
0.055552647
0.17806439
0.04538697
0.16578592
-0.0008761785
-0.035961375
-0.051382173
-0.059356272
-0.00788864
-0.14825876
0.05797383
0.32632706
0.16570334
0.037126325
0.50283957
0.022734685
-0.006659233
0.36247757
0.077296354
-0.48753422
-0.3460963
-0.69146454
-0.7497911
-0.5986061
-0.49600506
-0.42302513
-0.23334643
-0.12587602
0.14311805
0.19744715
0.05391276
0.097141184
-0.08462804
0.025884064
-0.17763518
0.072491564
0.08118477
0.09585402
0.38910156
0.33701068
0.2673988
0.40771276
0.16768199
-0.023067
-0.2519879
-0.23870419
0.012865134
-0.68903375
-0.79296815
-0.75998104
-0.6481391
-0.5260926
-0.23417446
-0.1232871
0.15486975
0.25078362
0.2601359
0.15324448
0.026281139
0.10923843
0.033615537
0.0062479987
0.008055715
-0.02344548
0.08382743
0.23394854
0.3133593
0.19193724
0.03175619
0.31685477
0.39849114
-0.007448777
0.17308569
-0.14630364
0.119336136
-0.7047333
-0.4343346
-0.27822015
-0.09257575
-0.06835771
0.03357464
0.0888528
0.3625025
0.22555695
0.3595585
0.124881476
0.07506294
-0.02335503
-0.06783603
0.021271627
0.017031156
-0.02422437
0.16886054
0.23164989
0.20097567
0.08672503
-0.40056038
-0.3011568
0.323548
-0.028272096
0.17037487
0.11463857
0.22462836
-0.42413223
-0.082341865
-0.074106306
0.08557118
0.057633117
0.28812718
0.24399109
0.24289136
0.41845697
0.32325816
0.109709725
-0.08786652
-0.111793905
0.07591879
0.052694842
0.09755854
-0.050684143
0.019805277
-0.1980615
0.01339336
-0.060648564
-0.29354572
-0.14524877
0.2047815
-0.058500748
0.30676788
0.19914277
-0.028239997
-0.3517249
-0.039976753
-0.048956193
0.14125751
0.05947078
0.14286844
0.11496077
0.33241507
0.39457932
0.22679074
-0.13296369
-0.20365822
-0.12237667
-0.10632177
-0.21388021
-0.12358476
-0.21150292
-0.20743069
-0.26161617
-0.09576463
-0.060531955
-0.065928735
-0.044353597
-0.27249417
-0.24892373
0.25299904
0.052458964
0.10007276
-0.22482239
-0.059428614
-0.08278002
0.06405364
-0.093033694
0.06857717
0.35082802
0.33757463
0.43641815
0.1676353
-0.20106548
-0.279224
-0.21377128
-0.21931046
-0.25911993
-0.28525767
-0.21707338
-0.39229727
-0.38407367
-0.06883752
-0.2784916
-0.11623248
0.56588
0.08069236
-0.0923739
-0.07782065
0.027122354
0.023587167
0.19349214
-0.101810835
-0.037929576
0.112870224
-0.05433043
0.2195255
0.20053057
0.20873134
0.006840272
0.122660324
-0.12990811
-0.16795951
-0.20260057
-0.2604675
-0.4635175
-0.36474645
-0.33398426
-0.40392137
-0.4181544
-0.20338972
-0.2560968
-0.20106398
0.34009385
0.223368
0.049069494
-0.36221507
0.13026914
0.30674568
0.29972902
-0.28052306
0.09410439
0.20778511
0.129633
0.10160808
0.11761471
0.19164054
0.11004296
-0.03363842
-0.15225925
-0.09436354
-0.18595904
-0.17716654
-0.26033893
0.045522757
-0.105631195
-0.2873166
-0.10648841
0.17879228
-0.114973076
-0.1945001
0.32494307
0.056659896
0.1537058
0.08123286
0.028396059
0.16642913
-0.11279634
0.021414641
0.12481447
0.071932204
-0.020366255
-0.05385799
0.15526824
0.0611703
0.14945918
0.03668301
0.02617418
-0.023226593
-0.02848043
-0.10439368
-0.15364991
0.10028768
-0.048955556
0.053341676
0.036824293
0.1382013
-0.22727276
-0.39508766
-0.14399719
0.023616731
0.05882067
0.15904538
-0.06466598
-0.5074171
-0.14133677
0.3581078
0.13850085
0.034408815
0.007448397
0.037678156
0.08126768
0.022885956
-0.042113505
-0.0100757005
0.14691763
-0.022254491
0.10422771
-0.078291155
-0.008945735
0.09794601
0.1321459
0.1692329
0.23430215
-0.0022718252
-0.5124669
-0.4831565
0.11451308
-0.033374656
-0.038463604
0.02213605
0.15839767
-0.64194113
-0.2773784
-0.18017925
0.08397147
0.14545454
0.030654192
0.076761685
-0.031854242
0.14178967
0.09325861
0.14336306
-0.05101537
-0.07672889
0.13983758
-0.016361179
0.06629026
-0.025345584
-0.011587913
0.12955564
0.15980104
0.14166945
-0.28000465
-0.1620995
0.33087012
0.0772416
0.0051252437
-0.10805887
-0.2262267
-0.18808165
0.04276494
-0.29874626
-0.023074668
-0.1423299
-0.087906346
-0.108641565
-0.09865569
0.11105839
-0.05616181
-0.011448003
0.0031403776
0.04109476
-0.056085613
-0.2663659
-0.28581262
-0.082454845
-0.063349985
-0.14567636
-0.110155866
-0.08888623
-0.38553625
0.4071401
0.33702967
0.02187893
0.042017568
0.027182708
-0.2986839
0.25801328
0.09967309
-0.09143994
0.031398434
0.030215796
-0.0028998987
0.014404588
0.070540175
-0.09374756
-0.13710798
-0.15941723
-0.00588475
-0.028546136
0.011817905
-0.03208902
-0.43457338
-0.50775325
-0.3816812
-0.7790754
-1.0107988
-0.16746628
-0.22779478
0.11639656
0.24955793
0.020917917
-0.025104003
0.07991284
0.0679455
-0.31231722
-0.42386258
-0.36305466
-0.26643875
-0.12139254
-0.01581404
-0.15523729
-0.08688957
-0.28240675
-0.49484968
-0.24762191
-0.017698215
-0.22568639
-0.34451354
-0.18751468
-0.43657187
-0.26254767
-0.2484125
-0.5001397
-0.39419875
0.21771401
-0.2937304
0.27925158
0.0068938313
-0.02232855
0.022709223
-0.003931213
0.01524075
-0.021039072
0.21247113
0.46294248
0.15349543
0.10302652
0.019966189
-0.028668089
0.42290464
0.20607716
0.11066073
0.34705243
0.18380028
0.38799912
0.56523013
-0.08515381
-0.2874251
0.063342705
-0.15058547
-0.23416026
-0.27229744
0.0066149523
0.0096260905
-0.05748469
-0.018519858
0.055647317
0.03341363
-0.05286215
-0.009595771
0.020121666
-0.035920404
0.015744608
-3.989842e-05
-0.03219018
0.0015161122
-0.018661842
0.012679148
0.019788766
0.19036776
0.26091313
0.23133601
0.20250633
0.048942313
-0.048311442
0.009209254
-0.025212748
0.030825173
-0.0060010883
0.06365812
0.030099053
0.028905766
-0.013093053
-0.013528025
-0.034706075
-0.01108229
0.0035282872
-0.04650093
0.06580887
0.09709183
0.110263
0.16246407
0.22606178
0.11238478
-0.056658294
-0.028278576
0.09928251
0.26493528
-0.027280418
-0.036758892
0.513287
0.47555432
0.15429053
0.07022584
0.20240128
0.27734444
0.047755446
0.16130824
0.1640678
0.03718915
0.042657215
0.0047961944
-0.0422566
-0.029646324
0.00509686
0.041861653
0.08781464
0.12631214
0.008424951
0.25165173
0.18096371
0.23806351
0.46310964
0.5443159
0.34429112
0.44376144
0.38438994
0.21089825
0.5741168
0.65968746
0.25254497
0.23510557
-0.05136691
0.14979424
0.30994913
-0.00084613066
0.04545541
0.15404873
0.10131622
0.06382393
0.03158147
0.0027906266
0.014285196
0.4428647
0.10288405
-0.4287957
-0.2555711
0.018616222
0.15383992
0.41874462
0.49766803
0.23891847
0.019072637
0.26481518
0.51138645
0.29986018
0.2366741
0.4499168
0.27256414
0.15375102
-0.10077505
-0.33561194
-0.10770977
-0.21766177
-0.10604602
0.14589277
0.00524151
-0.1396674
0.012336028
-0.009728546
0.0603883
0.37365672
0.31131732
-0.2484069
-0.11188501
0.16034965
-0.05804321
0.2522992
0.24724388
0.11893529
0.070937276
0.15314513
0.054203477
0.2220786
0.33707944
0.17078412
0.072995506
0.019126583
-0.062144123
-0.04824443
-0.24217837
-0.19311057
-0.23578256
-0.5581706
-0.25487792
0.13567837
-0.13569522
0.002706022
0.01376608
0.6412806
-0.051810756
-0.075078204
-0.0731916
0.08659572
-0.1023845
-0.07803924
-0.08337073
-0.019803038
-0.13998629
-0.012125614
0.20106916
0.23108175
0.2344921
0.18642315
0.05938732
0.2018093
0.08780634
0.037104998
0.13513745
-0.0067886566
-0.08675967
-0.08297276
-0.16001175
-0.39341825
-0.3964528
0.0008707058
0.26974478
-0.13938762
0.2859486
-0.1802079
-0.094079286
-0.10903826
-0.25974992
-0.14273725
-0.047634523
-0.013102175
-0.027335493
0.09363192
0.16127478
0.19379175
0.41165274
0.33962363
0.26188073
0.3824303
0.09738907
0.12447692
0.18995018
-0.09156145
-0.20047541
-0.46684325
-0.3851526
-0.24083792
0.19464314
-0.031977113
0.4178236
0.17456645
0.2680742
0.08515798
-0.095337145
-0.063057326
-0.067165
-0.03618172
-0.060803656
-0.02955049
-0.0718234
0.135953
0.07589077
0.13945428
0.23801859
0.34988448
0.29630095
0.26428324
0.26092437
0.108100064
0.13330941
0.09105312
-0.10398595
-0.32824627
-0.3145254
-0.22804724
0.2476042
0.37392458
0.51505786
-0.22485961
-0.12278173
-0.06848891
-0.18556736
-0.075422585
0.013984864
-3.68779e-05
-0.104708545
-0.10323808
-0.08617578
-0.08498578
0.061912313
0.19451301
0.23171373
0.2620458
0.3666373
0.26736537
0.32718596
0.19550514
0.09347815
0.28374228
-0.0009314746
-0.4446941
-0.252614
0.16284242
0.34075293
0.05833877
0.22170767
-0.20880313
-0.015487367
0.0031938073
-0.24302806
-0.06718387
0.07514672
-0.01071019
-0.15281662
0.07470654
-0.27003515
-0.07092773
-0.02016543
0.14689867
0.12847248
0.17226192
0.19037388
0.08656068
0.26490787
0.22684985
0.12655249
0.15368594
0.10785818
-0.22784378
0.11627509
0.16809253
-0.12883984
0.057276174
-0.0032494888
-0.131236
-0.04751665
0.00014650289
-0.22301917
-0.081841834
-0.19301131
-0.11861365
-0.27618176
-0.2656602
-0.22775714
-0.49596608
-0.16119409
-0.15345572
-0.17082079
0.14238262
-0.0734789
0.04964524
0.07017528
0.21070932
0.112006195
0.16119027
0.3006529
-0.17086959
-0.14259456
-0.07418073
-0.041141987
0.1676801
0.28523695
-0.11205605
-0.08333962
-0.14763984
-0.3407172
-0.19061269
-0.26890457
-0.18628497
-0.16210131
-0.25471807
-0.14430274
-0.43847013
-0.29198095
-0.09052818
-0.24593556
-0.21108766
-0.032732233
0.06372066
0.08366726
0.3903426
0.25884876
0.34012333
0.23922053
0.10833501
0.11446575
-0.11922176
0.026401132
0.14374411
0.036672276
-0.121967494
-0.31709996
-0.02785421
-0.40049416
-0.12542145
-0.16917245
-0.1285475
-0.05526834
0.0031424188
-0.059757665
-0.24404594
-0.37731332
-0.13201454
-0.14636683
-0.046822652
-0.037176114
0.1259284
0.15842223
0.13288109
0.110538244
0.10310681
0.01348374
-0.20218453
-0.18088755
-0.4169838
-0.063284
0.096983075
-0.20158307
-0.09469288
-0.20482484
-0.0985401
-0.20586115
-0.09689879
-0.19530277
0.005082679
0.05016078
-0.033508316
-0.07664268
-0.18431097
-0.112950206
0.023982568
0.014186968
-0.013541007
-0.010775879
-0.086388916
0.05770905
-0.07422488
-0.0102292625
-0.03617416
-0.35929847
-0.45954603
-0.10968224
-0.17160206
0.038762286
-0.34830087
-0.38739148
0.13782623
-0.09266879
-0.11397339
-0.09556962
-0.041836694
-0.039233338
0.07653751
0.047780257
-0.06818685
-0.17067169
-0.16504455
-0.023305897
0.07523325
0.041475195
-0.037214268
-0.103403084
0.04980204
-0.023156637
0.024092857
0.17908812
-0.11126127
-0.30648842
-0.42690402
-0.26055926
0.26051816
0.23018377
-0.24043722
-0.12237552
0.008895755
-0.067456745
-0.088844486
0.094868176
-0.004211437
0.09944033
0.028485578
-0.058376186
-0.063560516
-0.11732056
-0.20625502
0.0045052064
0.06092953
0.054796
-0.09235662
-0.11644887
-0.14893581
-0.17093466
-0.11868618
-0.03498814
-0.15161519
-0.25233585
-0.20448498
-0.2888216
0.14372629
0.30135098
0.039583832
0.25327912
0.20300527
0.13397591
0.025341729
0.07926792
-0.002354388
0.01654046
-0.111987345
-0.030923175
0.05663451
-0.004506995
-0.032031573
-0.014265893
-0.03705473
-0.013556868
0.09497186
-0.066361636
-0.1611196
-0.28236058
-0.26385984
-0.15784483
-0.07839327
-0.1509218
-0.019641098
0.15619141
0.36887452
0.2974644
0.0054397774
0.008901667
-0.16538288
0.1338238
-0.0062295394
-0.0009574945
-0.10895707
-0.18962291
-0.030833535
-0.012745567
0.088455364
-0.0061616935
0.0032757432
-0.03356448
0.037908
0.050137065
-0.0050217896
-0.10280517
-0.18527293
-0.23507644
-0.21127118
-0.19607334
-0.13074996
-0.18589911
-0.21417762
0.33779103
0.26333952
0.18424827
0.27163136
0.36012346
-0.3657526
-0.094821
-0.01788023
-0.1542387
-0.254678
-0.12980767
-0.052247074
-0.0062697083
0.13240376
-0.09969598
-0.067218445
0.031481758
0.031126766
0.055368382
-0.04161768
-0.021546748
0.028639005
0.016401894
-0.05714408
-0.11636103
0.10369865
-0.02498567
0.030296769
0.32727575
0.210653
-0.1949553
-0.036360316
0.2621242
-0.07810913
-0.40608853
-0.10630799
-0.18107456
0.068277285
-0.0039933226
-0.021342276
-0.016877783
0.08558166
-0.091980964
-0.0026377046
0.03428863
-0.00026572277
-0.007135746
0.023694335
0.0962162
0.081224136
0.127208
0.2398666
0.00010653134
0.15530139
0.04193465
0.13144012
0.5724481
0.13450937
-0.14215259
-0.044033978
0.248728
0.08868423
0.07662526
0.08355455
0.010606778
0.24787669
0.27025357
0.09663293
0.0034317258
0.07063256
0.034940716
0.031640615
0.15377605
0.21118924
0.07411942
0.0092711095
0.11366186
0.13077845
0.22914477
0.2481203
0.19866459
0.26964125
0.13205746
0.25186586
0.2524441
0.20867021
0.21191445
0.03749689
0.04206982
0.61921674
0.5370768
0.03906402
0.14410385
0.40033284
0.2925349
0.12734187
0.17276512
0.25922507
0.1668774
0.18265945
0.20463052
0.21543767
0.18976972
0.24926452
0.15481131
0.21655038
0.19391021
0.03768148
0.1714193
0.15422831
0.24322502
0.2843646
0.23069489
0.24629523
0.032117095
0.042216863
-0.032989375
0.5049749
0.18774839
0.19299136
0.57568866
0.48324007
0.30546066
0.31493756
0.32880813
0.21519063
0.16424866
0.16248739
0.06893504
0.25375473
0.15602118
0.18025103
0.09971608
0.06395024
0.030556455
-0.037936267
0.035015717
-0.008190296
0.040264215
0.12075204
0.08564958
-0.31941137
0.059153024
0.043712337
0.017935673
0.3173435
-0.13818271
0.079600684
0.0081554735
0.07367184
0.20555313
-0.020811524
0.123674266
0.030788662
0.095307566
0.11674426
0.10713798
0.01406315
0.09960135
-0.01479657
0.07402651
-0.0518399
-0.043895196
-0.095443614
-0.035300065
0.24755155
0.28245026
0.13802214
0.004153042
-0.34449688
-0.012729619
-0.021883443
0.051126797
0.03315554
0.08122459
0.2873076
-0.073060565
-0.026292099
-0.1894903
-0.09515342
-0.06455392
-0.036083907
-0.11567189
0.039642476
-0.10348981
-0.1051944
0.021813808
0.009855971
0.13960129
0.05834335
-0.07758537
-0.014211246
0.24465401
-0.08693291
0.04866908
0.57032675
0.4251191
0.29241142
0.039192785
-0.028655939
-0.037349775
-0.29510856
-0.13059331
-0.22355205
-0.18571636
0.032031048
0.019431766
0.25316793
0.09971449
-0.05057985
0.09043172
0.20466879
-0.10471785
0.080938295
-0.017984416
0.02401838
-0.14708108
-0.005773979
0.012794646
0.26223347
0.09691709
-0.4382267
-0.23732153
-0.2753989
0.101895034
0.22149487
-0.009126734
-0.018431809
-0.0008245441
-0.04914294
0.06492007
-0.2544583
