0
0.031934146
0.070986524
-0.03320178
-0.075504206
-0.0136789745
0.091866925
-0.17174475
-0.037938733
0.12998067
0.030258706
-0.09740916
0.12294755
0.10187989
0.057023894
-0.006284038
-0.16585469
-0.2822409
-0.033258293
-0.0031975603
-0.45002446
-0.092988275
-0.0725004
-0.1252215
-0.043610074
0.06727456
0.03630606
0.022140386
0.027091827
0.06396126
-0.017575728
-0.28285137
0.050919294
0.061462894
-0.20578305
0.0033852162
-0.028362164
-0.18728264
0.047264155
-0.055176627
-0.00555064
-0.122091055
-0.08734543
0.0029145211
0.049249988
-0.144922
-0.0944484
-0.12691544
-0.07685691
-0.024028804
0.0717469
-0.015761603
-0.10896263
0.00070943095
0.040497486
-0.033683367
0.005056635
0.08026978
-0.14372404
-0.031732906
0.08705768
-0.025643935
-0.015559877
0.043070167
0.026721178
0.10555806
-0.11731859
-0.10199669
0.06813958
0.013226632
0.034704704
-0.07501516
0.057488672
0.058576338
0.08702436
0.006274983
0.016073119
-0.09041912
-0.0037051747
0.04956634
0.017572382
-0.10323937
-0.095776
0.06448267
-0.082708254
-0.13457604
0.022790296
0.066295005
-0.0013992987
-0.0034623118
0.0453873
0.021512587
-0.025225645
0.012871628
0.050014067
0.029291108
0.017543068
-0.0015209354
-0.09082659
0.090021305
0.0023724795
-0.115660764
0.074168116
-0.06994892
-0.18009825
-0.1149428
0.015776144
-0.18033554
0.13052917
0.1215734
0.051196564
-0.17668721
0.085552566
0.04258017
-0.071505524
-0.36352015
0.032155506
0.06828043
0.01625573
-0.04793014
0.022177074
-0.010502409
0.043381006
-0.15750676
-0.1078321
-0.15847555
0.031393938
-0.060944375
0.06247999
-0.26018453
-0.028783279
-0.117556445
-0.096222155
-0.054262087
0.08556795
0.08522257
-0.018163947
-0.16396815
-0.015512111
-0.017566215
0.014656984
-0.1635317
-0.2819521
0.030204188
-0.10138511
-0.095959164
0.0039507085
0.025506632
0.051874373
-0.0030566128
0.012455097
-0.0060094353
-0.080279134
-0.058601256
-0.09202865
0.05457882
0.14766425
-0.04357507
0.014392129
-0.20049529
0.014121956
-0.0007150705
-0.12858976
-0.098914936
-0.014852607
0.08756044
0.037961747
-0.29418653
0.06159426
-0.14182866
0.025148395
0.09913031
-0.016420938
0.03658451
0.031489927
-0.13530043
-0.1011126
0.017799512
-0.059051577
-0.0037003
-0.28076947
-0.1443736
0.07494358
0.017535344
0.064663924
0.07235567
-0.10545571
0.0015245436
-0.13472538
-0.002042614
0.03873486
0.047612797
0.05803616
0.05644041
-0.027650109
0.049036935
-0.051396534
-0.12350611
0.108746454
-0.08631177
-0.1505439
-0.03046817
-0.16725405
0.075546525
-0.049919013
-0.014476685
0.06748001
-0.15670401
0.014675315
-0.04386498
-0.051802084
-0.03655809
-0.18009073
0.066065095
-0.045308754
0.03437576
0.036828183
0.041783653
-0.049450524
-0.13138403
0.06848757
0.2394678
-0.04213246
0.022543164
-0.016853007
-0.13758984
-0.041996468
0.06383253
0.11503601
-0.045338236
0.054351404
-0.040274933
-0.124869026
-0.0960552
0.07422826
0.019842844
0.007764049
-0.08634398
0.13010159
-0.13583241
-0.06383119
0.051474676
0.0143644605
-0.2101124
0.06410879
0.017559137
-0.14363164
-0.0521679
-0.02120126
0.06920593
-0.07988842
0.039719466
0.14964308
-0.06746455
0.057072435
-0.20352025
-0.008409336
0.026159907
0.088077575
0.056275472
-0.03695694
-0.097424075
0.012715418
-0.02240913
0.070395276
0.028639944
-0.26782793
0.007904636
-0.1541311
-0.1546254
0.037786525
0.07056295
0.071243376
-0.0029275245
-0.04436316
-0.043310687
-0.28672984
0.04220075
0.021187967
0.014612163
-0.060119625
0.05234387
-0.13217501
-0.07767081
0.021104584
0.07484495
-0.010339561
-0.042148106
0.04213877
0.01786361
-0.04107792
0.05079371
0.05778314
0.058851413
0.03449524
-0.02944214
-0.034901123
0.043394208
0.040299557
-0.080172524
0.015557567
-0.029486308
0.02968078
-0.1331525
0.054280713
-0.01869423
0.020652538
0.05169316
0.0034946583
0.034502186
0.029245041
0.06602472
-0.091402486
0.11080314
0.071727194
-0.026539676
0.019112827
-0.09745114
-0.10761536
-0.11491715
0.028302658
-0.051059436
-0.13374545
0.01750546
-0.1702349
-0.12320066
-0.003406956
-0.14713863
-0.023929896
-0.07088391
0.017365392
0.088709235
-0.082258634
0.013454763
-0.07912506
-0.046480346
0.011905843
-0.051428538
0.024805471
0.052789863
-0.0030386695
-0.054140575
0.10340234
0.03016044
-0.011007589
-0.16472583
-0.024864255
0.01502408
0.0068270857
0.029552301
0.016568169
0.050433625
-0.023847995
0.07070006
0.16470473
-0.0819905
-0.1412515
0.03180105
-0.001539666
-0.09864743
-0.18257475
-0.031130636
-0.0930305
-0.17979573
-0.14239842
0.0508333
0.022499463
0.037890606
0.031963926
0.028618809
0.054025
-0.007914215
-0.1319022
-0.010310661
-0.06017833
-0.037172705
-0.068208896
0.022541558
0.0008476942
0.08145642
0.08913333
0.06378462
-0.049355317
-0.023304801
-0.17630754
-0.07017788
-0.038355067
0.033218097
0.08318102
0.054530013
0.10000942
0.054831747
0.014618069
-0.009944207
-0.009264346
-0.006437772
-0.07578882
0.010987063
-0.087541796
0.0110054985
-0.022430195
-0.026944876
0.05113562
0.05629892
0.054484364
-0.1738212
0.044905588
0.04272378
-0.071423106
-0.050409503
0.04599513
-0.12773432
-0.14776193
-0.10088723
-0.028094413
0.029485904
0.05709583
-0.081052944
0.0121664535
0.06783417
-0.02503341
0.028436543
0.16637963
-0.16471514
0.03167585
0.016054142
0.0005612174
0.10893324
-0.024531946
0.101128705
0.04328152
-0.1330388
-0.12163186
-0.0010124263
-0.036801953
0.074486345
-0.088661835
0.07372563
-0.044627957
-0.08437994
0.021795688
0.08199032
-0.12144412
-0.107120596
0.05789728
-0.012165093
0.028933289
-0.014300373
0.07002734
-0.2909767
-0.09351941
0.1423633
-0.011798313
-0.03906258
-0.015722893
-0.076293245
-0.049675558
-0.062208325
-0.2193357
-0.26761267
0.040030558
-0.16129576
0.062914
0.053800814
0.04187088
-0.12274561
-0.0077890134
0.0051740375
-0.13649881
0.034985367
-0.013834414
-0.030456519
0.004457455
0.037935182
0.035738833
0.01137976
0.031050876
0.00042549463
0.08545712
-0.016936457
-0.03917714
-0.17040615
-0.06354257
-0.09561028
0.023862677
-0.22661877
-0.086436205
-0.14521052
0.07517637
-0.15721415
0.041242957
0.023303341
-0.20008332
-0.05421338
0.048463482
0.0077043944
-0.1783908
-0.059138235
-0.054307196
0.052262716
0.055846114
0.009573237
-0.0803124
0.047051884
0.05932484
0.011702572
0.063454986
-0.25883237
-0.24534547
-0.06506668
-0.22932339
0.039476823
-0.0727415
-0.051081914
0.0116908895
0.031311672
0.09257632
0.08049789
0.054364175
-0.3441542
-0.11572749
-0.027060492
0.06822416
0.08876184
-0.21299285
-0.06259376
-0.099664584
-0.032057866
-0.0034726085
0.044928517
-0.005514398
0.019008394
-0.021968165
-0.0876353
0.08267116
0.10331648
-0.06696799
-0.018726414
0.037317768
0.08252473
-0.05379606
-0.014158566
-0.07756778
0.061082184
0.12540811
-0.042283885
-0.079619244
-0.038184974
0.03978804
0.024832696
-0.1670541
-0.035479225
0.083133414
-0.0070788716
0.019846618
-0.03783549
0.07636264
-0.0118091125
-0.013227017
-0.04854925
0.011214865
0.08333399
-0.06535213
-0.07225663
-0.111769035
-0.068604745
-0.21455328
-0.0798221
0.02229081
-0.025028823
-0.0350701
-0.045610763
-0.04665712
-0.1389109
0.098866865
0.012926614
0.07645325
0.07797524
-0.03161029
0.015160059
-0.13792121
-0.028805865
-0.04588248
0.061007347
-0.018133791
-0.05294734
0.07191457
0.023980869
-0.09985506
0.017015858
-0.1653164
0.009445998
0.04416353
0.010256644
-0.033950888
-0.048067667
-0.06473232
-0.0055192807
0.0005339212
-0.1474975
-0.017511241
0.050646175
-0.041508917
-0.06389062
0.026984025
-0.1192678
-0.07291367
0.0566242
-0.055475105
-0.10726088
0.034071326
-0.010020705
-0.1133586
-0.03163287
-0.040383056
0.20244467
0.034975793
-0.14812791
-0.1956455
0.0620013
-0.1693369
0.035076138
-0.09404457
0.0683238
0.05097202
0.07264868
-0.11628322
0.0288635
-0.16758502
0.090300605
-0.058964003
-0.028959518
-0.11418214
0.06102621
0.008180051
0.06774463
0.09634208
0.021875413
-0.033050906
0.070079684
0.012799398
-0.04147127
-0.010634312
-0.021877525
0.020733895
0.041153833
-0.17907743
-0.03549387
-0.010906545
0.017641595
-0.037333447
0.0514835
0.03770236
0.09279058
0.03482487
-0.1340731
0.013252338
0.044954475
0.083373934
0.025383271
0.017899632
0.10673813
-0.041230533
0.03316197
0.008494905
-0.02808513
0.032554258
-0.117723584
-0.033915747
0.042050634
-0.06119532
-0.113475084
-0.014220424
0.026825633
-0.08234508
-0.031210585
-0.18424934
0.05046033
0.060792528
0.09726833
-0.09311894
0.044324346
-0.057411328
-0.15565094
-0.1246957
-0.08900859
0.046631202
0.023022987
0.02993637
0.14063394
-0.06164683
-0.08476385
-0.10242794
-0.11091582
0.071900524
-0.020170147
-0.070478566
0.045643758
-0.029709438
0.026188051
-0.009170077
0.16158037
-0.10854505
-0.09094151
-0.09973894
-0.06965947
0.06549687
0.029059155
0.03288165
-0.049010355
-0.13365865
-0.097528204
0.034066778
-0.0024591887
0.045926377
0.06411676
0.042002212
0.03656343
0.017317733
-0.07050156
0.110602304
0.058008764
0.005772738
-0.06129197
0.018341534
-0.20765167
-0.09737767
0.05781431
-0.014653086
-0.19511582
-0.08142028
0.064196296
0.019593233
-0.04083905
-0.004723026
0.019410431
-0.072016954
-0.14740855
-0.13382149
0.012691165
0.09924202
0.03856352
-0.066994496
0.03418798
-0.16646945
0.067158
-0.1442419
0.031809773
-0.14914504
0.06700513
0.0609488
0.061853535
-0.07171505
-0.1404398
-0.08197178
0.07250609
-0.096528865
-0.009146976
-0.12737584
0.00090678973
-0.14946748
-0.12712216
-0.05505603
0.11050732
-0.07068572
0.05519286
-0.10821408
-0.058496274
0.046522073
-0.021762911
-0.018010132
0.043218862
0.07729508
0.053681765
-0.06922247
0.056861546
-0.06983093
0.015422112
-0.16811113
-0.08186288
0.055599883
0.0040362393
-0.15767762
-0.04390682
0.112761
-0.07822369
-0.027222695
-0.033598885
0.021023104
0.018456327
0.056340426
0.023852875
0.022715956
0.08015562
0.101499274
0.055449776
0.047243055
0.03214513
0.058483783
0.07772097
0.045442767
0.050360903
-0.1685371
-0.15967596
0.00067800307
-0.024163837
-0.06396859
-0.0837345
0.1477856
0.03322256
-0.017184421
-0.01236491
0.051692616
0.048204213
0.073737465
-0.09280697
-0.034196183
0.01948787
0.016787348
-0.06100481
-0.09964715
0.045399666
-0.07775999
0.055649452
-0.024600679
0.014406219
0.033278305
0.06422123
-0.15042786
0.058454745
0.005616647
-0.08999005
0.03572813
-0.012255943
-0.11107847
-0.17174728
0.013669227
-0.054399498
-0.08726695
0.09199889
0.0017160453
0.0074906144
0.20076174
0.19924515
-0.06823914
-0.068254046
0.053052824
0.046286732
-0.03690494
-0.08471031
0.021013837
0.06459011
0.003057382
0.067640185
-0.010579881
-0.13427532
0.0722249
-0.141555
0.049930423
-0.043648303
-0.06410986
-0.05346318
-0.11236622
-0.03361217
0.019957485
-0.032020073
0.034416344
0.00022844248
-0.117204025
0.062168516
-0.07291186
0.011445758
0.08053497
0.059426866
-0.15563902
-0.042370442
0.067301966
-0.07586087
0.04606394
0.007876286
0.028729415
-0.013607247
0.06200694
0.06777435
-0.00036998876
-0.0590138
0.048055574
-0.029653652
-0.14348644
0.09402201
0.025052318
0.024675252
0.042796306
0.016650679
-0.07348172
0.044194166
0.061703898
0.0727115
0.0831769
-0.076770306
0.00014068012
0.08801197
0.027706377
-0.049239982
0.036750194
-0.08346653
0.05437437
-0.08762628
0.034837205
0.1018885
0.024292888
0.032886468
-0.088629745
0.041227486
0.07678529
-0.02341462
-0.010944294
-0.09367299
-0.059053477
-0.07004546
0.04572981
0.0959508
0.07506062
-0.07956452
-0.2176682
-0.009032908
-0.22785133
-0.14092284
-0.16555451
0.016998405
-0.13126117
-0.091990195
0.040156096
0.08573184
0.027642878
0.027982717
-0.04782281
0.094105944
0.031107424
-0.12852786
-0.0050649163
0.08685571
0.045811318
0.064761765
-0.010874134
-0.052419405
-0.026676737
-0.008882167
-0.012745677
0.055184796
-0.020376993
-0.23184097
-0.10991745
-0.040697727
-0.06969555
0.029944044
-0.025371192
-0.18931183
0.048282478
-0.0845112
-0.090184316
-0.11589152
0.050688785
-0.08089675
0.047464292
0.14897427
-0.020223437
0.06709686
0.03799143
-0.014285385
-0.06300648
-0.011308304
-0.05234745
-0.055992078
-0.3325944
-0.028384613
-0.12484074
-0.15287134
0.07435215
-0.0794972
-0.04027649
-0.06574686
-0.0716558
0.059319478
-0.1616601
-0.13608578
-0.059327893
0.018404033
0.02911694
0.028709058
-0.091056466
0.070523165
0.03746566
-0.041045327
-0.027478779
-0.12514783
-0.04941785
0.084027454
0.027324125
0.19126444
-0.10091136
-0.029752057
0.03145554
0.023076402
0.04875597
-0.039802574
0.072605185
-0.09762907
0.013333806
-0.07234409
-0.10114742
-0.09613539
0.056320738
0.017671175
-0.11803879
-0.05829449
-0.029965246
0.11269784
0.013820702
0.07527139
0.07463301
-0.06775289
0.051425386
-0.08733973
-0.047887594
-0.0136370985
0.07869203
0.028077403
-0.029965753
0.07836665
-0.35733277
-0.1445678
-0.014781611
-0.14097504
0.020368187
0.016074955
0.08192658
0.037815727
-0.019315276
0.008913039
-0.19189055
0.067956984
0.028674293
0.04449335
0.033023607
0.042495318
-0.027577266
-0.1907454
0.043651152
-0.23369886
-0.22017166
-0.010137685
-0.07646704
-0.10746028
-0.08467805
-0.10677054
-0.26831448
0.024552247
0.08096983
0.021881353
-0.055920497
0.032683216
-0.0458659
-0.01937894
-0.09363717
0.067215584
0.027905803
0.006642562
0.051283482
-0.18793544
-0.013989739
0.1591258
-0.016402109
-0.24874806
-0.09255311
-0.065920345
0.2504256
-0.068667606
0.015382455
-0.10474672
-0.028638659
-0.2129785
-0.002735719
0.06426724
0.051366888
0.021780228
-0.1266829
-0.052629173
-0.010800375
-0.14587885
-0.06040746
0.07171419
-0.07463171
0.026866024
-0.14154264
-0.05000151
0.022588363
-0.30655745
-0.056859624
-0.035466854
-0.19835746
-0.12240548
0.05641401
0.03412221
0.0033154776
-0.0424915
-0.028470078
0.06888387
-0.1529873
-0.0481438
0.0078056934
-0.12883593
-0.06009203
-0.10931395
-0.10506183
-0.05955946
-0.0909386
0.03783625
0.008185573
-0.045926157
-0.0079357
0.0021116922
-0.07596637
0.00663711
0.035238877
-0.35142586
-0.029706936
0.056872666
-0.029315226
-0.093241215
-0.19011217
0.043191172
-0.14616957
-0.056852523
-0.03070757
-0.08161526
-0.18554682
-0.010127714
-0.09622426
0.061599072
-0.02201276
-0.106599964
0.0086807255
-0.15446684
0.016592624
0.005235198
0.062281977
0.032350324
-0.15136656
-0.21949412
-0.1764101
0.0129852705
-0.015121034
-0.034586865
-0.15995169
-0.023094354
0.076685816
0.049516115
-0.10985594
-0.022188907
-0.13678245
0.042348653
-0.26121992
0.027736183
0.00443043
-0.11231323
0.07573425
0.11604596
-0.23794124
-0.045602877
0.025847454
-0.041264985
-0.03304996
-0.15919355
0.019061856
-0.059127335
0.03196067
0.065261856
-0.08057045
0.032606203
0.035302527
-0.08953115
-0.062387347
-0.023858441
-0.1344493
-0.1600195
-0.23238045
-0.20601568
0.047881614
-0.07933694
-0.0921556
-0.042360656
0.006695635
0.031518385
0.063337624
-0.097096294
0.04112575
0.075911716
0.070625715
0.11846148
0.017797023
-0.14940602
0.0036157612
-0.057385944
-0.18878564
-0.036242947
-0.10654441
0.040558413
-0.007946301
-0.024699245
0.027089057
0.022628592
0.040413253
0.12833114
-0.10927499
-0.060601883
-0.17771643
0.09252397
-0.06722531
-0.07273176
0.026915211
-0.105995186
0.09484714
0.0038169615
-0.09596288
0.05548741
-0.1367828
0.04390155
-0.36666384
-0.020334838
0.021278758
-0.028359186
0.04259857
-0.08269974
0.05340369
-0.023629254
0.08827464
0.05910271
-0.0148943495
0.06019665
-0.113966495
-0.023265539
-0.0035148568
0.017293109
0.040156703
-0.117802806
0.04129473
0.026668252
0.029991811
0.07119717
0.061195817
-0.06461681
-0.24731004
-0.02918149
-0.12952803
0.039908484
0.063552454
-0.005868109
0.024749754
-0.004637739
-0.062483534
-0.090163924
0.051286135
-0.05573941
-0.032098904
0.055008437
0.03589887
-0.23370829
-0.0047320337
0.0058289478
-0.05227712
-0.050113056
-0.13471758
-0.1830444
0.022925872
-0.0324841
-0.1492841
-0.16193032
0.004611554
0.06542078
0.0135146445
0.041890904
0.05608915
-0.032346368
0.06355169
-0.036851577
-0.07454279
-0.027307512
-0.03704596
-0.06551561
-0.05988313
0.05876784
-0.08865951
-0.1253067
0.021800661
-0.13978218
-0.07875707
-0.094623916
0.021095498
0.06456956
0.052053124
0.02976348
-0.20223294
0.0012297584
-0.07671204
-0.017170269
0.08755421
0.035507314
-0.084567465
-0.032043
-0.013108297
0.022402799
0.03557243
0.040728107
-0.041427877
-0.038211975
-0.06905065
0.008740599
0.012620432
-0.10205309
-0.10904858
-0.22864833
0.04172142
-0.029019017
0.02935519
0.014101481
-0.09623725
-0.12931894
0.09059317
0.0075522508
-0.14297688
0.044396583
0.08886545
0.0076026237
0.17519608
-0.009665129
-0.0055102245
-0.05075704
0.05003459
0.037248436
0.051608074
0.031176886
0.009147383
0.0061753495
0.06855322
0.08072559
-0.063340396
-0.02499432
0.045954388
-0.008725519
0.059736535
-0.08248257
-0.044976745
-0.13266525
-0.2766901
0.038850293
0.12704545
-0.14706449
0.058708966
-0.040162217
0.114369296
0.041581694
-0.17917322
0.023277542
-0.002468305
0.05594943
0.024809692
-0.07679476
-0.3183281
-0.119080864
-0.056943465
-0.04810306
0.08142861
0.11745816
-0.070489176
-0.011006095
-0.11104818
0.07485196
-0.0020155197
-0.037044317
0.028881667
-0.0028808133
-0.0030304794
0.0044241925
0.08015029
-0.14825928
0.07432947
0.017457912
-0.077407695
-0.20860846
-0.1081884
0.047907013
-0.15000926
-0.1361637
0.04238539
-0.12634309
0.03493672
0.10775623
-0.030025443
0.052535497
-0.20543408
-0.11639992
0.09283145
0.072130404
-0.11154748
0.03608234
0.10623508
-0.10426705
-0.09284382
0.03421311
-0.043236744
0.020960504
0.049829237
-0.073263764
-0.3471077
-0.095484704
-0.06228909
-0.26234046
0.07935605
-0.025774632
-0.098531894
-0.118344724
-0.029965468
0.07326648
-0.04248837
-0.17523538
-0.14213175
-0.54552084
0.011423657
-0.17620312
0.025446232
-7.5678116e-05
0.05323673
0.020355025
0.026526209
-0.2663018
-0.10088986
0.10453136
0.013399676
-0.032693237
0.119842
-0.0921941
0.027651068
0.0102826
0.011550068
-0.026196338
-0.053715844
-0.075573556
0.073054366
-0.087139465
0.11765129
0.092453495
0.06419474
-0.021143813
0.021818409
-0.101211675
0.03956091
0.047808416
-0.067894764
0.06654881
-0.009523221
-0.02089445
-0.08557445
-0.1486455
0.016229223
-0.14244448
-0.2349617
-0.16224594
-0.0012721712
0.015827544
0.028298698
0.058894057
0.038442634
-0.09490199
0.018730845
-0.065090366
-0.064984865
-0.10064609
-0.110484585
0.057685044
-0.09629355
0.0109088505
0.020393614
0.036589734
-0.15368323
0.034518905
-0.11209842
0.05362606
-0.11814091
0.06747871
-0.09055534
-0.15743811
0.060308386
-0.0045725345
-0.058353398
-0.16931605
-0.052685015
-0.024985056
-0.016579114
0.04396472
0.003656167
0.006447253
0.02921001
-0.12727347
-0.31143358
-0.07269982
-0.10670104
0.045693636
-0.04052099
-0.031595
0.012022363
0.058072597
-0.00013233487
0.052640807
-0.06408873
-0.3465523
-0.0482503
-0.055042613
0.08022014
-0.25790197
-0.0022986413
-0.22526546
-0.06372287
-0.27026823
0.0054701744
-0.24499774
0.10717654
0.08604991
0.15604489
-0.14288045
-0.045068573
-0.09172115
-0.09275134
-0.2438691
0.16430765
-0.061370984
-0.050087634
-0.033193626
0.015517771
0.02817876
-0.07323621
-0.10750322
-0.001057818
0.089689
0.0716652
-0.030471034
-0.075743295
0.06170551
0.029987236
-0.015824495
-0.1802561
0.028221874
0.013626567
-0.07112001
-0.115811504
-0.08608893
-0.023743486
-0.057017684
0.006733218
0.083043456
-0.14982805
-0.12041818
-0.04069308
-0.14044197
-0.18858695
0.049772095
0.06553473
0.08163523
-0.10666831
0.05377354
-0.11628534
0.056141227
-0.1765708
0.06101952
-0.029446937
-0.23101993
0.08133777
0.01575066
-0.072991274
-0.14310214
-0.07115129
0.045747694
-0.12365828
0.040187515
-0.108794585
0.06175248
0.06247689
-0.03573719
-0.22364672
0.06054697
0.16715248
-0.03212172
-0.0038487262
-0.12543982
0.061678033
0.06702561
-0.05974339
0.017069496
0.09090149
-0.038323022
-0.0018509167
-0.3388143
-0.020565905
-0.010973795
-0.019464372
-0.122336134
0.08286342
-0.088487275
0.115034506
-0.08399714
0.050373577
-0.045039203
-0.034660384
-0.11688831
-0.2459474
-0.11651001
0.08449339
-0.13885008
-0.13942285
0.027328268
-0.12870835
-0.07151925
0.032569274
-0.0918452
0.04978529
0.03584923
0.019027699
-0.3109799
-0.072959006
0.022817545
-0.26767376
-0.055444773
0.030429153
0.04737241
0.04790001
0.047249205
0.071412124
-0.042016882
-0.21284014
-0.10861016
-0.074020736
0.019538175
0.021962762
-0.12424768
-0.0309326
-0.196016
0.008062582
-0.10360988
-0.03196214
0.13642438
-0.055645335
-0.11376059
0.006480611
0.028221464
-0.022222755
0.110774204
-0.15030551
-0.02130991
-0.11185261
0.021953851
-0.02928638
0.073351935
0.041775066
-0.11849812
0.038306452
-0.21741158
0.027898097
0.034986954
0.039792717
-0.081962585
0.033312224
-0.0021395225
0.080781616
0.028867291
0.013678743
-0.11784961
-0.04745252
-0.07784429
-0.005841767
0.07607916
-0.19396651
-0.14662173
0.07247782
0.0048492164
-0.04799133
-0.017676646
-0.05488245
0.03270084
-0.021794679
0.07700452
-0.1798834
-0.10700212
-0.060592234
0.021284489
0.0746664
0.0044793156
-0.054142043
-0.119463325
-0.010503663
-0.20589463
-0.037902236
-0.1371593
0.07953549
-0.11166281
-0.0846297
0.008297851
-0.21844423
-0.15426326
-0.024242418
0.088038385
-0.056052234
0.038115747
0.03350984
-0.07559046
-0.12275914
-0.041991208
0.03268197
-0.1240656
-0.007092434
-0.15849034
0.1182511
-0.021873025
0.06381151
0.010871237
-0.09349869
-0.1974759
-0.10599548
-0.0951614
-0.022527432
0.03209031
0.04573584
0.08903137
0.08156183
-0.108001605
0.074971355
0.08682656
-0.026573686
-0.22697034
0.089612216
-0.020431334
0.06947522
-0.18193744
-0.050110567
-0.085033886
0.057611726
-0.076873995
-0.1857441
0.09392202
0.04626272
0.0026142392
0.025966333
0.084461525
0.0638542
0.0136485025
-0.24186838
-0.3056752
0.028939052
0.054063298
-0.06306467
-0.23874456
0.085941546
0.036834847
0.02982363
-0.13868125
-0.058190633
-0.25403565
-0.10202054
0.0059865513
-0.20587255
-0.1072848
-0.0318977
-0.06449292
-0.073680624
-0.016992446
-0.12065892
-0.07394679
0.049552474
0.027355561
0.013350446
0.11109541
0.07568834
-0.09017017
-0.010593068
-0.12232996
-0.1220149
-0.07789906
-0.009551523
0.083341375
-0.16661099
0.052696437
-0.07469627
0.088729806
0.10981163
-0.13012557
0.047678698
-0.07524219
-0.17850831
0.055057164
-0.1189568
0.068848625
-0.023392642
0.04360012
-0.13018696
-0.11692848
-0.05209046
-0.015692737
0.0183364
-0.018694462
-0.08343891
-0.084533945
-0.03422068
-0.18349035
-0.19805655
0.017690275
0.007349869
0.0353242
0.024833944
-0.0760957
-0.027642917
0.024145378
-0.06018973
0.04583114
0.02704569
0.05947844
0.0010374018
-0.10756057
-0.13553248
0.04672982
0.037268944
0.030450355
0.016901774
-0.07316254
-0.00024721777
0.022924813
0.049833745
0.15387914
0.054368984
-0.077810645
-0.15472226
-0.1430523
-0.05126346
-0.050414722
0.13455503
-0.1426358
0.02388617
-0.15325615
-0.13390276
-0.032142285
0.03328187
-0.134506
-0.26785624
0.041284677
-0.20510228
0.055161122
0.026833834
-0.09110284
-0.068332024
-0.04647601
0.13513939
0.06186358
-0.011957217
-0.013411828
0.13581792
0.018696893
-0.18160726
-0.026122708
-0.022411007
-0.096318886
-0.07067669
-0.083776996
0.07154309
-0.034682125
-0.09417876
0.060662977
0.02998777
-0.07499689
0.020112181
0.12693636
0.023570236
0.0797695
0.00096703635
0.03170867
0.097949095
-0.0644564
-0.010492979
-0.015772525
-0.08267729
0.09854236
-0.11127129
0.12257892
-0.06881215
-0.17958719
-0.026361065
0.056816366
0.037680183
-0.14521585
0.062431764
-0.12306226
0.049651008
-0.050829872
0.07749245
-0.1458851
-0.015950251
-0.04955985
-0.10167859
-0.015689712
0.076673225
-0.022956679
0.05741648
-0.12542322
-0.027406478
-0.15580776
0.07642511
-0.17655961
-0.12813784
0.13586688
0.0064455373
-0.03649282
0.10465511
-0.12480953
-0.14201453
0.051996008
0.05588617
-0.17281216
0.09626776
-0.24664892
0.0012793505
-0.11460439
-0.08592946
-0.06379146
0.028892802
0.030780537
0.014910456
-0.15404464
-0.12626298
-0.13800424
-0.012565036
-0.03884268
0.028322091
-0.023726363
-0.07090901
0.012612208
0.11133395
-0.115632325
-0.010913038
-0.08577498
-0.10854407
0.066526435
0.05629799
0.07814794
0.026166227
0.17567612
0.019339083
0.09176286
0.09007665
-0.08573692
0.045962267
0.05311642
0.014797304
0.042394422
-0.15143278
0.04514692
-0.06887425
0.06043833
-0.11605453
-0.09850858
-0.15012252
-0.026000937
-0.0632083
0.034064516
0.007945347
0.013169693
-0.015679883
-0.19613133
0.02224461
0.009808351
-0.054643575
-0.0043356637
0.070692845
-0.070174895
0.026548311
0.069765754
-0.10739305
-0.1481824
0.021002041
0.08305128
-0.013328151
-0.008413443
0.025647443
0.017749343
0.041110754
0.10429975
0.061448853
-0.20826313
-0.22811213
0.122278206
0.12734233
0.081347175
0.03552028
-0.08493878
-0.016067687
-0.046767794
0.056937955
-0.038538042
0.01449609
0.025664281
-0.046207063
0.04716002
0.10203303
-0.06354653
-0.020849515
-0.075371996
-0.06832695
0.027306743
0.032718398
-0.051350106
-0.012100415
0.0064933714
-0.04291368
0.004162734
0.023356123
-0.06916421
0.027646119
-0.08241559
0.00011068851
0.010403979
-0.1725101
0.0686933
-0.15192507
0.029549403
-0.033978503
-0.049572058
-0.028551824
-0.074730396
0.03814762
0.02778017
-0.17485513
0.035913873
0.043234564
-0.11156467
-0.15462364
-0.032803193
0.051386647
-0.046285972
0.033173755
0.050007828
0.06446567
-0.022037182
0.095769815
-0.013101731
0.08404851
0.09828793
0.05045066
0.038103197
-0.059307646
-0.14640032
0.058112673
-0.0107867215
0.0718835
0.02767891
-0.014273274
-0.001753434
0.016027717
0.054221652
0.046867274
0.07179147
-0.027156813
-0.1394622
-0.10554961
0.084866874
0.042143166
-0.15306924
-0.020934748
0.018933395
0.037642363
-0.009222933
-0.11648686
0.10904092
-0.0728719
-0.15830815
-0.07547868
0.00083217496
-0.037220612
0.024153152
-0.056891862
0.04258869
0.034277223
-0.15472047
0.031565584
0.092245094
0.04249591
-0.12473278
-0.04437775
-0.049219385
-0.049458824
0.06956994
-0.16008589
-0.14393884
-0.22727436
-0.18964979
0.0118699195
-0.12882166
-0.00902299
0.058423884
0.025552073
0.05590553
0.04161453
-0.0022775433
-0.16171966
-0.050567042
-0.16746876
0.04236916
0.028899388
0.14562972
-0.031996667
0.017559838
0.06688002
0.03702906
0.0047353674
-0.005909307
-0.04112686
0.026449306
-0.035328526
-0.07290333
-0.061217416
-0.046801716
-0.10510578
0.051391706
0.042467125
0.20425554
0.08027082
-0.039122533
0.03651411
-0.074762784
0.068633184
-0.026614115
-0.17496681
0.039621554
0.044368703
0.06426067
-0.12185918
-0.0030930154
-0.12237097
-0.07671475
-0.089868635
-0.018358622
0.018403873
-0.13316675
0.13441285
0.055172313
0.041831706
0.006394209
-0.023686992
0.06317076
-0.08985555
0.0085633835
-0.090693675
-0.059141017
0.03688063
0.1006974
0.0032272993
-0.1311849
0.1009915
0.09324522
0.017661499
-0.03638076
0.034918252
-0.11349089
-0.0002146125
-0.1617709
0.008716509
-0.027381426
0.03795031
0.0775029
-0.031816095
-0.01870608
0.029649515
0.050144084
0.026386293
-0.084971815
-0.047808357
0.048350293
-0.12087929
0.008964882
-0.033377033
0.08642943
-0.017045276
0.027360205
-0.18679486
0.009658788
0.038854837
0.03148827
-0.012034225
0.03119311
-0.06796696
-0.15440159
0.03620837
-0.034709297
-0.17771381
0.08418029
0.039867315
-0.0141398525
0.016726982
0.043310918
-0.18515792
-0.004468393
-0.20001
-0.016360627
-0.15704738
0.05517234
-0.14087756
0.03746534
-0.051441815
0.00039875484
-0.042789266
0.060423028
0.032987382
-0.05650698
0.020671023
0.03604724
0.080593616
-0.14116581
0.035237998
0.050190866
-0.10559928
-0.19291301
0.032383356
-0.007969888
-0.10079576
0.024675978
0.025747139
0.052933764
-0.097049356
0.03356719
-0.09981883
0.055325832
-0.258292
0.00940341
-0.021717088
0.040016577
-0.08481041
-0.004541127
-0.0051928246
-0.10164315
-0.057929676
0.03438486
0.059903786
-0.056051437
0.074468486
0.061688483
0.062930726
-0.121702395
0.16512394
-0.058750313
0.04682888
-0.07463954
0.028866427
0.033112135
0.082429826
0.091297865
-0.074986555
0.06378839
-0.05656969
0.043496653
-0.07247508
-0.054892376
0.047771014
0.12177929
0.0060978043
0.031216854
-0.01505536
0.09132534
-0.12428124
0.011119057
0.012688521
-0.09557042
0.08171899
0.08525374
-0.066579595
0.04501395
-0.07089073
0.06126628
0.09888745
0.10901323
-0.02471126
0.016442867
-0.0075018923
-0.05698441
-0.061879795
0.06490607
0.039367568
-0.019075263
0.043459676
0.09338185
0.059804864
-0.026183175
-0.030773526
-0.037192926
-0.00850809
0.113104716
0.066414684
0.0023824093
0.060262952
-0.16504745
-0.10686157
-0.055620722
-0.010386585
0.059288982
-0.05000931
0.0066156024
0.04481085
0.034987263
0.040618125
-0.09932225
0.050994966
-0.075758874
0.06862433
-0.03080323
-0.19535042
-0.20922765
-0.009778838
0.05139902
0.035601724
0.042511195
0.020115374
-0.004228816
0.051587
0.12320201
-0.097767256
0.124707386
0.03511029
-0.10578245
0.049178876
-0.14320505
0.15225974
0.014991065
-0.17130306
0.039554425
-0.070970036
0.009935645
-0.085280985
-0.060044132
0.08789644
0.006027154
-0.20415509
0.10803201
-0.058339726
0.056509852
0.003974022
0.040854774
0.057867557
0.04504672
0.0683166
0.055615757
-0.046574928
-0.044581402
-0.011158129
0.024259752
0.076828934
0.08509286
0.025672257
0.023562804
-0.040109593
0.017110022
-0.043134548
0.08504991
0.01962177
-0.122589126
0.04398715
-0.02038498
-0.010602893
-0.04097242
-0.020859906
-0.0032133374
-0.17639157
-0.022539444
-0.00988816
0.05884887
0.017382884
-0.06289571
0.051003773
0.03760409
-0.10706683
0.03424765
-0.16613701
-0.03536251
-0.004591098
-0.025493765
-0.04000939
-0.35455644
0.05737055
0.003501753
-0.011054164
-0.052582514
-0.09959183
0.053632062
-0.1798143
0.01997328
-0.07968069
0.03808853
-0.13091105
0.107643425
0.081202514
-0.107501626
-0.16416118
0.09901961
-0.015222724
-0.0014916626
-0.004006974
-0.23609297
-0.15799867
-0.022751544
-0.18829677
0.054282364
-0.004726411
-0.041325513
0.018346254
0.067510165
-0.0076546366
-0.18174489
-0.0480058
0.0705889
-0.023028398
0.07230005
0.024897622
-0.20507227
0.088647135
-0.2048245
0.1560079
0.03798691
0.011513757
-0.013899901
0.05329022
-0.09132188
-0.10582789
-0.13673757
0.08201082
-0.04493405
0.031355254
0.01595995
-0.23806219
-0.08264017
0.015492612
0.018849947
0.0033839617
-0.04175685
-0.052143537
-0.027865335
-0.016287655
0.14191568
-0.20541465
-0.10160694
0.021155799
-0.0674242
-0.09269967
-0.022057682
0.015546789
0.045750123
-0.0048384024
0.014887533
0.056970034
0.07036956
0.11249559
-0.013623157
0.035093512
-0.08332394
-0.09536863
0.083774835
0.06898847
-0.1006844
-0.010257188
0.014622767
-0.030934194
0.01564204
-0.044529837
0.11470567
-0.031085227
-0.053743258
0.1321823
-0.060986686
-0.040762253
0.17837575
0.045802984
-0.055780586
0.0059465487
-0.090124816
0.061542213
-0.05311338
0.00034820643
0.1095145
-0.14370833
0.09941821
-0.16266611
0.0650631
-0.0050359503
0.008197861
0.04995433
-0.1617132
0.010434638
-0.05879451
0.062038966
0.028658846
0.03612764
0.03356232
-0.049112745
0.01784908
-0.045498777
-0.019533582
-0.21924137
-0.171382
-0.18708444
-0.042668916
0.037674338
0.051510416
0.037533294
0.063813925
-0.052196268
0.035040714
-0.12584512
-0.18275438
-0.028970482
-0.039829556
0.0142314825
-0.16974944
0.0828782
-0.066132635
-0.25028595
-0.060538687
-0.11299487
-0.01042845
0.0057714563
-0.071516916
0.07535642
-0.022891348
-0.09237412
-0.0015458701
-0.014769042
-0.18168667
-0.1504551
-0.032927364
-0.19032581
0.03535179
-0.04680661
-0.09153026
-0.08235984
0.05968263
0.15606685
-0.087067805
0.021352854
0.038484514
-0.0782268
0.03832191
-0.01907247
-0.038483273
0.047700107
-0.17486715
0.10386026
-0.08561323
-0.031063292
0.04039565
-0.04257262
-0.1382158
0.056217927
-0.0152058415
-0.13719393
-0.025097014
-0.33725908
-0.1661593
0.08630061
0.04295772
0.051261496
0.039683763
-0.067567915
-0.025915215
0.010504547
0.04956024
-0.099796064
-0.05997147
-0.023352735
-0.048736252
0.003013372
-0.07941719
-0.033944234
0.017886266
0.009606859
0.11422932
0.03516445
-0.06221939
0.0626661
-0.20323701
-0.008915064
0.047270894
-0.09323125
-0.022414204
0.08568142
0.052249398
-0.2126004
0.025962086
-0.054315764
-0.10268162
-0.011663492
-0.10266842
-0.09679063
-0.021876603
0.021044625
-0.049937088
-0.13656707
0.08466736
-0.05155499
0.035788186
0.039464824
0.045851074
0.019100778
-0.023724671
0.12384083
0.16532393
-0.07689784
-0.19342886
0.026511151
0.031174893
-0.01834881
0.015082366
0.0076765353
0.08918226
0.10218197
-0.11709276
0.017742153
0.02935968
-0.09967105
-0.05412939
-0.18191682
-0.039389797
0.046031572
0.050945472
-0.07832238
-0.028571097
-0.052803222
0.07895347
0.02587347
0.04796351
-0.024492197
-0.06883937
-0.15433133
-0.13279347
0.08063932
-0.045386728
-0.083295055
0.056919146
-0.16114582
-0.15924795
-0.056391813
0.0368461
0.067109086
0.12428097
-0.0056669684
0.042441707
0.24786162
0.12042988
-0.13950498
0.04814021
0.01872809
0.09554015
-0.05863046
0.03070325
-0.018892506
-0.08474146
-0.018405467
-0.07760563
0.00088986335
0.035620723
-0.08017145
-0.082454
0.015191525
0.021380045
-0.1517164
0.00912091
0.032483857
-0.049020283
-0.07742098
-0.15408555
0.012178722
0.07281887
-0.17031024
0.046811428
-0.05188264
0.07792724
0.03332068
0.030130276
0.015160573
-0.00583842
0.09846867
-0.0064171487
-0.05520499
0.0010164783
-0.08759718
-0.18326877
-0.069821596
0.022591012
-0.019231496
-0.051983625
-0.06921928
-0.097266905
-0.21549514
-0.049359646
-0.09507784
0.07092606
-0.008061163
-0.033343572
0.03288855
-0.041711103
-0.0719969
-0.026377285
0.06293984
-0.17825955
-0.114839904
-0.09649013
0.052970044
0.020105395
-0.047266815
0.028161794
0.057278365
-0.14066303
-0.025293348
0.07100159
-0.04890967
-0.021626987
-0.07120352
0.05224521
0.0336893
0.023560373
0.04843175
0.088208795
0.06369499
0.015826939
-0.024451772
-0.16840865
-0.16994444
0.05290879
-0.07517097
-0.003104786
-0.07466296
0.05308631
0.0033467314
-0.158468
-0.10493731
0.029320646
-0.033866577
-0.033298742
-0.20640835
-0.11714327
-0.1623094
-0.079162255
0.018430194
0.029530212
0.082612164
0.15597725
-0.029793758
-0.11146479
-0.1909136
0.046742857
-0.20465782
0.0434167
-0.012063028
0.03523247
-0.23017631
-0.03174428
0.16928828
-0.09388309
0.035093494
0.056125727
-0.100598216
-0.016549
-0.050150327
-0.1650009
-0.040657863
-0.078122064
0.04099985
0.030801108
0.022818696
-0.1516167
0.117292695
0.047039367
0.038241804
0.05981509
-0.04664576
0.032445654
0.016963871
-0.07073652
0.12140085
-0.049156666
-0.0090922965
-0.07878036
-0.14956346
-0.08671481
-0.023358513
0.07997522
-0.0014083963
-0.016466768
0.0977769
-0.18208218
0.1017421
-0.021147816
-0.1895923
-0.21860032
-0.0032488038
-0.029459015
-0.11935202
0.039074346
-0.003038697
0.028828695
0.006109457
0.0748422
-0.029682346
0.03952446
0.10998944
-0.19612947
-0.022708157
0.03749302
-0.051252745
0.030483432
-0.09419039
-0.0735347
-0.067365825
0.08995305
0.028223695
0.050567236
-0.16382746
0.037007414
0.023023937
-0.015428898
0.07786158
0.117271654
-0.06879602
-0.071938865
0.014510194
-0.16615604
-0.16801904
-0.020391276
-0.20084724
-0.20809603
-0.027569402
0.027879363
-0.026271906
-0.021514852
0.056648117
-0.23419921
0.044742294
-0.07181858
0.022859313
0.096290044
-0.14498045
-0.07165531
0.14588486
-0.061478194
0.027567971
0.029462235
-0.045318663
0.08646932
0.010343089
-0.22327796
0.049667325
-0.060550805
-0.17681822
0.03262282
0.015268665
0.067251556
-0.13647722
-0.07945212
-0.3827888
0.037833784
-0.15158315
0.036907848
-0.11940131
-0.10262492
0.037891928
-0.038592756
-0.04496237
-0.07524153
-0.14064121
-0.24545829
-0.18338095
-0.005442628
-0.08029873
-0.10492012
-0.13164881
-0.089973286
0.20368771
-0.008028912
0.0049792253
-0.089912795
0.035324838
0.027962731
0.0024684912
0.061699014
0.07742993
-0.14603479
0.058486253
-0.042530335
-0.088073745
0.0347843
-0.19819191
-0.013824876
0.029231684
-0.015973024
0.032485574
-0.13417205
-0.093001194
0.15885566
-0.22297359
0.060123425
-0.112685926
0.09183456
0.11669543
0.06550187
-0.1773438
-0.14998057
-0.015789052
-0.015728546
-0.07954531
0.036212776
-0.09984223
-0.0816373
0.107026525
0.03249047
-0.12989415
0.08361343
0.028122442
-0.08387466
-0.04151266
-0.06192371
0.11838288
0.054780714
0.030421622
0.002245653
0.038012277
-0.1530914
-0.20452477
0.09913818
0.046024706
0.019176217
-0.068734385
0.025983537
-0.0985583
-0.06289439
0.00068240275
0.11159657
-0.05039153
0.061608538
0.050777286
-0.13118066
-0.009591801
-0.0033895506
-0.0019432995
0.015784428
0.07451925
-0.107359566
-0.16566607
0.07948608
0.07306224
0.16237946
-0.15502042
-0.11032617
-0.12621427
0.041536942
-0.035818674
0.15411659
0.05952377
0.062199783
0.036838222
-0.084130965
-0.1825722
-0.17336228
-0.060788147
0.040764704
-0.21288294
-0.05888047
0.06421451
-0.035248965
-0.03599923
0.01617401
-0.02563328
-0.154063
-0.01625758
-0.11338987
0.040661335
0.034075964
-0.0091023855
0.0042150905
-0.11721988
0.029586354
-0.06801412
0.03404206
0.053781934
0.043604493
-0.004432285
-0.1395782
0.035858616
0.020968579
-0.0049860887
-0.20900834
0.13386665
-0.049086064
0.07646382
0.052056596
0.052024394
0.068038836
-0.13375871
0.020363715
-0.021145148
-0.04608091
0.05250249
0.080978185
-0.1806141
-0.32905477
0.07364612
-0.05122217
-0.09532979
0.090390675
0.24414876
0.043382466
-0.19693398
0.08239711
-0.10142507
-0.011486688
0.06467765
0.00830866
-0.01486241
0.05950317
0.072074614
-0.05461057
-0.119797
0.05056543
-0.1370664
0.027829722
0.04575994
0.020314341
0.19143386
0.12735239
-0.030044278
0.17998075
0.032574005
0.059683193
0.030395007
-0.29424882
-0.016303122
-0.037289497
0.06005485
-0.1282275
-0.08850141
0.09739155
-0.19392937
0.0034879164
0.06654486
-0.0616665
0.03658557
-0.19820261
-0.08476169
-0.0026644117
0.09675512
0.016946914
-0.03459322
0.05979623
0.017784005
0.010847721
-0.091531344
-0.31445727
0.036732506
-0.0646765
-0.013214187
-0.020538686
0.00829833
-0.13784376
0.0555157
-0.1989917
0.006830797
0.007547612
-0.03514508
-0.10686468
-0.16919905
0.007869316
-0.08811936
0.02088211
-0.1436262
-0.18147191
-0.111013085
-0.03133357
-0.017414657
-0.066456854
-0.0023075996
0.0062901094
0.07742697
-0.052185044
-0.0614047
0.051750224
-0.103700005
-0.05808999
0.041308742
-0.003103657
0.11599458
-0.007740393
-0.03062584
-0.02301514
-0.0060416143
-0.20670472
0.070633546
0.0612827
-0.057196036
-0.19008227
0.05166963
-0.1606978
-0.04179604
0.09459655
0.047616184
0.056402218
-0.14404622
-0.17871909
0.09103573
0.015613383
-0.005760863
-0.028699923
-0.03964266
-0.059600417
-0.0032676656
0.021160958
-0.0060467785
0.049341425
-0.13835773
-0.07412351
0.060942825
-0.15760595
-0.15677303
-0.013273578
-0.07943808
-0.021499954
-0.060936403
-0.08476023
0.039762616
0.03111379
0.02891099
-0.12993652
-0.027088242
0.065490454
0.0055060773
-0.06308491
-0.089460045
0.082603425
-0.20559679
0.19943987
-0.048538674
0.05206873
-0.14962445
-0.10716054
0.06544627
0.07866752
0.10409108
-0.18112111
-0.15253432
-0.06696462
0.04904301
0.06444325
-0.15430613
-0.079124026
0.059918754
-0.079592295
0.05469653
-0.030829076
-0.05893021
0.053688757
-0.19796954
0.023839317
-0.11487411
-0.16003981
0.013590848
-0.081788994
0.009487338
0.052598074
0.02268609
-0.12331349
0.06945301
-0.12154919
-0.16485932
0.05172615
0.054453745
-0.11097088
-0.013363607
-0.074141696
0.07139188
-0.054862402
-0.027085464
0.056267377
0.0045540985
-0.1654589
-0.11868547
-0.103214756
-0.061176598
-0.058718197
0.050901633
-0.33670756
-0.13585378
-0.05689629
0.044299427
0.005137881
0.031578604
-0.14062801
-0.05987909
-0.28805542
-0.11708947
-0.1447265
-0.02643111
0.028320532
-0.06806886
-0.09410138
0.021003623
-0.022674657
0.025093464
0.05797272
-0.10428192
-0.039521817
0.13702078
0.034385044
-0.038691994
-0.10882959
-0.10266474
-0.004781179
0.016554534
-0.062957995
0.023765177
-0.0942228
-0.060351722
-0.075902045
0.0131300315
-0.029232884
-0.18769294
0.08162496
-0.0016509367
0.071167804
-0.09557551
0.0559383
-0.08051629
0.03676342
-0.0041783033
-0.011174472
0.008066447
0.03266079
0.099991836
-0.015762683
-0.18732639
-0.027249495
0.03551737
0.091205835
-0.115886316
0.023706516
0.05937459
0.049007554
-0.017745838
0.040649556
-0.048311535
0.057943475
-0.008361175
0.02477635
-0.008324806
0.04302888
-0.05224853
0.04962658
0.08689691
0.07142698
0.040433098
-0.061593898
0.05187227
0.03866743
-0.2002513
-0.01479052
0.037715577
0.1076293
0.050915975
-0.06618253
-0.04219533
0.018635897
-0.13247485
-0.102422275
0.033106707
-0.12590441
0.113040745
-0.1174395
-0.2637574
-0.00079544703
-0.037631404
0.009757001
-0.026816575
0.055483215
0.018014215
-0.14759846
0.017164119
-0.046564024
0.1568933
0.029255345
-0.0123675335
-0.033144675
0.044293027
-0.1901344
-0.04793033
0.059830025
-0.033939846
-0.08967533
0.021483755
-0.051582206
0.0027670367
-0.14214538
-0.14501566
0.06445623
0.010673713
-0.13220823
0.036808077
0.043050263
-0.11627701
-0.011417024
0.002030064
-0.0080072945
0.08049696
-0.026524113
-0.111323066
0.024770536
-0.077428475
0.026859546
0.04394046
0.07945538
-0.02214217
0.076459415
-0.20350446
0.015323874
-0.06549143
0.10456021
-0.36724892
0.06279352
-0.15230766
0.0054981653
-0.08130494
0.019265175
0.011437966
-0.046175152
-0.023205109
0.04833056
-0.024443759
0.020426663
-0.19146316
-0.21244565
0.04722986
0.045277983
-0.0960656
-0.11120655
-0.17296574
0.052645624
0.034792017
-0.01283031
-0.11402177
0.010119353
-0.07698632
-0.07830637
-0.04518039
0.0770224
-0.06765369
0.07158161
-0.0402908
0.018074926
0.021495404
-0.10624176
0.03882941
-0.050316084
-0.034809694
-0.03903939
0.0083331205
0.03631279
-0.25173703
-0.1465115
-0.16355856
-0.0041544726
-0.10355683
0.051638685
-0.15093872
0.026131392
0.010445844
-0.0051182383
-0.1655885
0.045640595
-0.08099463
-0.24734844
-0.12472456
-0.033874553
0.1188072
-0.17165154
-0.0029046847
0.043580715
0.049016092
-0.09881778
0.009735409
0.031052155
0.04437243
0.095332935
-0.106459856
0.039638042
-0.008939
0.0030729014
-0.013220786
-0.21600439
-0.041065987
0.09071023
0.02341664
-0.03966789
-0.05056508
0.041022167
-0.14696898
0.051135026
0.025279284
0.042271744
0.19450614
-0.011928777
-0.0019294684
-0.0862448
-0.009384586
-0.023104958
0.0557858
-0.08372559
-0.21136974
0.015763288
0.06888721
-0.059514415
0.041588143
-0.05170276
-0.02815588
0.015690073
-0.016982466
-0.1357006
0.026110508
0.06615205
-0.22712952
0.040975586
-0.058696825
-0.11804988
0.05181602
0.011763423
-0.17736821
-0.17915973
-0.027083687
0.061399475
-0.14134715
0.0018118273
-0.03982718
0.024141539
0.03088215
-0.03516075
-0.018332768
-0.11980521
-0.031832512
-0.018572167
-0.03150693
-0.0018993788
-0.030879905
0.049090058
-0.012326056
0.057020918
0.033954605
0.10194375
-0.09648693
0.025595678
0.07195464
-0.110003
0.0019073373
0.04216552
-0.0011613739
-0.00073619187
0.010663805
-0.16136461
0.054704264
0.05831047
-0.16580096
0.09818114
0.0025834735
-0.08892331
-0.041667648
0.008094393
0.056315903
-0.14523588
0.08360695
-0.2583992
0.07127848
0.0561515
0.030306585
-0.11231985
-0.053320218
0.26150268
0.04397044
0.02009128
-0.031277433
0.07612878
0.054635428
-0.031006796
-0.03310736
0.10344633
-0.13163912
0.053385377
0.059924565
0.015195214
0.04727594
-0.077180915
-0.05875071
-0.020900028
-0.105388425
-0.2376399
-0.038905732
-0.23181632
-0.14319405
-0.09940534
-0.06457244
-0.0755832
0.037341785
-0.15702657
0.06778571
0.052470464
-0.035899334
-0.027298082
0.03209993
-0.07481336
-0.055423006
-0.15388241
0.040131483
0.12953457
-0.05250736
0.0559206
0.06834337
0.14926632
0.028958298
-0.10450831
-0.008226461
0.019612076
-0.021511795
0.027034678
-0.038565837
0.027641762
-0.06558087
0.016567508
-0.010367779
0.07710584
0.069218725
-0.14828368
0.16596684
0.028527033
-0.0411065
-0.0055737714
-0.07676249
0.050285883
0.03520328
0.08127075
-0.10507427
0.018373344
0.033893228
0.02198354
0.10309387
-0.034492243
0.08988012
0.10555328
-0.0062765367
-0.09048766
-0.11471533
0.09788927
0.050162263
-0.15418155
0.076715775
-0.19258006
-0.12515165
-0.07544143
0.018390639
-0.0131653035
-0.020984063
-0.037133962
-0.018470772
-0.13841884
-0.07065029
-0.075859964
0.049184535
0.015682396
0.02900255
-0.038987342
-0.094832204
-0.117157295
0.013882986
-0.11668421
0.024854427
-0.13937108
-0.0037458357
-0.068068646
-0.21875931
0.048872847
0.036492947
0.08968392
-0.07234394
0.082305185
-0.0956345
-0.011843331
-0.028890822
0.039734434
0.014374856
0.062286004
0.076622374
-0.068836346
0.051767208
0.038852945
-0.08974114
0.07119086
-0.08270601
0.043344058
-0.2245556
-0.025732493
0.042678535
0.049529366
-0.1862238
-0.122746624
-0.18170275
-0.06156906
-0.11078538
0.08707286
-0.058608554
0.005088691
-0.13707767
-0.046979852
-0.12403602
-0.021073207
-0.03409714
-0.03768461
0.02076194
-0.019396473
-0.033195358
-0.06781654
-0.1001472
-0.055552732
0.06979621
0.06411671
-0.17534955
0.01727911
0.012168419
-0.18380782
-0.017892594
-0.04716978
0.031467475
-0.095309414
0.048431322
-0.14395052
-0.0007621767
0.0006917379
0.002034311
-0.1828025
0.08014148
0.035868365
-0.046693392
-0.18761002
0.041027382
0.029480385
-0.041238308
-0.09553713
-0.061691828
0.075049564
-0.11477154
-0.02737916
0.048951454
-0.09550318
0.013841969
-0.00032481775
0.07466439
-0.056027222
0.0007887509
0.034760244
0.028277043
-0.11646938
0.07554995
-0.066734985
0.021797733
0.01393804
0.00049095025
-0.04149963
-0.010125443
0.020787897
0.018588655
-0.03328631
-0.24137443
-0.039324343
-0.030234557
-0.044925604
0.0022605988
0.036895677
-0.037941027
-0.113643266
-0.06616918
-0.12278684
0.019816715
0.035600703
-0.073047906
-0.115368776
-0.28579095
-0.0064982516
0.029067867
0.022535989
0.048902977
0.017374434
0.03631855
-0.0034780765
0.07034219
0.063350715
0.07526401
0.0014780505
0.009944986
-0.18611632
-0.057777017
0.043992918
-0.15161467
0.05510387
-0.040343493
0.057855748
0.020335631
-0.05250136
-0.011500611
0.10224409
-0.045207746
-0.018526465
0.09718446
0.025065118
-0.08233533
-0.18148635
-0.13667633
-0.06879316
0.028181227
0.03822898
-0.18689233
0.02000654
-0.14068538
0.05144889
0.024660414
-0.07589276
-0.04059261
0.011013177
0.0917005
-0.06373874
-0.10849525
0.025798041
0.0289967
0.02783342
0.12839125
0.03864497
-0.060308103
0.028315492
-0.20565125
-0.06006034
-0.05171965
-0.13611616
-0.21110237
-0.1454059
-0.10660594
-0.12554297
0.03006735
0.030899448
0.05862594
0.04891222
-0.13168457
0.00015858437
0.131882
-0.028007507
-0.14793774
0.04832089
0.0051194807
0.01223831
-0.013717498
0.03016934
0.17064166
-0.12067869
-0.09984684
0.010006384
0.047282238
0.0016971503
-0.002490457
-0.1831993
0.022175908
-0.14152817
-0.13112545
-0.01902591
-0.01745143
0.007158917
-0.04169811
0.011133695
-0.030573646
-0.18126008
0.03313844
-0.015136222
0.03125984
0.033779785
-0.17891651
-0.05472594
-0.20569849
-0.19765766
-0.036295757
-0.08552888
0.04027676
-0.23052567
0.050287466
0.04516158
-0.0022656259
0.030289989
-0.11290008
0.02737767
-0.044941436
0.046296373
-0.22344531
-0.17833349
-0.06697156
0.08446188
-0.08554975
-0.10295295
-0.16181327
0.04086125
0.023855267
0.070939526
0.0655248
-0.09338223
0.12189349
-0.11002665
-0.038719326
0.07116539
0.055820595
0.032807343
0.040310785
-0.058859907
0.050882548
-0.17437845
-0.04853038
-0.0029368359
0.013986569
-0.08131295
0.051689625
0.034583718
0.115427874
0.062450077
-0.26018533
-0.06640387
0.046186797
0.029199425
-0.1355871
-0.005556279
0.04487599
-0.0639191
0.026365109
-0.12179636
0.096339576
0.024386853
-0.12292938
-0.25863877
-0.106267974
-0.029614823
-0.12166425
0.03181339
-0.0669885
0.0847818
-0.09280384
-0.14999497
0.008152672
-0.07248846
-0.2021964
-0.017945226
0.025061779
-0.054809686
0.044641674
0.04712307
0.03154014
-0.004497434
0.14238149
-0.002949541
-0.13130566
0.04626161
0.013750827
-0.0022307644
-0.05784112
0.06887642
-0.15274078
-0.14901975
0.021208204
-0.020943005
-0.13942261
0.028748378
-0.106712565
0.0035991187
-0.09482001
-0.09304134
-0.16165906
0.10481276
-0.13681456
0.04006657
0.00013199613
0.02578681
0.10197183
0.03916964
-0.08133211
-0.2301191
0.06389014
0.044148322
-0.14704776
-0.065559365
0.048555337
-0.04845935
0.055206478
0.029161664
-0.18508328
-0.061326917
-0.13727926
-0.17366935
0.035955332
-0.060780436
0.0824784
-0.17642015
-0.059857473
0.05142425
-0.1267987
0.034477524
0.044321325
-0.096515134
0.014497604
-0.09574199
-0.01098578
0.16321382
-0.10850543
-0.03215378
0.045533907
0.06432943
0.105814554
0.022336205
0.080351286
0.0324407
0.061706915
-0.08713435
-0.029204875
-0.06107389
-0.01194511
0.04327504
0.03956758
-0.018937306
0.0010270263
-0.05823295
0.04036401
-0.09783655
-0.04404891
-0.19693625
-0.119756214
-0.04352484
-0.19169495
-0.025568284
0.03359677
-0.04932915
0.01759482
-0.052085835
0.044289853
0.022364825
-0.13973694
-0.037586153
-0.03894978
-0.13147156
-0.16136172
-0.15988606
-0.16752066
0.05063009
-0.15066715
-0.26607215
-0.10203569
0.06026762
0.020156091
-0.19523798
0.038863767
-0.14628337
0.029240895
0.047137115
0.016754884
0.041183896
-0.0068955855
0.053942956
-0.18913591
0.046528257
-0.14232486
-0.2881123
-0.17078328
-0.034475625
-0.24692778
0.07477025
-0.083556354
-0.016098524
-0.097468555
0.011784866
0.0107104145
-0.04784005
-0.061188772
-0.039527077
0.015633969
-0.26982605
0.0035064186
0.04880356
0.014326408
-0.17135696
-0.03622718
-0.09458957
0.044956677
-0.061771367
-0.0012603023
0.055132426
-0.20597701
0.026232593
-0.04619581
-0.04637972
-0.09749481
-0.10632094
0.06312355
-0.08774085
-0.080557235
0.03913268
-0.019604906
0.04603725
0.08349829
-0.017334748
-0.08769777
-0.14526574
0.04693663
0.06752527
-0.18480217
-0.030643847
-0.075332105
-0.14180115
-0.13551685
-0.053381566
0.08719396
0.048181955
0.061988782
0.021179141
0.058369644
-0.023573235
-0.20027775
-0.011185641
-0.022187842
0.015410158
0.011864746
0.08009614
-0.04178096
0.009574715
-0.07613073
0.07864584
-0.1060763
0.05041157
0.064284876
-0.060774274
-0.22222611
0.07714123
-0.011911214
-0.03167092
-0.13559103
-0.10109582
0.11784106
-0.04115314
-0.18522795
0.0059841564
0.059872966
0.029906403
0.026229436
0.071331196
-0.022370694
-0.14726435
0.026610445
0.014948295
0.02223364
-0.105281256
-0.06267584
-0.007440797
0.02192144
-0.083122686
-0.22891358
-0.27830365
-0.0746495
0.14878389
0.01063642
-0.048042785
-0.052266527
-0.13669254
0.026348151
-0.041965358
0.031516597
-0.14753734
-0.0014982341
0.029503753
-0.035908483
-0.052302018
-0.0056536105
-0.02246647
0.04007876
0.011772958
0.096814446
-0.099130474
-0.027488986
-0.16694547
-0.2248218
-0.12516552
0.017050827
-0.057079483
-0.11287861
0.058223706
-0.17551595
-0.0911267
-0.004482776
0.033020366
-0.080234
-0.08680456
-0.080987066
0.01727193
-0.110472515
-0.031786177
0.080936044
0.057151716
-0.09165964
-0.09317157
-0.19247556
0.041603763
-0.01764803
-0.20777804
-0.0023476242
-0.12530594
-0.06088548
-0.07692476
-0.04437593
0.08130437
-0.20596343
0.16284516
0.032270573
0.017996004
0.026214724
-0.04577681
-0.14073528
-0.00018225292
-0.11641603
-0.208421
0.038379148
0.03459224
0.043956388
-0.14920668
-0.0017522738
0.040474772
-0.07091266
-0.16216563
-0.047974154
0.048872758
-0.24476267
-0.11053434
-0.015243955
0.037891313
0.02955295
-0.1851811
-0.14217475
0.011687873
-0.010757937
-0.017567344
-0.028102012
-0.06733532
-0.07934593
0.04993157
0.116283156
-0.15815926
0.040569097
-0.09047258
-0.071210906
-0.004020587
0.06019289
0.0062152436
0.046458483
-0.20383707
-0.15046902
0.001415663
-0.08360429
0.018952241
0.039761774
-0.014805002
-0.08570444
0.10581857
0.048971374
-0.1446347
-0.12378401
0.047921862
-0.07361051
-0.019633025
0.007470907
0.032968964
0.029991997
-0.18700448
-0.12053604
-0.029160434
-0.07963151
-0.0018475434
0.01780056
0.041144393
0.03239237
0.03891627
0.07207547
0.13051847
0.021952782
-0.15287486
-0.10299831
-0.115696944
0.07982085
0.0474789
0.013878772
0.037485946
-0.16652462
0.009378119
0.01722263
0.052478764
0.0076981136
0.06890087
0.016263505
-0.06995745
0.0282709
-0.0014315326
0.008234362
-0.09438148
0.023043044
-0.07039695
0.09273562
-0.0026320773
-0.019712035
-0.044320688
-0.1637848
0.04738817
0.00044826086
0.041387774
-0.0006753048
0.021854108
-0.104802884
-0.0055392985
-0.24188507
-0.09497389
-0.17880067
0.04662654
0.0033109044
-0.102158375
0.0374025
-0.29989696
0.0028440226
0.035319977
-0.07801373
-0.015231907
0.053173773
-0.014867957
-0.10700599
0.015142238
-0.006194044
0.0045493757
-0.2418652
-0.066347346
0.030334461
-0.18408053
0.0059737437
-0.08934526
-0.0055998634
-0.25472897
-0.065505184
-0.0249741
0.067744076
-0.12809885
0.020816077
-0.054813925
0.065406986
-0.0955297
-0.014799614
-0.06083164
0.055961728
-0.016598823
-0.014576531
0.12750834
0.07314418
0.04079596
-0.15674733
-0.098193064
0.04217029
0.08092392
-0.10136559
-0.033697028
-0.061545637
-0.03473261
0.08248994
-0.13775973
-0.03702967
-0.1015456
-0.030815527
-0.02982544
-0.05938095
-0.14819427
-0.16689187
-0.0020545558
-0.06583334
-0.0391949
-0.017738255
-0.14414743
-0.012316868
0.07138644
-0.046880312
-0.091051854
0.028605966
0.024464086
-0.014407241
-0.025204133
-0.14020425
0.022244485
-0.12555452
-0.043574385
-0.0025206893
0.041226976
-0.14096569
-0.08538115
-0.12656562
0.0123010585
0.01961624
0.019228395
-0.03642642
0.011016859
0.062146943
-0.080974005
-0.10897631
-0.14668468
-0.024791924
-0.09635042
-0.1501945
-0.13978913
0.113578215
-0.12587418
0.03076461
0.042633295
0.03056136
0.03924225
0.020908203
-0.039995745
-0.11828828
0.019243762
0.08636319
0.062399924
0.0022670855
0.00869036
-0.08087942
-0.115858
-0.06343868
-0.023680069
-0.27629635
-0.14217801
0.047057346
0.06357508
0.023033617
-0.16957387
-0.12576988
0.056085788
-0.07060354
-0.04338001
0.070043676
0.011559009
0.08785074
-0.048954505
0.024004396
0.07113134
0.04750098
0.045774605
-8.630227e-05
-0.06698505
-0.030511266
-0.11221535
0.02140768
0.027431585
-0.12747368
0.03353305
-0.049330685
0.084921055
-0.056266535
0.03615656
-0.053113207
-0.06589907
0.057831347
0.031177025
-0.24069066
-0.024836473
0.06238673
-0.04258892
0.05371973
0.07786204
-0.15190685
0.014820037
-0.00057686033
-0.035667885
0.18673022
-0.23978212
-0.03629073
0.009219049
-0.09379624
-0.18931745
0.032281075
-0.038098373
0.028934179
-0.17442599
-0.052977417
0.024378601
-0.05568218
-0.10418043
-0.07376786
-0.2871852
0.06310848
0.06385174
0.044030417
0.082516305
0.012700872
-0.02013628
0.030979905
0.03594816
0.1224536
0.03932882
-0.04732507
0.09096254
-0.043802146
0.0113396
-0.06831777
0.014569925
-0.124644086
-0.13301076
-0.041134752
-0.2084334
-0.18187219
-0.073433824
0.06459091
-0.0795973
-0.21561453
-0.03398142
0.10068749
-0.038843866
-0.018870289
-0.15154308
-0.05964151
-0.010914869
-0.03764412
0.043076236
0.032782316
-0.10909579
-0.0070435624
0.00072813174
0.07076366
0.016746879
0.059291515
0.054771543
0.027581314
-0.15146421
0.0027807544
-0.10199942
-0.10994548
0.024600333
-0.010771744
-0.17446715
-0.00932315
-0.04716958
0.005133873
0.040571813
-0.24966343
-0.066465266
-0.046520438
0.053638436
0.025981931
0.061366547
-0.021651952
-0.22354303
0.048650555
-0.0033031055
-0.045689262
0.0020863041
-0.14225028
-0.11278086
0.014610678
0.0005485075
-0.13276465
-0.039136432
-0.06966973
0.05991622
-0.07362004
-0.07372543
-0.12657155
0.025455873
-0.09371177
0.066330336
-0.10585083
0.048402153
-0.073109046
-0.043238107
-0.09231742
-0.05111824
-0.106364205
-0.07132462
-0.07689111
-0.039410632
-0.09461721
-0.09075576
0.09978398
0.007734593
0.061707623
-0.104502246
0.036232397
-0.17297311
0.06196627
0.00055665825
-0.13539544
0.11206527
0.07559009
0.023500437
0.0054759984
0.09446133
0.09642334
-0.07501546
0.04199603
0.007895506
-0.03483721
-0.028948803
-0.06191922
0.052704006
0.0714109
0.028228521
0.03259353
-0.0068170023
-0.12796165
-0.13552824
0.031177457
-0.06085453
0.015938373
-0.22454676
0.002740069
0.0064791883
0.0065253535
0.07701174
-0.024036976
0.06112704
0.06481697
0.004666123
0.010330982
0.048532717
-0.00082274264
0.015098191
0.09738048
0.007564811
0.07366475
0.0054258388
-0.289591
0.010866048
-0.068233594
-0.084735714
0.035192966
-0.07546498
0.016001696
-0.06659766
-0.06928461
-0.011930502
-0.07771771
-0.04815419
0.017002689
0.053338904
0.031518143
0.030384108
0.023266012
0.059513327
-0.2455674
0.09694976
0.04313396
-0.04294207
0.07527785
0.048922587
0.08668176
-0.0107410075
0.048257727
0.08047137
-0.028641455
0.034622855
-0.07416851
0.024570977
-0.1495927
-0.017940765
-0.03229606
0.066098236
-0.0075565833
-0.071134515
-0.013457332
-0.16896
0.030494642
-0.040540494
-0.07914897
0.06744816
-0.076632805
-0.0047882935
0.051971138
-0.014117083
-0.20049746
-0.048644237
-0.15941016
0.03752837
0.061667886
-0.061060917
-0.012144092
0.12506358
0.04794
0.009069083
0.057298627
-0.11048404
-0.068052456
-0.00080474315
-0.07233979
-0.06439287
-0.050112087
-0.05269911
-0.03257051
-0.09344486
0.0039889314
-0.12904042
0.11816269
-0.11502663
0.12847264
-0.08046
-0.038462304
-0.14753957
0.11231897
0.062667504
-0.08035607
-0.0845342
-0.014087373
-0.059639312
0.034319825
-0.14154324
0.19372346
-0.02447148
0.04053861
-0.14220087
-0.08695015
0.108946554
0.04727164
-0.010135375
0.003187575
0.044182032
0.028829725
-0.08732035
0.05179372
-0.20325719
-0.18461823
0.021971613
0.022066778
0.028616162
-0.23526657
0.071621105
-0.12407175
-0.059609514
0.031917315
0.019369554
-0.026117837
0.054911267
-0.04256534
0.03471971
0.0843771
-0.1766223
-0.13415843
-0.057822246
-0.102486074
0.040407106
-0.10576795
0.09315166
-0.15472965
0.02965122
0.016643258
0.020238275
0.028845044
0.030846633
0.0007010308
0.035142493
0.03476565
0.02582349
-0.19523844
0.011306454
-0.07182947
0.0066993157
-0.08442378
0.02030354
-0.03071136
0.052080955
-0.01947701
-0.05197072
0.05690331
-0.009147238
0.021787243
0.020925961
-0.047605105
-0.045465816
-0.04445255
-0.15841538
-0.03146921
-0.03217812
0.017467266
-0.035904292
-0.1199366
-0.11082494
-0.049549025
0.123334765
0.013238417
0.006700825
-0.04407715
-0.11070125
-0.17049752
-0.12137888
-0.009664641
-0.1076419
0.011968547
0.109793
-0.089061566
-0.07292795
0.037382446
0.07696953
-0.14025588
0.004210191
0.03854145
0.03385612
-0.1754577
-0.061265513
0.098159656
0.0007891779
0.06055989
-0.052182883
-0.04258309
0.0398216
-0.16930288
0.007917974
-0.0028277966
-0.13377148
-0.03664065
-0.015878374
0.0588349
-0.06081166
0.03231909
0.052416038
-0.068179816
0.037829433
0.1302381
0.09329201
-0.05264537
0.040761035
-0.26255065
0.05001884
0.051715948
-0.09452938
0.070921004
0.0596039
0.0459553
0.05407357
-0.07271805
0.020974979
-0.2078978
-0.12998238
0.06698304
-0.12963702
-0.12809433
-0.07178418
0.024265302
0.045781616
-0.04892109
0.05668166
0.09957877
-0.099369824
-0.14237471
0.015653756
-0.14341359
0.022242798
0.0741821
0.00074415904
-0.048197698
0.08236299
-0.05881586
0.067340955
-0.07722171
0.048107646
-0.1415014
0.063529134
-0.063510746
-0.03717659
-0.12610535
-0.09871609
-0.03412027
-0.07051236
0.10844371
0.08490471
-0.08679995
0.035435546
-0.08510799
-0.052969765
-0.15431538
0.044403706
-0.036039803
0.06606003
0.0648493
0.017985892
-0.06305254
-0.115463205
-0.08517161
-0.016508237
0.044244856
-0.024651207
-0.046726342
0.048214693
0.0158664
-0.16397518
-0.14714299
0.08443814
0.029066848
-0.08600127
0.06001491
-0.052140437
-0.06678214
0.046378758
-0.0023750088
-0.021380283
-0.0019403251
-0.054678775
-0.1310454
0.07848458
0.020429106
-0.11551752
0.04046039
-0.08753526
-0.107384376
0.07442778
-0.011202511
-0.09602419
-0.13298503
-0.12173581
-0.08121031
0.036660504
-0.17904595
-0.041097544
-0.03710467
0.023209963
0.032493155
0.027312502
-0.07876665
-0.04424446
-0.19520706
-0.20104776
-0.22992782
-0.121874034
-0.030123988
0.102551505
-0.009289549
-0.0053427154
-0.028856436
-0.12699102
-0.026882324
-0.14011046
0.00022284928
0.05331198
-0.08227881
-0.01989422
-0.11946755
0.053988136
0.0073266267
-0.10412531
0.032400828
0.008822453
0.010491573
-0.16616069
0.060626674
0.052178394
0.023710107
-0.13412501
-0.13492326
0.018552471
-0.21085125
-0.051134963
-0.19136143
0.004672761
-0.037462737
0.033034317
-0.000107321495
0.047163926
-0.06125568
0.072305255
-0.16280428
-0.0080558695
0.07572126
0.037264843
-0.07064534
0.030693825
0.07400052
0.05521475
-0.041501965
-0.11057098
-0.03493842
-0.13639183
-0.15620425
-0.0068496503
-0.03548901
-0.10269711
-0.11095682
-0.009116404
-0.07061823
-0.08348649
-0.0005560786
-0.01956565
0.0049329866
-0.076390624
-0.006055917
0.0397086
-0.04396756
0.026538568
-0.18761738
0.052451327
-0.095136814
0.05846278
0.056989647
-0.07342406
0.048625514
-0.15252116
0.056217518
0.067811504
-0.0475323
0.10475994
-0.049709763
0.14500345
0.033551235
0.076207235
-0.045865595
0.016774327
-0.16435055
-0.14913966
-0.11402492
-0.13601895
-0.012681285
0.07008462
-0.010102998
0.09679874
0.04158079
-0.20505607
-0.025946924
-0.008376646
-0.048688613
-0.021673787
-0.061569475
0.012794276
0.009067994
0.017731864
0.07434531
-0.0059702047
0.06903274
-0.036581848
0.06997067
0.093237795
0.026025802
0.050892666
-0.1729546
-0.07568917
0.025681026
-0.010735247
-0.0656005
-0.07746513
0.0007722936
0.08125906
0.038316213
0.022961365
0.024741726
0.09762041
0.008303482
0.07406803
-0.1147205
0.081660084
-0.054127943
0.07131477
-0.005351177
0.004023302
0.0121953925
-0.12694636
-0.028921045
-0.14390579
0.02340642
0.05414905
0.06469076
0.08668132
-0.01795939
-0.0122004915
0.012577979
-0.013773547
0.046847463
0.00094759004
0.035854913
-0.047938555
-0.04406992
-0.3386099
-0.1637172
0.052726865
0.038004603
-0.14524789
-0.024245702
-0.09618516
0.08201576
-0.1312518
-0.11992221
0.037802305
-0.009303091
0.06512931
-0.0069190525
-0.19678259
-0.11092444
-0.1706083
0.040606596
0.061522752
0.029083928
0.09683865
-0.22442491
0.21469688
0.051947586
-0.024473915
0.020312553
0.09963997
-0.1069867
0.07616367
0.08418773
0.058440227
-0.10081375
-0.03116356
0.04365026
-0.00016301173
0.08620754
0.0126766
0.07524678
-0.025450638
0.028727228
0.07397014
-0.10706343
0.0012825108
0.035002798
-0.0694521
-0.1310278
-0.22477545
-0.14769605
-0.10991613
0.040288102
-0.08782737
-0.0374627
0.031678535
-0.032322936
0.0560559
-0.100271545
0.03225045
0.115388416
0.06727164
-0.008762228
0.13100575
0.015966276
0.0096326955
0.06110903
0.102478914
-0.094695255
-0.016660837
-0.09332451
0.015061496
-0.034913473
-0.13756941
0.032254573
-0.018991355
0.0367168
-0.088432126
-0.040924314
0.009640339
-0.0180246
-0.00384184
0.039112467
0.05564853
-0.023359383
0.0659422
-0.100379296
0.057305902
-0.120793685
-0.021211335
-0.05436627
0.01744156
0.009823578
0.0660377
0.06850978
-0.103386946
0.002313503
-0.19423322
-0.049231134
0.011370401
-0.012359631
-0.10461446
-0.011307447
0.029825438
0.018216258
0.0046035135
-0.06723316
-0.10046886
-0.003342028
0.012322404
-0.09819752
0.02675795
-0.12861721
-0.19444968
0.066568434
0.020708105
0.07741498
-0.1647521
-0.06971066
0.0432451
0.007309476
-0.046322823
0.04514313
-0.052021854
-0.18159662
-0.10115167
0.049466353
-0.03368986
0.05470366
0.018216766
0.03855824
0.009626251
0.05288576
0.01615664
0.0361248
0.012557356
0.022443172
-0.095940575
-0.08189549
-0.07983298
0.04911522
-0.082010366
0.003549268
0.0012613883
0.028874576
0.053774983
-0.0042895013
0.06628919
0.088080466
0.033245027
0.027444992
-0.18118654
0.029228775
0.057209324
-0.23180194
0.020353174
0.07140782
-0.0007031904
-0.003506352
-0.028800916
0.18234904
0.010192831
0.04978027
0.010455057
0.033639397
-0.046880946
0.055517893
-0.017805869
0.085206196
-0.24598363
0.0147728985
0.06741664
0.08703722
-0.17034782
-0.053899128
-0.0037573592
0.044492982
-0.08872796
0.008383336
0.108755566
0.03603877
0.082418285
-0.19765945
0.049764607
-0.0039061059
0.036972746
0.04958736
0.038395986
-0.04410143
-0.071580015
0.037941396
-0.042552598
-0.14484517
0.036676332
0.06472185
0.042696457
0.034167554
-0.16099735
-0.047552995
-0.119824335
0.03883189
-0.0052911453
0.027523898
0.028937487
0.07680752
-0.0035891098
0.06837237
0.06355416
-0.09212854
-0.031434182
-0.03112989
0.11986544
0.040136125
0.03514357
0.048436336
0.0011473859
-0.017803546
-0.04731766
-0.06237085
0.018878728
0.02583659
-0.17346515
0.056071885
-0.020955129
0.033832885
0.07957629
0.03320217
0.070448495
-0.1906362
-0.013051386
0.020881686
0.07609488
0.068325944
-0.055340055
0.08735578
-0.03219223
0.05592276
0.0018363912
0.059170526
0.03379239
-0.19532156
0.08662997
-0.04246621
0.040086877
0.04419762
-0.15723538
0.07416118
-0.08699456
0.0146849435
-0.015932184
-0.0039410647
-0.003348474
0.031768307
-0.16308074
-0.122221276
0.025380466
-0.18482128
0.03914758
-0.08838538
-0.04524195
-0.054460138
-0.12588693
0.05862701
-0.051964782
-0.038333595
-0.12682097
0.036954876
0.067852594
0.057908323
0.021542398
-0.12334402
0.052249923
0.0658595
-0.012524125
0.061402656
0.04334161
0.040845733
0.06686072
-0.17462637
-0.08250168
-0.0006308377
-0.18915178
-0.08616743
-0.081811674
-0.0012092744
-0.055619135
-0.067576334
-0.09907485
-0.17023857
-0.13016169
-0.065899275
-0.035722725
0.006687064
0.029564975
0.054565437
-0.11915091
-0.15985954
-0.02321296
0.02854819
-0.014508542
-0.04873029
-0.10261205
-0.0809769
0.02779683
0.0127262
0.032681193
-0.00095953356
0.05130033
-0.03672561
0.08153984
-0.050758608
-0.14180289
-0.037071005
-0.019457364
-0.07248234
0.036232155
-0.16621013
-0.061462007
-0.1204405
-0.11703641
-0.046619315
0.053192616
0.03608645
-0.06977216
0.04169979
-0.022671385
-0.07989582
0.02573481
-0.23417364
-0.024233997
-0.06698607
-0.027065864
-0.036202207
0.025110444
-0.044307232
0.034093928
-0.14588307
-0.004912286
0.11909416
-0.1067488
-0.018095832
0.042102672
-0.0034857672
-0.2334456
-0.01949934
-0.11181295
-0.06364586
0.00029749988
0.043995053
-0.11090356
-0.022409977
-0.18304342
-0.029355386
0.0027396325
-0.13950957
-0.003766951
0.019397743
0.022780357
0.05700723
0.048619445
-0.02657779
-0.1171805
-0.09640269
0.03832533
-0.18850374
-0.14086998
-0.09386945
-0.023260703
-0.20208377
-0.0064409
-0.117911525
-0.10444494
0.00975631
0.0072719227
0.022322051
-0.05830804
0.030678228
-0.08921393
0.013688681
0.06554279
0.069194205
0.045356423
-0.11496323
-0.0032997702
0.028687721
0.0078421505
0.11624265
-0.04251924
0.016451797
0.0054756273
-0.28687268
-0.02302826
-0.022777447
-0.12468372
0.05096151
-0.031060917
-0.046888117
0.071089186
-0.11290708
-0.006387259
-0.10140807
-0.18417838
-0.11342421
0.08533336
-0.050911896
0.0039355294
-0.03226761
0.022830127
-0.07501211
0.028311776
-0.040173013
-0.08344912
-0.028398339
-0.044482507
-0.037666313
-0.086880326
0.031047715
-0.25236225
-0.10960266
-0.06938744
0.049121737
-0.112736225
-0.08914137
-0.05057748
-0.050851196
-0.051276237
-0.20251508
-0.059750713
-0.16738538
-0.025602097
0.008292467
0.0042245523
0.019706454
-0.08396284
-0.08293815
-0.0017623525
-0.2774982
0.08519937
0.015592468
-0.22611234
-0.014179004
-0.02164091
0.005229958
-0.015626848
0.09480451
0.034858976
0.105366684
0.04371547
-0.17161804
0.07992321
0.0025296302
-0.09644791
-0.16972524
0.120565794
0.0054889224
-0.15712517
0.020384334
0.001967966
0.01971187
0.04730426
0.024534315
0.024331737
0.08839649
-0.09825041
0.015678782
0.0084908875
0.013238934
0.052053083
-0.09216694
-0.011691205
-0.1489331
0.026246276
0.0218667
-0.08484551
-0.06337236
-0.003376358
0.07802728
-0.027739063
0.052210636
-0.2485652
-0.035588603
0.004828518
-0.059908584
0.21878578
0.045273874
0.04912891
-0.020771245
-0.13878964
0.020287037
0.041493814
-0.203375
-0.1284819
-0.064830564
-0.037650414
0.110988885
-0.00703049
0.045813575
0.013776944
-0.09959777
0.0020821106
0.0693612
-0.29418352
0.031845443
0.0014768633
0.06855461
0.074675046
-0.109335795
0.05846024
-0.021153374
0.032288283
-0.044986833
0.056699235
-0.1662171
0.008432071
-0.037595864
-0.15222365
-0.058704495
-0.067114994
0.020541063
-0.19966242
0.07240142
0.060397904
-0.102353714
-0.072800376
-0.118657
0.027237078
-0.07837223
0.042021636
-0.10386956
-0.06845454
0.06281076
0.06511911
-0.28414446
0.024321835
-0.12864105
0.06137073
-0.0033949462
0.10776987
-0.12700067
-0.108599566
0.0728022
-0.10830245
0.04664969
-0.010157518
-0.0844384
0.02005172
-0.047286425
0.069523975
-0.15103795
0.045133114
-0.080623545
-0.04457786
-0.12594824
0.055128407
-0.15890041
-0.18787222
-0.10966774
-0.060002316
-0.17441623
-0.00979357
0.0014689533
-0.065101996
0.10472842
-0.072864525
0.025731727
0.05313317
-0.093854904
0.04630176
0.027989961
-0.0106688775
-0.1565685
0.06875389
0.024560863
-0.07814538
0.070365414
-0.07026804
0.110543065
-0.20514016
-0.038656812
-0.15677579
-0.14710261
0.0060148207
-0.12244751
-0.015526647
-0.052684367
-0.05216674
-0.055062275
0.037028078
0.07098056
-0.0874186
-0.19874775
-0.0013440081
0.060842104
-0.10398701
0.02840321
0.06421381
-0.009943514
0.056750115
-0.044477884
0.0077971793
-0.05164419
-0.13541013
-0.039003965
-0.04399528
-0.04665385
-0.009376701
-0.015424992
0.03434474
0.08197374
-0.08320096
-0.16889672
0.079710275
-0.06397121
-0.11980666
-0.09200596
-0.08957951
-0.07926033
0.059594672
-0.0030761117
0.021415522
0.08743155
0.026132548
0.007352748
-0.10103121
0.05660802
-0.0017238085
0.02746499
-0.14811103
-0.38187733
-0.04678456
0.021765586
-0.22181922
0.04457441
0.00667524
-0.18743365
-0.02345996
-0.09428951
0.076161295
0.035637546
0.050767783
0.027108997
0.07082636
-0.05307975
0.07428491
-0.07758402
-0.07784751
-0.06325
0.08331942
-0.05979705
0.02234347
0.05809648
-0.011970228
-0.039194755
0.022756172
-0.045105156
0.07284753
0.038909376
0.23353304
-0.03856407
-0.043203585
0.08275009
0.012146634
0.032082226
0.024585696
-0.034420125
-0.16025501
-0.037392482
0.03667602
0.018969968
0.064478494
-0.026610415
-0.032415427
0.025462424
-0.08678705
-0.008978089
-0.07086305
0.027367625
-0.13221475
0.01969931
0.03414042
-0.22740881
0.07788788
-0.028991707
0.04240677
0.058190886
0.04243541
0.05202436
-0.0026697584
0.028443953
0.045952883
-0.049065497
-0.18305922
0.03940373
0.01186836
0.040988665
-0.010453524
-0.05268079
-0.05728272
-0.06494608
0.051113617
-0.078334674
-0.11130943
-0.021565707
-0.10891728
0.022234121
0.045146003
-0.107619315
0.055147592
0.09288298
0.059201226
-0.18250674
0.03537215
0.05755958
-0.08857322
0.056989975
0.018862253
-0.14910205
-0.05064508
0.07579614
0.00105578
0.0776391
-0.021929424
-0.046222165
-0.09806404
-0.07019001
0.034153476
0.04447487
-0.06099416
-0.07117291
-0.0537292
-0.011578564
-0.02528979
-0.13560085
0.00038320737
-0.2081415
-0.14691216
0.108265504
-0.023699284
0.06457022
-0.15537445
0.03027278
0.023553427
0.030937983
-0.09245867
-0.19820182
-0.078960106
0.015255468
0.0726967
0.050118767
0.056293935
0.08230782
0.071277924
-0.12387814
-0.1816254
0.072806135
-0.032995336
0.116359554
-0.09500856
-0.11117603
-0.002945905
-0.03497613
-0.01745752
-0.10426131
-0.11882294
0.03955602
-0.049451675
0.097161666
0.0036851792
-0.07359715
0.07317418
0.14644758
-0.27012324
0.07703134
0.0026243427
-0.1879608
-0.10357141
-0.098784715
0.08983161
-0.053569596
-0.050171167
0.07462934
0.04050851
0.11263556
0.11809393
0.048667226
-0.017600007
-0.08662626
-0.099041395
0.00093477493
-0.080588825
0.023053577
0.014546108
-0.06489599
-0.13248134
-0.032505624
-0.020526174
-0.13583235
-0.039973397
0.06619859
-0.0027427815
-0.072900854
-0.021257298
0.05541172
0.008145775
-0.009686541
-0.09633753
-0.08731983
-0.16326965
0.071096785
-0.04221087
0.20015398
-0.0243613
-0.15283184
0.0162804
0.03792373
0.04461714
0.073882304
-0.003572309
0.016754348
-0.015619795
0.07405369
0.008780042
-0.13564266
0.04791909
-0.048723508
-0.03264259
-0.049710967
0.024367904
-0.12579083
0.048806895
0.075964086
0.091741815
0.054301478
0.04560898
-0.1640436
-0.115025096
0.058164734
0.031528305
0.042301107
-0.05595998
-0.11182526
-0.14516747
0.10486189
-0.089441136
0.06947157
0.005617364
0.046240173
0.09896474
-0.013955195
0.0778057
-0.23855299
-0.13751729
0.05439065
-0.14991541
-0.015380039
-0.10478003
0.0023800286
0.21927974
0.049512547
-0.10523643
-0.16086787
0.055340216
-0.16517095
-0.02235429
0.059962906
-0.18794781
-0.0015188275
0.005366963
-0.31011918
-0.014092739
-0.36739972
0.030082716
-0.05293197
0.029752018
-0.04705728
-0.024087505
0.052960142
-0.033693347
0.022606378
-0.12845315
0.019884974
0.041086957
-0.21576245
-0.01716249
-0.09993009
0.07075562
-0.17173824
-0.023513101
0.023397585
-0.026531724
0.024698313
-0.10053156
0.084692866
-0.17023447
0.0045964913
0.047234904
0.012650205
-0.19579937
-0.05382915
-0.024860902
-0.12414647
-0.14315817
0.031891637
-0.09032628
-0.042144187
-0.026763337
-0.3210226
-0.13237968
0.0644846
0.002181441
0.06305525
0.022316817
-0.068078846
0.040168006
-0.013559187
-0.002506262
0.005930855
0.042924475
-0.19793275
-0.15821327
0.17479888
-0.14884777
0.031924065
-0.055548523
-0.1085826
-0.19704841
0.046748675
0.023759142
0.03923556
0.06501108
0.0069672605
0.07022412
0.05216028
-0.13505958
-0.052677818
-0.03922117
-0.14942391
-0.020753337
0.039881077
0.0045364387
0.074086204
0.003107729
0.07942239
-0.17845015
-0.13129422
0.0067326287
-0.11013317
-0.068613514
-0.04026999
-0.12019652
-0.20490892
-0.048084043
-0.02857021
-0.14396963
0.023200585
-0.03488269
-0.077696756
-0.12329102
-0.01783087
-0.072345674
-0.1393676
-0.07338154
0.008142791
-0.16993773
0.024196383
-0.060569845
-0.051865984
-0.0407211
0.023993604
-0.09405602
-0.14079626
-0.08769746
0.02078241
-0.045824382
-0.02684766
0.0014668062
-0.09169493
0.12491903
-0.10745829
-0.101748236
-0.015813742
-0.11007678
0.08843365
-0.086121924
0.023904108
-0.052652944
0.057496473
0.0015410812
0.03500094
0.10630011
-0.18580885
0.02689194
-0.034060065
-0.077231355
0.04760996
0.023833178
-0.02923629
0.066935815
0.07232493
-0.096246436
0.017976461
0.017892752
0.04435798
0.043392666
0.03087596
0.049100585
0.069274254
0.12254627
-0.045781698
0.051607627
-0.096864544
-0.17912355
-0.07915953
0.04193364
0.05775803
0.023458421
-0.09380977
0.02895477
-0.11486394
-0.058284145
0.04625689
-0.040668547
-0.14197421
-0.20019785
-0.2991997
-0.00416255
-0.13249907
0.040702853
0.0781173
-0.12426905
-0.12923269
0.14180557
0.13143742
-0.10644133
-0.1503821
-0.20636438
0.05609294
-0.060733806
0.05195417
0.041089717
-0.009808033
0.06388452
0.08837664
-0.29418448
-0.108505055
0.027495096
-0.22591428
-0.19736205
-0.14714608
0.041178778
-0.011905307
0.021932134
0.030986622
-0.20469673
-0.25629896
0.06730008
-0.016563809
-0.0023411445
-0.15082884
0.054753426
-0.10211882
0.06823654
0.03546341
-0.0448592
0.023920903
0.037049945
-0.1439391
0.09934597
0.026100758
0.08304419
-0.07280501
0.026584143
-0.040356625
-0.13288946
-0.08355974
0.051362436
-0.05666486
-0.058383346
-0.0025285375
0.057062156
0.015535509
-0.12662181
0.071598485
-0.1567002
-0.11578207
0.038676295
-0.09616513
0.06288136
0.06315596
-0.006264099
-0.23959802
0.041956317
-0.07549653
-0.09945236
0.019774485
0.041364968
0.019910794
-0.019403534
-0.10205466
0.05344763
-0.035180606
0.020482559
-0.0027626094
0.03719726
-0.06339977
-0.10903703
-0.008927658
-0.050498493
0.039134886
0.11458234
-0.15231965
-0.08742887
-0.07849051
-0.09450464
0.062197804
0.05086014
-0.04952068
0.049486957
-0.0072312783
-0.016099207
-0.13433996
-0.029365351
0.039795365
0.04664986
0.05853369
-0.09342333
0.038031563
-0.01870042
0.070312716
0.021831183
0.017778708
0.041922204
-0.024635479
-0.16739416
-0.021848053
-0.071108766
0.025784468
-0.20478928
-0.029553616
-0.1624262
-0.080557965
-0.046722114
-0.09364153
-0.08705235
0.007909631
0.06901105
-0.0042152386
-0.060944043
0.04005277
-0.0026933062
-0.05476442
-0.07302149
-0.040947642
-0.0668309
-0.10720575
0.029694654
0.054924924
0.06926443
-0.190661
0.020281177
-0.22584872
-0.2164648
0.030269662
0.0010698012
-0.066204004
-0.08321646
0.003777631
0.038645435
-0.036968354
-0.046554457
0.040559858
0.039863255
-0.014609825
0.05214499
0.039313868
-0.096399575
-0.02755485
0.033118214
0.029695101
-0.24229865
0.053404167
-0.0345466
0.006181173
0.009152018
0.027107533
0.031024817
-0.09807244
-0.09119389
-0.08566561
0.054784566
-0.17550525
0.0596897
0.008056115
0.01720185
0.026965786
0.036782894
0.01990098
-0.06675878
-0.1458653
-0.21507941
0.029954905
0.023774646
0.054654993
0.047454767
-0.12326778
-0.00066485204
-0.082589604
0.05572175
-0.055206977
-0.030503983
0.04047329
0.01005914
-0.13311794
-0.0055625695
-0.06805512
0.061852355
0.14610778
-0.0024843689
0.019158594
-0.046397224
0.02286018
-0.11443301
0.0814136
0.071895525
0.02678376
-0.05911543
0.009131584
0.037824295
0.04891765
-0.028212052
-0.0845202
-0.09766281
-0.023432396
0.008339547
-0.046333686
0.059014186
-0.11871216
-0.16954266
0.016135953
-0.0870398
0.050279003
0.04022301
-0.19253445
-0.028518239
0.01046114
-0.05781568
-0.13817973
-0.024089511
0.06512331
-0.008797038
0.024171272
0.0054234993
0.047815267
-0.074173324
0.034669682
-0.14652112
0.064438425
-0.006517502
0.027213754
-0.01470938
-0.049541313
0.044191066
0.0668771
0.04069197
-0.042085096
-0.16542438
0.06194581
0.044906296
-0.20368199
0.011299394
0.057741586
-0.10944528
-0.043318003
0.040914208
0.047343772
0.016570348
0.062048692
-0.1586096
-0.0926454
0.07652223
0.014578533
0.043754105
-0.1424631
-0.023711856
-0.028613364
-0.0049064425
0.052960813
0.037059546
-0.20528094
0.031845603
-0.09586665
0.08309005
-0.025646087
-0.004146213
-0.1511649
-0.0577904
-0.16267988
-0.07379836
0.009910849
-0.029244384
-0.05080308
0.0067392713
-0.04950504
-0.0075598867
0.05564979
-0.082695164
0.011422682
-0.04031646
-0.008407341
0.09598218
-0.017885512
0.048918642
-0.021348802
-0.04861795
-0.21531478
0.03554335
-0.34448808
-0.03752517
-0.09387159
-0.030389858
-0.044431683
0.02350925
-0.10228864
-0.1631908
-0.04102979
-0.026381394
0.08254594
-0.055048533
-0.07686762
-0.13299331
-0.15657286
-0.04016061
-0.18791932
-0.16991308
0.010286363
-0.1141489
-0.08537397
-0.030892203
0.0011474562
-0.046311203
0.08809722
-0.17945246
-0.18377018
0.028730456
0.09801892
0.123858884
-0.055697322
-0.011287604
0.027757922
-0.07503836
-0.015357698
-0.008062097
-0.08947807
-0.06340231
0.067369714
-0.025649
0.012415077
0.07640014
0.031534042
-0.11022465
0.04031497
-0.122343995
-0.15949678
-0.092831455
-0.2835455
0.07057264
-0.15505162
-0.010671231
0.043697905
0.0023753692
0.06813688
-0.08129107
0.024573034
0.017003719
-0.05325491
-0.25661528
-0.22026986
-0.04985615
0.050110262
0.050394583
-0.26330048
0.03789861
-0.08412153
0.04842038
0.09109991
0.04701307
0.09370977
0.012550685
-0.09725022
-0.0011561238
-0.04010333
0.080874994
-0.118124224
-0.034634564
0.07280245
-0.12553619
-0.16666016
0.068031564
-0.06469049
-0.041541364
0.02254765
-0.059280206
-0.17716512
-0.0024749837
0.034095578
-0.020036172
-0.077278174
-0.021961944
-0.31604692
-0.008408665
0.04521019
-0.046931736
0.14290619
-0.19237968
0.09231705
0.026589477
0.016301923
0.050483566
0.051553268
-0.034403235
0.024954034
-0.045631412
0.09412917
-0.17260404
-0.0867059
0.09536228
-0.013801179
-0.11794342
-0.075162254
-0.18311417
-0.015554553
0.042490646
-0.065972336
0.032218292
0.053466838
0.017234217
-0.058652345
0.029929252
0.058597885
0.11148117
-0.06622807
-0.0681304
-0.018836489
0.04082189
-0.15920718
-0.023736587
-0.04567535
0.06861777
-0.08897752
-0.017378366
-0.025267787
-0.074621126
-0.25704992
0.0050742845
0.03577358
-0.093332686
-0.024254268
0.03771179
-0.039205164
-0.12992156
0.0372808
0.10320506
-0.096417464
-0.048274938
-0.07641874
-0.0670692
-0.15989606
-0.17850536
-0.1460237
-0.019261608
-0.21897699
-0.151296
-0.10122716
0.09011609
0.0031144912
0.015144086
0.014394078
-0.05291905
-0.12006899
-0.008828704
-0.2108829
-0.2655222
-0.13467513
-0.009535011
-0.038924754
0.017928438
0.03204804
-0.08491204
0.019097893
0.07189794
-0.011585164
0.068911724
-0.021501675
-0.046976585
-0.201777
0.058151294
0.03708483
-0.20023897
-0.06362683
-0.025218345
0.034273375
0.005648987
-0.13142514
-0.1300399
0.043158125
-0.13015203
-0.047084004
0.044361338
-0.15353289
-0.10997601
-0.19453667
-0.07966558
-0.11857742
-0.0008266332
-0.043531552
-0.027639026
0.08455617
0.0126003735
-0.01135974
-0.14429617
-0.12935147
0.050757788
-0.3239947
0.07734141
0.05309762
-0.17983891
-0.12642826
0.054909848
0.08661831
-0.04860629
0.06803483
0.0748886
-0.033000853
0.015443545
0.0039339485
0.0028229258
-0.2513886
-0.18600304
-0.060540486
-0.02389177
-0.09354436
-0.19244541
-0.0313654
-0.0024815497
-0.134339
0.102674484
0.05381081
-0.107994266
-0.02246224
-0.016052218
0.02212723
0.016866162
0.14010909
-0.14772066
-0.13224798
0.07184447
0.10648907
-0.120740235
-0.09606972
-0.0411285
0.04545201
-0.0015779762
-0.098605536
0.056784306
0.051741652
0.043509975
-0.041839827
-0.05002226
0.006160406
0.06960916
-0.034900296
0.027706807
-0.0633553
0.010857393
-0.0005988089
-0.042332437
-0.005253392
-0.017650597
-0.15861487
0.0066741905
-0.12485318
-0.034708224
-0.11782037
-0.020778606
0.049855303
-0.04907923
0.00692435
0.04959091
0.017433042
-0.11251275
-0.18442874
0.028592251
0.031723633
0.052686706
0.07330833
0.035109036
-0.0016345921
-0.021651583
0.011619179
-0.026311934
-0.13495277
0.07347513
0.16171665
-0.22225733
-0.18764137
-0.08033817
-0.12038229
-0.05686666
0.079769686
0.0856429
-0.040016603
0.031782877
-0.038107183
-0.12797041
-0.055872098
-0.1388651
-0.07495781
0.035989366
0.044691082
0.064572334
-0.004271517
-0.21602108
0.014594364
0.016439185
-0.08010075
0.0049093305
-0.15129611
-0.18396491
-0.2642188
0.19852592
-0.21500267
0.027625443
-0.005742003
0.035869326
-0.058030013
0.06965621
0.07693863
-0.012764394
-0.035862163
-0.031245196
0.03852214
0.09099427
0.07444347
0.06337985
-0.054558326
-0.09764155
-0.10219937
-0.018707616
0.09404321
0.024530176
0.050742112
-0.0005129703
-0.06793072
-0.02630464
0.038400494
0.018959025
-0.18503037
-0.12547283
-0.07416394
-0.175157
0.04147129
-0.018398892
0.07119728
0.011526501
-0.13949236
-0.09111444
0.07072725
-0.12725714
-0.107180916
0.030178996
0.034557592
0.00978045
-0.15373462
0.005226411
0.060595203
-0.036317416
-0.010706525
-0.17404841
0.030855166
-0.2057041
-0.075664155
0.054898195
-0.075866714
0.061296944
-0.03198056
0.02840717
-0.0828529
-0.015881022
-0.07444688
0.025875041
-0.018362537
0.027986366
0.054568112
0.051441472
-0.1460172
0.028272755
0.13752325
0.007903372
-0.056118254
-0.05200663
-0.061280534
0.113742776
-0.077383496
0.17178135
0.027561579
-0.051643733
0.09270303
0.022008326
0.02446599
0.010796117
-0.15375431
0.069006994
0.020702697
-0.22666946
0.033176847
-0.003950226
0.11024413
-0.081924334
0.009187679
0.035077803
-0.13728586
0.009494429
0.043569624
-0.08332951
-0.15616922
-0.04738819
0.013847031
0.053368326
-0.015741635
-0.25464433
0.03425346
-0.06826114
-0.11146312
-0.018488511
-0.04952206
-0.09234842
-0.1439004
-0.13280423
0.07294014
-0.018906707
-0.11023387
-0.120934956
0.06819739
-0.024862777
0.04718378
0.050472748
-0.0989464
0.07875691
0.04782618
-0.10617895
-0.06777856
0.029255014
-0.19306861
-0.053885136
0.03659076
0.045047224
-0.20289883
-0.18413056
-0.05468064
0.02116546
0.015589044
-0.008286759
-0.11829556
0.057812776
0.15454516
-0.105411805
0.011673182
-0.029365502
-0.19310454
0.050387543
0.031862978
-0.30724633
0.05924663
-0.31970882
-0.026673976
0.07820503
-0.07751071
-0.023601366
-0.029055797
-0.15552972
-0.14407997
0.055154856
-0.07440584
0.08108946
0.02962255
0.11242269
-0.1606558
-0.10250452
-0.018353887
0.039751846
-0.1867753
-0.15860447
0.054120403
-0.15128069
-0.110383525
-0.1863295
0.12459544
0.015046748
-0.22933522
-0.06504445
-0.028137831
0.06113797
-0.123914756
-0.15028909
-0.24280156
0.038848937
0.09003955
-0.08173973
0.025983104
0.018560138
-0.07797808
0.0028345897
-0.20566651
0.022470139
-0.091408476
-0.0022735277
0.0074465447
0.034505386
0.022888
0.059515826
-0.122796096
-0.14047994
-0.08360488
0.058408972
0.06354771
0.07372898
0.055760995
-0.28052184
-0.0637225
0.0652204
0.053778946
-0.05725276
0.05864455
0.10548552
-0.15478462
-0.021380296
0.008561986
-0.10132921
0.008368376
0.0531602
-0.07358701
0.06550834
0.011501394
0.031297594
-0.052269686
-0.16110016
0.008905816
-0.034776114
-0.18411638
-0.05997348
0.14969483
0.05241048
0.045995608
-0.05447205
-0.23444381
-0.041394036
-0.09037968
-0.007310472
0.041354224
-0.08809356
0.02726489
-0.12710969
0.15342249
0.035324167
-0.063582376
-0.10798341
-0.16708127
0.024584023
-0.049983554
0.04102251
0.081359476
0.04713418
-0.014203226
0.050140843
-0.10841072
0.017551849
-0.11353821
-0.063435264
-0.0960719
-0.12865421
-0.0436319
0.027550837
-0.009223689
0.041717675
-0.14627117
0.02317889
-0.19236381
0.12479564
-0.012947171
-0.05834685
0.061258152
-0.17592688
-0.08654627
-0.06515399
0.019695949
-0.045015316
0.0028328695
-0.22840276
-0.049658533
-0.047284883
0.09354212
0.012584593
0.08289804
-0.105365455
-0.045987535
0.008503226
-0.1515267
0.061424606
0.070235655
0.071745105
0.027380712
-0.010171195
0.058975775
-0.06049541
-0.012640391
0.040094092
-0.062028665
0.032989394
0.07094742
0.016628902
-0.23126984
-0.12510951
-0.11273652
-0.020994542
-0.078920595
0.0016201051
0.04597802
-0.07431294
0.04013304
-0.009583372
-0.039584324
0.036209606
-0.12516522
-0.1797
0.057427816
-0.02348595
-0.04812149
-0.054122396
-0.18602212
0.0035595514
-0.24702461
-0.06919495
-0.082697615
0.010429113
-0.110279635
0.023610963
-0.05833011
0.035348356
-0.031652737
-0.15371162
0.023439953
-0.1868752
0.028083954
-0.14246988
0.16293989
-0.08865618
-0.09799547
-0.08575737
-0.022527637
0.007810283
-0.017261552
-0.04260304
-0.15396143
-0.053719804
-0.060324475
-0.0007530869
-0.015854033
0.06101297
-0.024425782
-0.114763364
0.024368137
-0.020083316
-0.09069973
0.14156006
0.04799706
-0.099143915
0.0120137725
-0.123853564
-0.06388734
0.0047236616
0.03367602
-0.06552331
0.04152768
-0.0222503
0.048898
-0.12979633
-0.17778818
-0.026427085
-0.0026833785
0.008120127
0.07606255
0.05153475
-0.09112921
-0.012869861
-0.0035046926
0.010090267
0.075531416
0.063757986
0.07771298
-0.089793526
0.0070348284
-0.08870986
-0.07223115
-0.057663124
-0.0062253466
0.033417817
0.037955966
-0.00035214896
-0.05334732
0.003705667
-0.23329596
-0.014389585
-0.11284874
-0.15615594
-0.009725038
0.028754303
-0.120999046
0.0008359176
0.030727074
0.061938033
-0.10798407
0.08001011
-0.16957709
-0.11884291
-0.0324509
-0.15357475
0.044018757
0.016445346
0.01695214
-0.062657215
0.123277426
-0.20728233
0.17203441
-0.066081434
0.049274005
0.029603723
-0.12850252
0.0503061
0.014060887
-0.079736575
0.0023566012
-0.10472902
-0.0068126237
-0.11028389
-0.011904793
0.011296533
0.0730135
0.03990375
0.024548298
-0.076343164
0.043098394
0.049464606
-0.024223454
0.10298203
-0.005595136
-0.08832296
0.0241683
-0.061517518
0.010546736
-0.07005475
-0.009523103
-0.19751494
-0.09202522
0.010728573
-0.04471551
-0.12445507
0.020268993
-0.11886387
-0.12723775
0.022747856
0.08371854
0.019704109
-0.05533023
0.08497376
0.055404603
-0.1740006
0.027364492
0.09220964
-0.023053689
0.026590407
0.034736417
0.15045178
-0.20706265
0.05188882
-0.16561428
-0.069069676
0.037052628
-0.08221526
-0.17158039
0.1142931
0.023076043
0.03744556
-0.061450675
-0.04947896
0.069887675
0.044473514
0.026235653
0.0807891
-0.1339909
0.098513454
0.045691606
0.060631923
-0.027542863
-0.01146766
0.04661085
0.016302314
-0.012999305
0.0006435819
0.041319855
0.19759113
-0.05040386
0.039049502
-0.06880516
0.101602785
-0.05761354
0.03805485
-0.14381468
0.09039141
0.067635894
0.045933764
-0.076465435
-0.10534149
-0.055434782
0.026025714
-0.1977942
-0.27230927
-0.22914214
0.144883
-0.19706549
0.018271826
-0.042971946
-0.16306177
-0.00967773
0.03710241
0.028681394
-0.03859431
0.054843225
-0.21376878
0.080821335
0.05086908
0.031188501
-0.1613017
-0.021794876
-0.019388726
0.032120552
-0.17068927
-0.091365285
0.013866125
-0.2195743
0.05181573
0.07605016
0.013186681
-0.04643575
-0.1445265
0.010052365
-0.13215342
-0.03180915
0.045588143
0.032032482
-0.107971646
-0.10121045
-0.16434155
0.0063714767
0.037572023
-0.05620961
-0.055795416
-0.052535094
0.024003968
0.054321494
0.052802537
-0.15298772
-0.05579588
0.08539505
-0.102976605
-0.09435853
0.035110436
-0.062053885
0.07243833
-0.14254692
-0.09979056
-0.02506291
0.038215157
0.040304042
0.09437926
0.026406098
0.06798908
-0.028365782
0.043798283
0.031582717
-0.096582375
-0.33676094
0.04656957
0.11098539
0.04755545
-0.19031663
-0.100026675
-0.070968695
0.0048923935
0.2737589
-0.02094998
0.026516829
-0.14432427
-0.00041186996
0.039951734
0.04366295
0.03813012
0.035776023
-0.0047718254
0.056192078
0.03663502
0.10254468
-0.16006078
0.013718873
-0.15850322
0.012721221
0.06357663
-0.1558569
0.06538987
0.010800378
0.011669426
-0.012219256
0.05788916
-0.017147455
-0.02528283
-0.09729453
-0.012330494
0.05437952
0.05610485
0.049893353
0.07121426
-0.032244183
0.004928874
0.035046954
-0.11077354
-0.2727794
0.003783754
0.00054508634
0.06413832
-0.074422486
0.0075423536
-0.11166439
-0.16341928
0.0253746
-0.1548958
-0.20839666
-0.019948829
0.047466874
-0.16609335
0.13721544
0.046618022
-0.090777986
-0.0022150837
-0.11221533
0.0136901485
-0.12832199
-0.026880069
0.08121509
-0.09215587
0.04217406
0.0077991113
-0.0016394886
0.027369466
-0.11669491
0.017672986
-0.22538196
0.020761553
-0.059311014
0.054637507
-0.19626157
-0.14410186
-0.2535985
-0.09267399
-0.112220846
-0.033425335
0.03497181
-0.071720466
0.12570123
0.0606348
0.048440654
-0.012312957
0.062610894
0.10440298
-0.035713278
-0.0747065
-0.07966067
0.035493113
-0.029821713
0.0030866347
0.082070105
-0.18233205
0.053417
-0.20014122
0.03804903
0.014394421
0.09098964
0.08142988
-0.09963486
0.03888312
-0.026241126
-0.037292678
0.037458777
-0.053675998
0.04500591
0.03697717
-0.039384145
-0.13672312
0.07808171
0.024713254
-0.05795916
-0.17644304
-0.0054181595
0.031747315
0.036857646
0.019805972
-0.08604721
-0.058958367
0.0024660763
0.020272344
-0.04472551
-0.051264513
0.09989961
-0.27637348
0.01046467
-0.18076523
-0.019699186
-0.030808484
-0.007713094
0.014932484
0.067300074
0.040715728
-0.12095486
0.14939398
0.021486722
-0.1080276
0.08319636
0.018238703
0.03542726
-0.111744575
-0.033175584
0.14044829
-0.06658311
-0.16473174
0.0650757
-0.099943794
-0.07169884
0.020947253
-0.025081465
0.018359091
0.037679184
-0.035258967
0.059809163
0.06222227
0.048227273
0.04944143
-0.1595194
-0.060329292
0.068075195
-0.059871435
-0.27229786
0.036933053
-0.09562928
0.077570856
0.02143476
0.05670169
0.012363762
-0.02521021
-0.18129501
0.017472927
0.100801334
0.018396983
-0.0970902
0.09925101
-0.06229274
-0.02150989
0.07217193
0.023045728
-0.029888999
0.029570619
-0.26723957
-0.016978089
-0.04906035
-0.074054755
-0.03228435
0.056832112
-0.04576645
-0.09900938
-0.055656336
-0.008120989
0.012305233
0.03421287
0.08213214
-0.20781526
-0.024701262
-0.16564427
-0.0828317
0.008642733
0.055610996
-0.13254106
-0.05535604
-0.004094132
-0.0026753624
-0.24147399
0.064169906
-0.0751967
-0.1859733
0.01230716
0.06547327
-0.05087381
0.025026899
-0.11039762
-0.041679543
-0.0037113086
0.03392989
0.08499513
-0.04424951
0.025459228
0.009317565
0.07654417
-0.28437433
0.07157627
0.06936164
0.056044564
-0.103754036
0.04645815
0.010488919
-0.012730165
-0.015137591
-0.084285624
0.019654794
-0.06618384
0.05206804
-0.15734777
0.017662091
-0.20616916
0.07365331
0.06628015
-0.110403664
-0.0030446418
-0.02240124
0.23753938
-0.28402588
0.00225382
0.011217333
0.025272619
-0.2263816
-0.04842264
0.045088377
-0.12060955
0.07137888
-0.10493648
-0.08699329
-0.060304586
-0.012539247
0.042534545
-0.08831492
0.010011354
-0.01550737
-0.12180422
0.09185277
-0.13152267
-0.08382962
0.07807641
-0.09950417
-0.0123069445
0.102110006
0.0594912
0.022350999
0.026333462
0.047720365
-0.015071937
0.06664039
-0.011561397
-0.07360884
0.093481146
0.0623317
-0.08012354
-0.020149361
0.046735905
0.062468953
0.0013085871
0.058700085
0.014076853
-0.05335322
0.11295352
0.022959974
0.02040514
-0.16002262
0.16307086
-0.101487435
-0.06715897
0.04977153
0.10846514
0.046260905
0.050812487
-0.20451613
-0.0036923757
0.08761744
0.0032810536
0.071596466
0.08489404
0.032141306
-0.0014473358
-0.019282166
0.046065178
0.08118057
0.057506766
-0.026797796
-0.16702959
0.041785195
0.04920961
-0.17014466
0.031776782
-0.07117444
-0.079559155
0.03444033
0.02620456
-0.10380884
-0.059430372
-0.04950631
0.1292252
-0.06794673
-0.07061672
0.028764399
0.04969159
-0.006226443
0.14694099
0.0023740998
-0.04919433
-0.08338308
0.05090193
0.04481047
-0.20631343
0.043975078
-0.14515889
-0.09213756
-0.01408265
0.031003287
-0.10601239
0.084784925
-0.042964607
-0.05582801
-0.31166667
0.052245732
-0.03245923
0.060824007
0.105425306
-0.07378073
0.07397441
0.07489331
0.050407764
-0.08226794
-0.17018221
-0.079636544
0.1079705
0.021887891
-0.05513452
-0.12383859
0.06880213
-0.018720554
0.02569905
-0.014550631
-0.009547107
-0.07111712
0.05649009
-0.0015711666
-0.062332377
0.07076103
0.17965639
-0.18923204
-0.017505806
-0.015641429
-0.153378
0.044115238
0.017837616
-0.15610118
0.110300206
-0.076414354
0.09157483
-0.006411261
-0.11835131
-0.0030584277
0.02478795
-0.066548534
0.008359601
-0.016700577
-0.05086374
0.01614844
-0.24391265
0.049288485
0.008728725
0.059084404
0.0042209956
-0.069147855
-0.059829097
-0.13459373
-0.022162147
-0.06271808
0.04992212
0.028339617
-0.030692685
0.01585463
-0.15344863
0.053396095
-0.08800287
0.08104426
0.050428875
-0.032894917
-0.08522215
-0.13897952
0.06790834
0.066985816
-0.064934604
-0.0035451602
-0.31822366
0.03494851
-0.05235152
-0.14198057
-0.08247631
-0.07637331
-0.19480038
0.014518221
-0.0075237895
-0.024534231
-0.009863696
-0.048923157
-0.19995698
-0.012679596
-0.07863283
0.022483554
0.15448704
-0.028207423
0.07977211
-0.11625301
0.023679258
1.6658949e-05
-0.10396975
-0.17629756
0.043414738
-0.057243984
0.0038482978
0.035462994
-0.084362574
-0.054247558
-0.18551487
0.08634186
0.056796733
0.014510283
-0.26045448
-0.07804328
-0.11665866
-0.025785934
0.04293952
0.035820253
0.013597579
0.042671256
-0.21308276
0.060976442
0.030331822
0.0285566
0.0683586
0.0845844
-0.005047066
-0.024313888
-0.16260448
0.06980441
0.05573542
-0.022932036
-0.03772379
-0.10864383
0.0093581965
0.106092125
-0.16436748
0.024442796
-0.1968357
0.06345441
0.060466282
0.015794652
-0.022140665
-0.10388125
0.04554871
0.022496039
-0.20829819
0.016725332
-0.121201895
-0.1366908
0.04425048
0.08311792
-0.0463477
-0.007147789
0.027151782
-0.17059802
-0.21218365
0.010122909
-0.019362498
0.045314815
0.044548173
0.059919424
0.03729583
0.008613974
0.0012897806
-0.038789514
-0.151846
0.0023256133
-0.12592465
-0.045816615
-0.061461408
-0.20933972
-0.04383688
-0.06594265
-0.044904064
-0.0064906245
-0.34731603
-0.08498525
0.04473793
0.034714956
-0.12163474
-0.22766522
-0.058922287
0.025189074
-0.11355269
-0.056286197
0.11450801
-0.047679156
0.032572433
0.04118046
0.0031088707
-0.1271583
-0.05222201
-0.023899054
0.03460105
0.019120144
0.08263184
-0.055568855
0.027940525
-0.07472009
-0.0021474303
-0.19559263
-0.06707479
-0.076028734
0.049383804
-0.043201495
0.03354871
0.03499997
-0.04648223
0.1085315
-0.120912075
-0.1102713
0.019107785
0.041508522
0.07960171
-0.07479308
0.023027202
-0.071029395
-0.027665922
0.018117115
-0.18088788
-0.19327416
-0.02659462
0.008580581
-0.03179733
0.010720072
-0.066197835
0.005049389
-0.00048582474
-0.21714206
0.038181473
0.09719198
0.09469727
0.026022607
-0.08493382
-0.14448072
-0.04084702
-0.0020896464
-0.11501879
-0.10718818
-0.08707096
0.102213435
-0.13440852
-0.008661876
-0.02715446
0.054412313
-0.0023238235
-0.38431877
0.022584673
-0.110463895
0.073321916
-0.08112367
-0.03015418
0.0014449913
-0.08204372
0.012016126
0.03824708
-0.044649146
0.08291832
0.011511263
0.031589385
0.111970365
-0.26893163
0.067145914
0.08179869
0.0794701
-0.045733698
0.038411304
-0.036883034
0.11089557
-0.09971485
-0.14127293
0.012980527
-0.105355844
-0.16179764
-0.23022696
0.001750198
0.042684294
0.0009246631
0.046442773
-0.041320488
0.058658388
0.007069048
0.014114866
-0.090990864
0.035716075
0.040343624
0.05134099
-0.23846899
-0.20236552
-0.22277473
-0.11306833
0.013523432
-0.0041774204
-0.14767271
-0.04340904
0.075420834
0.016407685
-0.21839052
0.059559707
0.017849004
0.07560313
0.047352456
-0.009925252
-0.15613936
-0.027638167
-0.2856751
-0.038053054
-0.15184261
0.044245094
-0.0039836857
0.004097414
-0.047297955
0.05090569
-0.13103043
-0.13250503
0.20202419
0.019083211
-0.020982042
-0.042617314
-0.07110615
-0.047511242
-0.10936892
-0.028321745
-0.14863387
-0.015219294
0.109347045
-0.10756034
-0.02929395
-0.013908985
0.020757115
0.023991564
-0.0141211655
0.041314002
-0.12789372
0.09234572
-0.067702726
0.048230115
-0.071561016
0.06372013
0.0031767301
0.045624726
-0.105739884
-0.028526349
0.03282162
-0.0891993
-0.07804252
-0.2098653
0.048705634
-0.02881711
-0.0034242899
0.06002689
-0.038635857
-0.002376731
0.06942686
0.040210087
0.055202182
0.053876556
-0.016071733
0.053686824
-0.17936009
-0.035851575
0.022346087
-0.05174595
0.09178568
0.00339084
-0.02238877
-0.17166618
-0.021503389
-0.009007693
-0.015174383
0.013348169
0.09326856
-0.23616312
-0.03838356
-0.11501886
0.08048733
0.03863592
-0.037774663
-0.005085351
-0.04650217
-0.006752571
-0.082944624
-0.014468056
-0.08617863
0.022088416
0.07748643
0.015946602
0.05601652
0.08894163
0.043786615
-0.05242545
0.004167717
-0.110077806
-0.17474842
-0.15356708
-0.1285039
0.02988252
-0.14366463
-0.19747487
-0.123036526
0.0725301
-0.20457242
-0.082444325
-0.13066597
-0.24628155
-0.022426564
-0.020320399
0.046543352
0.05308202
-0.040355645
0.03963575
-0.0666745
-0.043466203
-0.077104814
0.04371321
0.08396599
-0.12428764
0.016345344
-0.07759209
0.010861674
0.07987148
0.14499189
-0.02341241
0.041504383
0.027665434
-0.05796376
0.01395443
-0.11546671
-0.13898425
0.036693737
0.07653654
0.003118248
0.074930586
0.07484552
-0.0018090829
-0.08413327
0.0043278597
-0.062220123
0.04154395
0.064919345
0.036476187
0.12346737
0.014320242
0.028723992
0.02455174
0.031587735
0.11660138
-0.0012461857
-0.05738237
0.045912135
-0.11797131
-0.09375994
0.01365248
-0.04772575
0.011495003
-0.021588955
0.051611703
0.031331994
-0.008065537
0.05980716
-0.015629487
0.051235273
-0.01963583
-0.14008686
0.054391365
0.06954973
0.01707722
0.05493704
-0.0080992365
0.08433937
0.0012609571
0.13029715
0.012607297
-0.06914422
-0.10117567
-0.09632602
0.15893346
0.05476812
0.02773971
-0.027225234
-0.07046794
0.05100836
0.1900367
0.05725857
-0.07290812
-0.12409821
0.053510636
-0.07205041
-0.1823019
-0.1722759
-0.16083024
-0.0043651205
0.029790603
-0.17452995
-0.07962606
-0.07199313
-0.10000127
-0.07752119
-0.06497987
0.03739867
0.06777396
-0.04674514
-0.17156039
0.026042562
0.03499962
0.054084565
0.05013387
-0.07102418
-0.20439999
-0.1493869
0.017736062
-0.14378713
-0.034558244
0.027388917
-0.00937196
-0.06166326
0.0028411872
-0.081388615
0.05822823
0.008888272
-0.0029847594
-0.17206083
0.04688791
0.022217104
-0.070337534
0.06415866
-0.033093434
-0.18942122
0.10682709
-0.084872864
-0.049211342
0.03263545
-0.2080302
0.028014021
-0.08513815
0.00058406
-0.027947234
0.063106574
0.05987156
-0.09649914
0.02469203
-0.038843684
0.03379033
-0.10325022
-0.094119295
-0.123498924
0.048820492
0.021161294
0.06633412
-0.052910473
0.049167216
0.051070392
-0.03866012
-0.24471186
0.0025926705
-0.04479013
0.0874703
0.07086705
0.060650505
-0.0582085
-0.057800718
0.016751794
-0.10803948
-0.10644655
-0.002577074
0.03631221
-0.03583463
0.04642429
-0.023001859
-0.10741735
-0.12420199
0.072270975
-0.08976542
0.012427867
0.27428758
-0.080083296
0.04761219
0.044051368
-0.10299335
0.00712299
0.01593927
-0.11841761
0.056418266
0.06405558
-0.015630519
0.03608761
0.06070541
-0.039518524
-0.09932727
-0.15011993
-0.09219077
-0.08499219
-0.054598823
0.09991938
-0.040203877
0.028351251
0.034503322
0.0054462007
-0.07119881
0.1063873
0.025569681
0.11815691
-0.014280815
0.0036581696
-0.0632964
-0.115460716
-0.023057511
0.07674475
-0.002784175
0.07167888
0.0042522573
-0.038297296
0.09694682
-0.0035356958
-0.10342967
0.034344725
0.001488113
0.052911524
0.075927064
0.047835324
0.03364865
-0.04211271
0.014726352
0.0075163348
0.025060194
0.034321796
-0.055787176
0.05528818
0.0510811
0.016981997
-0.007310418
-0.2715942
-0.04689337
0.043854788
0.06373082
0.052659374
0.03448761
0.059663083
0.07140781
0.00857721
-0.045338046
-0.31651875
-0.06332668
-0.21623464
-0.14773367
-0.084045626
-0.011419793
-0.07874849
0.009692502
0.012364164
0.008346665
-0.085065894
-0.02285755
0.06596424
0.05500102
0.04408696
0.13192827
-0.071990564
0.033259425
0.06389947
0.0013592582
-0.05059349
-0.32862145
0.047550302
0.038453892
0.028855735
0.02790969
0.025635775
0.036928203
-0.22864585
0.045352902
0.0633105
-0.12356741
-0.049074307
-0.07150545
0.035247512
0.011809225
0.026247252
0.033194777
0.046797976
-0.2473625
0.019882208
0.059839197
0.040240347
-0.025702816
-0.07373779
0.007781136
-0.13471057
0.035352882
-0.07510265
0.0353412
0.06433807
-0.06300853
-0.05507724
0.0012365351
0.049795642
-0.059896152
-0.025929779
-0.14261879
-0.023793682
0.037848964
0.02364904
0.07562724
0.021828588
-0.34890693
-0.10227146
0.038209006
0.035893496
0.107636906
0.08951496
-0.099770635
0.08908064
-0.03302271
-0.0396058
-0.08335895
0.016551638
0.043207675
0.04877856
-0.0056850626
0.00059681013
-0.20731619
0.0030331865
-0.02422484
0.04349933
0.042037994
-0.17750306
-0.04248715
-0.20246467
0.008130443
0.01220853
-0.10107971
0.016119692
-0.09680236
-0.03050241
-0.09707686
-0.23204808
0.12525472
0.06126952
0.02828049
0.048735436
-0.1892485
0.031919423
0.038432773
0.05807031
0.026474986
0.008957783
0.09735099
-0.087100625
0.032350395
-0.052812822
-0.030547967
0.008813767
0.009931791
0.03471347
0.0142848445
-0.12988415
0.028704567
-0.08977632
-0.084609784
-0.07803422
-0.11324563
0.011479112
-0.01378811
-0.016258303
-0.062344458
0.0544301
-0.1552637
-0.101207465
0.06058381
0.07907134
-0.12025144
-0.17950796
-0.021545941
0.067477964
-0.022831377
-0.0831025
-0.037642155
-0.031940803
0.047709696
0.012001566
0.07751292
-0.08189907
0.06539243
0.06437933
0.025560798
0.022406312
0.0437282
-0.090665445
-0.01376471
0.03212598
0.014649545
0.051913697
0.07002448
0.070352755
0.035111498
