0
-0.045642696
-0.029164312
-0.06464279
-0.008871505
-0.0529045
-0.00986476
-0.06899055
-0.14261572
-0.04510338
0.02190467
0.025685295
-0.019019285
-0.050048843
-0.0395255
-0.040612083
0.032416094
-0.03447185
-0.034894906
0.031811047
-0.009537406
0.045657262
-0.006058251
0.050158292
-0.024451748
-0.028259793
-0.0468074
-0.024352001
-0.016447533
-0.057777
-0.011163874
0.06657153
0.0099961655
0.015837748
-0.015274552
-0.07468105
-0.0526837
-0.07494228
-0.05664186
-0.043137655
-0.048961505
0.045543395
-0.15786129
-0.004182798
-0.008252023
-0.033149697
-0.053730052
0.025621885
-0.09647018
-0.021169938
-0.083135694
-0.05560741
0.0057692504
0.038290005
-0.08027832
-0.051109847
-0.023293283
-0.07321835
-0.07315728
-0.0075076576
0.04789557
-0.021738024
-0.059484575
0.04432593
-0.0714296
-0.0029642642
-0.036140665
-0.036127657
-0.036382843
-0.04081444
-0.08532036
-0.07947503
-0.023629207
0.024102995
-0.09856786
-0.086930655
-0.09485897
-0.059035845
-0.026292605
0.006185356
0.02557635
-0.09353643
-0.053854544
-0.027645834
-0.035048805
-0.029417286
-0.011138169
0.038952548
-0.071287446
0.03245911
0.0038694434
-0.026098454
-0.017529525
-0.031840872
-0.088889204
-0.037333123
0.012539871
-0.06043909
0.020059789
-0.028502952
0.0008881058
-0.00693954
-0.04589934
0.005606448
-0.0076791183
-0.037763573
-0.025382424
-0.025442857
-0.04427168
-0.034335513
-0.06109135
-0.018845204
0.015101381
0.029447444
0.010506942
-0.068145104
-0.014417756
-0.020342004
-0.03943029
-0.046067126
-0.024882399
-0.035209566
-0.0064307274
-0.036451943
-0.05652004
-0.004832473
-0.07882815
-0.0558771
0.017309241
0.014283323
-0.034992494
-0.021840433
-0.033716366
-0.07400825
-0.051318042
0.011454322
-0.10142308
-0.20411865
-0.024170201
-0.044695836
-0.042982284
-0.093337245
-0.097448364
0.014220039
0.026265522
-0.09057646
-0.017749937
-0.038283944
-0.028650621
-0.003237341
-0.03950782
-0.012377756
-0.0075703394
-0.05220829
-0.041145273
0.09120574
-0.037971992
-0.007366407
0.010684213
-0.06230369
0.0135706505
-0.021076877
-0.04232951
-0.12257381
0.06460537
-0.010287778
-0.03584286
0.02518952
-0.10358315
-0.010296141
-0.030908342
-0.015669154
-0.070662275
0.054320894
-0.024860013
-0.016454237
-0.062170614
0.023492033
-0.029077461
-0.020157102
-0.046606854
0.0020767644
-0.052499257
0.024277681
-0.034447346
-0.13519959
-0.039265648
-0.028188804
-0.018134374
-0.008401746
-0.06009006
-0.016620662
-0.0019156788
-0.05899264
0.009944803
-0.0762804
0.040388986
-0.034775857
-0.016616756
-0.030128393
-0.03274798
-0.02249952
-0.05326197
0.05989101
-0.013388103
-0.03466564
0.026684223
0.0115808565
-0.026187725
-0.03191586
-0.053080205
0.051738456
-0.04818854
-0.060439784
-0.029162943
-0.025222976
-0.045385044
-8.359009e-05
-0.014191947
-0.012691266
-0.02341257
-0.03807105
-0.020670816
0.017310848
0.006120207
-0.004060507
-0.031261604
0.024189508
0.012739307
-0.02213843
-0.03536283
-0.06149547
-0.024734652
-0.056808256
0.0022403968
-0.021011695
-0.03705511
-0.023959056
-0.02149617
-0.017333565
-0.0017445756
-0.0526873
-0.023520786
-0.14792988
-0.01817908
-0.04594499
-0.037288096
0.021369688
-0.007722384
0.0047110505
-0.027140573
-0.037848786
0.0546472
-0.019525336
-0.003805849
-0.019231347
0.0026357623
-0.02564711
0.13296159
-0.02571334
-0.025562907
-0.08838645
0.02235095
-0.09098393
-0.04408516
-0.038714115
-0.02721031
-0.060149297
-0.08816996
-0.07754343
-0.06400062
0.07046891
-0.058897603
-0.051065788
0.0046424503
0.012428472
-0.16526234
-0.023078814
-0.11049877
-0.06853957
-0.0014143218
0.05055827
-0.027337898
-0.011929666
-0.097449556
-0.018106617
-0.07327772
0.005610724
-0.032406606
-0.014715797
-0.05771062
-0.04826502
-0.036909506
0.036439747
-0.1328464
-0.043445583
-0.04611601
0.034888078
-0.047001246
0.017120427
-0.042036112
-0.059582703
0.049181644
-0.12533262
-0.07736422
-0.041833155
-0.058319543
-0.0031793904
0.016937273
-0.07165926
0.070004284
0.039848957
-0.026213646
-0.079484485
0.06383005
-0.0029122727
-0.012539168
0.059729528
-0.024945224
-0.061557405
-0.020032866
0.040985115
-0.12191216
0.029573753
-0.007614995
-0.04020206
0.02221948
-0.027783457
-0.04922758
-0.01714557
-0.0050601433
-0.03852857
0.02725301
-0.050935835
-0.060937
-0.018996788
-0.04593255
0.025000807
-0.040041983
-0.088494346
-0.015005236
0.026773011
-0.044281136
-0.023098182
-0.052839454
-0.022862475
-0.06829981
-0.04097955
-0.020983394
0.06376499
-0.043286435
-0.004931652
-0.046639662
-0.057490364
-0.04380272
-0.015980205
-0.12411107
-0.011733273
-0.08010875
-0.04596404
-0.004264979
0.008988602
-0.051934287
-0.036802568
-0.12616825
-0.019158533
-0.006992532
0.0229362
0.025081763
-0.052277297
-0.061916802
-0.07750817
-0.056973644
-0.029334012
-0.07081155
-0.032542598
-0.043059483
-0.048272554
-0.0632666
0.008835646
-0.01315045
-0.06382616
-0.015293258
0.02940243
0.006681133
0.022144346
0.027206512
-0.039397594
-0.01665037
-0.03619031
-0.015429748
-0.030230477
-0.026569752
0.010596526
-0.04029214
-0.047426347
-4.833475e-05
-0.058272734
-0.061073847
-0.06265391
0.028293513
-0.050818503
-0.06773793
0.014514492
-0.070858665
0.024531785
-0.046384335
-0.03029172
-0.045867004
-0.0061846743
0.005633033
0.054295596
0.10705209
-0.049046192
0.005171285
-0.021731032
-0.05431507
0.031452827
-0.01809541
0.003406145
-0.10976996
0.07617095
-0.15319453
-0.05189541
-0.05563413
-0.036713183
-0.11063098
-0.0210055
-0.02054286
-0.015035459
0.011738173
-0.047465734
-0.036188718
0.034667995
0.017266555
0.054175433
-0.03532677
-0.060444694
-0.114121005
-0.018373987
-0.019311378
-0.09457411
-0.04243528
0.0045694243
0.013436664
-0.14051019
-0.05702497
-0.009741884
-0.074518844
-0.037085526
-0.00045053795
-0.017793221
0.024736727
-0.019219238
0.01970944
0.0033453298
-0.08081609
-0.054149635
-0.097772524
0.03900756
-0.02730347
-0.041004684
-0.12428365
0.037323784
-0.0736823
0.06515229
0.031006116
0.0040289196
0.021041257
-0.040679995
-0.069649786
-0.014258978
-0.11108829
-0.08001134
-0.02655029
-0.08207709
0.012844424
-0.012918155
0.014453842
0.008590544
-0.05720554
-0.010618455
-0.0061937687
-0.015889656
-0.03459657
0.025187304
-0.05072764
0.07632453
-0.0853404
0.018427674
0.023911834
-0.049027197
0.058969583
0.018644374
-0.05420288
-0.006153758
-0.05687382
-0.025224341
-0.021490132
-0.021566791
-0.0644905
0.0002927312
-0.04953105
-0.0048702625
-0.028778084
-0.016960366
-0.03505666
-0.03255689
-0.009170077
-0.04502355
0.032414835
0.060852468
-0.057456348
-0.07075109
0.05698514
0.024744727
-0.028514015
0.028978158
-0.073431246
-0.05700127
0.031212168
-0.18696508
-0.013938967
-0.018606937
-0.034377497
-0.01389903
-0.023608932
-0.034737974
-0.03607522
-0.024994204
0.004677349
-0.034234293
-0.04816294
-0.03779487
-0.114553
-0.014757669
-0.031863265
-0.044155717
0.023579909
0.003272332
0.013982435
-0.006402899
0.04934969
0.026555514
-0.050109044
0.09366573
-0.08760974
-0.067366466
0.044191565
0.018090773
-0.02792423
-0.03200111
0.07302058
-0.052543707
-0.0508479
-0.036412865
0.042251382
-0.03379731
-0.037674036
-0.027348755
-0.017795594
0.0069522713
-0.06489531
0.0015682506
-0.068645634
-0.06708789
-0.0046881917
0.010092638
0.003496858
-0.02274414
-0.07965652
-0.07828602
-0.03114836
-0.04381989
-0.017490406
0.019233765
-0.09909985
-0.029409934
-0.040801965
-0.011837548
0.016005918
-0.0045529166
0.0187384
-0.051295105
-0.09811359
-0.032881986
-0.024579579
-0.031099342
-0.032525904
0.05278462
-0.070800155
0.021386009
-0.0039104596
-0.05456635
-0.0225222
-0.055355567
0.06266392
-0.04058326
0.019196544
-0.051520053
-0.014032751
-0.074031726
0.012062784
0.04415264
-0.04940063
-0.028297892
-0.041049324
0.04292965
-0.033029687
0.03020455
0.016466714
-0.00814623
-0.05309135
-0.002206854
-0.037174493
-0.032080624
-0.100767635
-0.069431424
0.015401488
-0.11287486
-0.03884368
-0.0068828952
-0.027247516
-0.029291498
0.0918605
-0.04527556
0.031059537
-0.042330746
-0.08546587
0.0024858925
0.015403323
-0.075178996
-0.08486232
-0.039169066
-0.048614517
-0.026501395
0.02440911
0.0727926
0.04714038
-0.00043366817
-0.00732827
-0.015218355
0.004773948
-0.17215177
-0.0207035
-0.015508844
-0.058817066
-0.003245828
0.05122667
0.042143416
-0.09732561
-0.077532604
-0.0040970417
0.029686831
-0.056974117
0.010690526
0.018256875
0.061354116
0.00085222966
-0.061674554
-0.016885415
-0.039796855
-0.017631585
-0.04356743
-0.041437473
-0.019929944
-0.0039385296
-0.054679494
-0.029831659
-0.057095762
0.0404334
0.030851567
-0.039717834
-0.046716187
-0.10526629
-0.037880883
-0.07601994
-0.042951576
-0.098786175
-0.03533515
-0.045065247
0.0033729451
-0.067204066
0.05442462
0.026101332
0.031333003
0.052879006
-0.06034875
-0.053037606
-0.040742625
0.044152673
-0.035155263
0.0048553552
-0.011965843
-0.07392337
-0.03043965
-0.021832814
-0.14163657
-0.014143104
0.026932541
-0.017024927
-0.019181203
-0.04355086
-0.09057394
0.03984182
0.06179617
0.0140825715
0.039889663
-0.090417325
0.07200467
-0.04083858
-0.04600032
-0.00802614
-0.055701666
-0.11367985
-0.07670475
-0.0006490605
-0.007901114
-0.028269479
-0.025579458
-0.055934705
0.009968959
0.017187322
-0.06889836
-0.024559282
0.03728419
-0.00023333711
0.09118437
-0.00961556
-0.06450831
-0.05638422
-0.012062952
-0.019870723
-0.029716536
-0.041404616
-0.04346744
-0.010781832
-0.0077062086
-0.034568023
0.021618567
0.03775956
-0.041309506
0.0033826865
-0.055001445
-0.03808502
0.04387093
0.010096883
-0.025282675
-0.019858928
-0.015365883
0.014808786
-0.011212598
0.006136088
-0.037785888
-0.07405622
-0.031981755
-0.054018177
-0.037510626
-0.025968181
-0.016261607
-0.08942642
-0.059762552
-0.04221069
-0.001003942
-0.024384586
-0.03307037
-0.12168019
-0.085635476
0.004862309
0.0029709206
0.03773967
-0.04272441
-0.042164065
-0.03174917
-0.03614154
-0.014522415
0.0749747
-0.02345804
-0.025642157
-0.022767825
-0.043785084
-0.031189647
-0.062070698
-0.033915214
0.022649722
-0.0818484
-0.02696218
-0.028328035
-0.031449288
-0.017678123
-0.061421677
0.041801628
-0.012878448
-0.039341245
-0.09336552
-0.014341355
-0.027189575
0.00941768
-0.045630883
-0.17613369
-0.06368843
-0.06986225
0.020655457
-0.060647577
0.0071632564
-0.0808971
0.047436666
-0.03569288
0.026817193
0.03786599
-0.080147974
-0.048545446
-0.09173459
-0.019645058
-0.04024034
0.03862421
-0.043845065
-0.035477284
0.01387262
0.025636487
-0.07054619
-0.0743818
0.03840575
-0.034504987
0.039634544
0.004550151
-0.0056868875
-0.04328239
-0.028947107
-0.0226181
0.0052476097
0.014208242
0.07106306
-0.017603602
0.009848743
-0.094206244
-0.033883665
-0.06838285
-0.012991874
-0.0335428
-0.077744566
-0.06607964
-0.09332684
-0.040267788
-0.00992697
-0.01871027
-0.012175563
-0.08246782
-0.023409413
-0.008011433
-0.038525827
-0.009186158
-0.04076876
0.012669471
0.02414465
-0.0224478
-0.045178007
-0.019469626
-0.016123047
-0.06592648
-0.12358008
-0.064203255
0.021100255
-0.02223306
-0.038671665
-0.0708704
-0.081030466
-0.06521713
-0.060701963
-0.019843623
-0.06536387
0.034892652
-0.00697827
-0.029692052
0.07701786
-0.026679836
-0.007892602
0.023771297
-0.05745684
-0.046860486
-0.01707952
-0.01079172
-0.059003256
-0.065149374
-0.05436897
-0.038712893
-0.039685242
-0.02302131
0.1276401
0.05062574
-0.06871784
-0.02638563
-0.018324494
-0.018841699
0.015489653
-0.087780364
0.01925436
0.014361294
0.027664425
-0.026114024
0.014767527
-0.029041033
-0.021838745
-0.0054550525
-0.066621415
0.0157093
0.021416578
-0.051528867
0.07055135
-0.08282987
-0.015960531
-0.058869988
-0.04286384
-0.081326954
0.03226937
-0.024158042
-0.04685032
-0.01039534
0.0013016061
-0.005458442
-0.043324832
-0.056645773
-0.010080051
-0.04697829
-0.03070037
0.007246594
-0.006262414
0.013592331
0.0405369
0.009503126
-0.013626154
-0.020595107
0.042096376
0.021974381
-0.023519387
0.010577965
-0.04580101
0.049408812
-0.03675308
0.001659669
-0.02365308
0.00313661
-0.10034995
-0.043927327
-0.07224566
0.014731485
0.08013159
0.0061033936
-0.017024467
-0.053239223
-0.0519456
0.030164583
-0.018565778
-0.007515257
-0.057063065
0.008294203
-0.04621225
0.022747673
0.16752374
-0.046147406
0.048765767
-0.029114654
-0.025258807
-0.054891806
-0.03894516
-0.023167307
0.042683702
-0.02467585
-0.058491327
0.02679343
-0.005607634
-0.021535382
-0.034134477
-0.029581726
-0.036202513
-0.023768766
-0.050495893
-0.0295144
0.022905648
-0.038732626
-0.008705562
-0.064119555
-0.029067872
-0.010122204
0.044505604
-0.06295801
-0.01308393
-0.031062828
0.00835669
-0.038137548
0.10878192
-0.079842865
-0.033807483
0.0435642
-0.021980662
-0.051707387
-0.074355505
-0.0502387
-0.0039178454
-0.046421114
-0.03912015
