0
-0.046549328
0.0066277315
-0.21808605
-0.09724469
-0.016153134
0.19227462
-0.047373306
-0.12726259
-0.16998485
0.14383884
-0.10051709
-0.022225989
-0.077594005
-0.13561673
-0.09425182
-0.06341708
-0.16387226
-0.1431662
-0.13448638
-0.17907679
-0.1474944
-0.15146239
0.027913865
0.12838705
-0.07766594
-0.15162857
-0.04187263
-0.015139423
0.04286805
0.15289855
-0.059720147
-0.029843979
-0.11151902
-0.0851452
-0.2102163
-0.039083857
0.06960586
-0.089624524
-0.0150046535
-0.067304164
-0.10403589
0.080044165
-0.0016532274
-0.1375571
-0.05233045
-0.044145763
0.034111034
-0.037432652
0.059030253
0.015555891
-0.13362287
0.117224894
-0.08995493
-0.1200426
-0.0507986
-0.042829737
-0.018095525
-0.1721013
-0.102835335
-0.02821686
-0.004386167
-0.019208703
-0.07919843
-0.02203749
-0.11569819
-0.108589865
-0.14081563
-0.14432915
-0.15758884
0.10798072
-0.15755866
0.12795703
-0.03922541
0.005188136
0.06671548
-0.09105531
-0.06504909
-0.03290836
-0.06007954
0.06124869
0.12592284
-0.015477466
-0.16785584
-0.14795664
0.010184249
-0.08427345
-0.073388346
-0.018964015
-0.006499436
-0.14661987
-0.039261434
-0.069749326
-0.16514198
-0.019852396
0.11064914
-0.06307701
0.012839334
0.08056909
-0.099773474
-0.06659768
-0.1434737
-0.11878112
-0.04008936
-0.07358828
-0.17425874
-0.046369184
-0.058382772
0.051382627
-0.024610497
0.07257108
-0.09826478
-0.05229524
0.013043304
0.01996553
-0.07755905
-0.059213687
0.055440836
-0.12802719
-0.069405355
-0.11738035
-0.11868718
-0.116323225
-0.048151556
-0.12591188
0.09482985
-0.04140891
-0.09011384
-0.1690461
-0.0939544
-0.0020826801
0.19328694
-0.0749012
0.18817799
-0.027072994
-0.058046732
0.25514278
-0.035973053
-0.18900612
0.04785097
0.00087486475
0.12895875
0.045570333
0.16907525
0.001851588
-0.10483658
-0.084988095
-0.039690983
-0.045458198
0.08037645
-0.12870328
-0.07955546
0.019115912
-0.01931052
-0.060939793
-0.1509739
-0.13550279
-0.05232971
-0.017361613
-0.024716742
-0.07816147
0.053241644
0.10540135
-0.16620502
-0.055834252
-0.10481643
-0.10737309
-0.13753575
-0.086082995
-0.16406639
-0.06632795
-0.12134673
-0.14100285
-0.15024577
-0.094844125
-0.14467154
-0.18235444
0.14411184
0.11258127
-0.081258416
0.0017549709
-0.1098727
-0.07319575
0.10225634
-0.021312127
-0.08716782
-0.08690432
0.15457205
0.026928572
0.1116222
-0.08880112
-0.09752788
-0.07755842
-0.12949121
-0.04202343
0.036883693
-0.20832007
-0.003959866
-0.04809597
-0.08179776
-0.11331831
0.110381156
-0.037508104
0.020235993
-0.008355226
0.03395288
0.05261651
-0.056736283
0.011445064
-0.08402784
-0.084763005
-0.12558231
-0.013223981
-0.13170548
-0.09692262
-0.08995547
-0.08089662
-0.14767762
-0.06285089
-0.05444782
-0.1868472
0.047553994
-0.10287374
-0.051278636
0.03466057
0.0085286265
0.14587952
-0.032178096
0.018843424
-0.09047304
-0.061871372
-0.030948844
-0.009619845
0.06583497
-0.090398714
0.19163236
-0.09236786
-0.096000075
-0.12078746
-0.0810418
-0.016174503
0.13168281
0.000106913634
-0.02192392
-0.052250735
0.006217751
-0.1716951
-0.08633786
0.01546153
-0.19582482
-0.12788469
0.010486812
-0.05454255
0.04500383
-0.04811429
-0.08146398
-0.07282087
-0.08119936
-0.030844336
-0.057303414
-0.06845153
0.027513899
-0.14542696
0.026670313
-0.10641893
-0.014807144
0.094248384
-0.042296533
-0.124193534
-0.013189687
0.07475797
-0.043768834
-0.029837178
-0.05468098
-0.08085195
0.024776699
-0.087856695
-0.038036037
-0.07275641
-0.055329055
-0.04612715
-0.1905254
-0.21710992
-0.035310593
-0.047300056
-0.11556125
-0.118588276
-0.049795218
-0.13948534
0.041102316
-0.15076928
-0.14620495
0.052936595
0.17822503
-0.16753192
-0.11207888
-0.066732965
0.053623464
-0.14095016
-0.1414331
-0.18773226
-0.11917137
0.0876717
-0.008118436
0.24456653
-0.017804656
-0.029384581
-0.03955375
-0.13254236
0.011466292
-0.11420476
-0.06948839
-0.11405746
0.007467199
0.036198772
0.12504941
-0.00074401556
0.138176
0.014917243
-0.07857534
0.08224093
0.10867123
-0.13916743
-0.05282414
0.1689905
-0.018694645
-0.08892726
0.08009978
-0.08086357
-0.0674619
-0.10055024
0.0017561754
-0.09528831
-0.06676754
-0.153181
-0.076793835
0.06146916
-0.053065024
-0.10982471
-0.034022603
-0.09267172
-0.05084407
-0.014228968
0.13036175
-0.04133929
-0.14122632
0.14507961
-0.057183642
-0.122572474
-0.019946383
0.045194265
-0.14296234
0.15110809
-0.011453601
-0.10420513
-0.13880624
-0.14270419
-0.13694628
-0.075696856
-0.038467843
-0.1103827
-0.113716535
-0.12194555
-0.03357404
-0.048164234
0.12083975
-0.028966993
-0.043271102
0.04829386
-0.0033397905
-0.039042156
-0.01831307
0.1665832
-0.11478021
-0.008039257
-0.13624884
-0.1124486
-0.21869798
-0.04986801
0.008529871
-0.13749048
0.06116248
-0.044979125
-0.10805082
-0.10123163
0.111858465
0.041608185
-0.13010849
-0.07644651
0.0039119385
-0.11326302
-0.08404882
-0.03267787
-0.13354771
-0.11328934
0.11900027
-0.012554567
-0.2552044
0.08823663
-0.13164261
-0.038568653
-0.097096525
-0.12183901
0.0035287212
0.09559383
-0.04003873
-0.06783085
-0.09370648
-0.10501056
-0.08637135
-0.023660444
-0.032396507
-0.06461753
0.06819019
-0.05649316
0.01628928
0.026498586
0.14206584
-0.18346488
0.07560282
-0.081441656
0.008257288
-0.093996145
-0.1496663
0.0289705
0.028475476
-0.0061441045
-0.08560681
-0.055092454
-0.04426155
-0.07067981
0.023421802
-0.027140865
-0.0071249306
-0.13636392
0.19081594
-0.04310191
-0.12023991
-0.07887936
-0.05669927
0.05666046
-0.05290739
-0.012248441
0.13082996
-0.17000048
0.02840533
-0.17361155
-0.02397213
-0.10010283
-0.1016411
-0.1003133
0.0987426
-0.21950871
-0.104760826
-0.11512134
0.16538805
-0.15024082
-0.05588752
-0.021538666
-0.12632807
0.1026034
-0.02317717
-0.08712537
0.020381326
-0.13056348
-0.048155785
0.031132702
0.2055683
-0.025478994
0.11432805
-0.05114569
-0.1768948
-0.097156025
-0.13828218
-0.065047175
-0.13119528
0.08947866
0.117305964
0.041436486
-0.029782299
0.06620895
-0.0949583
-0.1608798
0.12536515
-0.089917056
0.1428144
-0.066003434
-0.021304606
-0.11332337
-0.11882065
0.02976161
-0.15240571
-0.041075762
-0.23536079
0.13075015
0.13601252
-0.15953931
-0.10437061
0.19282332
-0.0951596
-0.037285935
-0.11268445
0.034605063
0.032471307
0.025840623
-0.019030478
-0.095693804
-0.099927485
0.12124179
0.13832568
0.036597095
-0.07869058
-0.047165725
-0.15947467
-0.020759903
-0.048151497
-0.16665418
-0.14425123
0.10218761
-0.02584258
0.017167723
0.18059477
-0.07858128
-0.11838482
-0.062878974
-0.1361785
-0.12708749
-0.15025905
-0.19637255
0.08670965
-0.111767486
-0.08702075
-0.14513843
-0.0109103285
-0.09922079
-0.039336834
-0.086153984
-0.09579292
0.0074734865
-0.06094478
-0.0393122
-0.085653275
-0.07046516
-0.07375125
-0.049033195
-0.15476534
-0.019339222
-0.14374402
-0.015725955
-0.1372599
0.14378448
-0.14078547
-0.041840892
-0.1872632
-0.07322393
-0.13643631
-0.033691704
-0.09811722
-0.10332226
-0.10349982
-0.06362072
0.010777027
-0.123155534
-0.05585449
-0.05062938
-0.04454645
-0.050126433
-0.0079666935
-0.026434906
-0.21554157
0.09586526
-0.04217396
0.013367052
0.093895786
-0.07313043
-0.0002454686
-0.15611917
-0.07207397
0.2074548
0.22007708
0.16762576
-0.13455832
-0.047639426
-0.1598299
-0.086288564
-0.20648448
-0.0933237
-0.04840723
-0.08046927
0.13010637
-0.11593492
0.14929728
-0.10021515
-0.071122915
-0.15553457
-0.09772384
0.09515622
-0.12569606
-0.12136591
-0.0031033545
-0.14737588
0.04966285
-0.063285686
-0.040749464
-0.04832075
-0.0315497
-0.14830226
-0.037216593
-0.12591588
-0.068973236
-0.11594538
-0.1289794
0.04325877
0.11893153
-0.11685287
-0.043087944
0.10375286
-0.018988457
-0.034771815
-0.05295732
0.10294506
-0.09763257
0.15270625
-0.08371002
-0.007881567
-0.12871552
-0.08407488
-0.0667881
-0.019650996
-0.038058147
-0.02559854
-0.03694449
-0.08397729
-0.13907795
0.03571144
-0.024636762
0.010494249
-0.08988402
-0.11143237
-0.023151392
-0.099601276
-0.0839452
-0.012159764
-0.08620885
0.041612793
-0.120849915
-0.13459219
-0.016320612
-0.14577462
-0.11587323
-0.08415234
0.06878137
-0.14338283
0.1452695
-0.074252345
-0.23087855
-0.028607704
-0.057074927
-0.05344591
0.074123494
0.080296256
-0.060335767
-0.07506989
-0.09748549
-0.12034335
0.13434921
0.041320775
-0.0749818
0.04287015
0.0066880058
-0.021507319
-0.020994918
-0.16717795
-0.181341
-0.06992857
-0.09039778
0.13821204
8.244006e-05
0.11300916
0.005022444
0.060776874
-0.050416544
-0.101829715
-0.14017312
-0.119004585
-0.08461778
-0.12300856
-0.22105484
-0.12677222
-0.0023925754
-0.12116227
-0.035086446
-0.027242912
-0.04556388
0.14857453
0.20066471
-0.11688273
-0.051352575
-0.022939086
0.21768281
0.1909007
-0.095306166
0.0085067265
0.008981557
-0.038528755
-0.0040790834
-0.018071787
-0.07161371
0.099468246
-0.12351625
-0.046681438
-0.09590143
-0.074286774
-0.14273177
-0.027930165
-0.0604566
-0.118345104
0.015339234
-0.044497408
-0.07712226
-0.090319715
0.030628378
-0.035697553
-0.08944068
-0.019030025
-0.0071814354
0.12108218
-0.09856927
0.024031969
-0.13094503
0.15580377
-0.1358977
-0.10930965
-0.11038082
-0.08898191
-0.07216502
-0.03921799
-0.12188563
-0.21877916
-0.03542541
-0.053030968
-0.017601576
-0.07155402
0.082481444
-0.12413028
0.1312844
0.103665344
-0.17829563
-0.015455944
0.12011936
0.16723561
0.06187014
-0.022544151
-0.0968915
-0.05681781
-0.14957774
-0.12682666
-0.080362506
0.15808585
0.17756285
0.118574575
-0.024332581
0.132336
0.005237862
0.05005109
-0.1412642
-0.111966096
0.17178589
-0.046558462
0.029588362
-0.05316696
-0.1117808
-0.037580922
-0.10017092
-0.06199428
0.036200814
0.13376759
0.045265697
-0.048149314
-0.0016879082
-0.10167941
-0.0917221
-0.03181757
-0.0006857329
-0.018232351
0.082238264
-0.044961877
-0.12591769
-0.16221136
-0.15882045
-0.1212285
-0.20258035
-0.15194532
0.02471874
0.05498387
-0.046046067
-0.05004239
-0.07745862
-0.058116075
0.06945994
0.009840144
-0.15284616
0.060357384
0.042386834
-0.09395189
-0.04566631
-0.06458284
0.06466564
-0.15570082
0.05254939
-0.05689415
0.13007152
-0.008322534
0.15319319
0.06774666
0.009826109
0.0046872683
0.16518326
-0.1366207
-0.19648378
-0.076976806
-0.06223141
-0.05927729
-0.1972646
-0.11602678
-0.025629122
-0.0720087
-0.058595788
-0.078991316
0.024176713
-0.08568244
0.019742707
-0.16659279
-0.045411535
-0.15219852
-0.06811183
0.06255206
-0.082942985
-0.00029485842
-0.07681748
0.16424888
0.057895217
-0.010861093
-0.03595048
0.0543265
-0.00044843426
-0.074995145
0.16453633
-0.016757315
-0.12228292
-0.010473671
-0.016949898
-0.07111978
-0.13162631
0.114139356
0.0058451546
0.0819484
-0.029024033
-0.12986237
0.00023543087
-0.13936561
-0.04841643
-0.09339815
-0.07746193
-0.13803793
-0.072956204
0.052679185
0.09919297
0.14035495
0.013767615
-0.04050061
-0.12103249
0.024403488
0.09354694
0.082894236
-0.062157083
-0.008814449
-0.1558721
0.14480917
0.05112247
0.04385377
0.0076793646
0.034921914
0.19516023
0.20809013
-0.035093155
-0.003050304
0.08669976
-0.1444605
-0.13090573
0.050861515
0.0061047203
-0.06161324
0.05569864
0.13096356
-0.067726925
-0.10539068
-0.12004382
0.0020094875
-0.01508363
0.057474528
0.04398589
-0.098303415
-0.09591829
-0.13073328
-0.069834545
0.16787039
-0.03351142
-0.08200158
-0.029254202
0.11721465
-0.08944922
-0.0009227641
-0.027605323
0.010819298
-0.15724178
0.05184918
0.16680406
-0.07400604
0.037365638
0.085876234
0.13396011
-0.02864343
-0.07591552
-0.11946178
-0.050988052
0.08579346
-0.0011394096
-0.035201453
-0.08597976
-0.094848424
-0.09969775
0.023168635
0.064527795
-0.082104534
0.15872121
0.07785896
-0.039745405
8.432119e-05
-0.031189032
-0.014476909
-0.015464969
-0.13574721
-0.052863296
-0.11581162
-0.17843704
0.0601086
-0.1826216
-0.08250965
-0.07527264
-0.13796987
-0.11060183
-0.12974699
-0.10803804
-0.21043243
-0.09148256
-0.059826575
-0.09406487
-0.048954397
-0.1068007
-0.06366621
-0.06866653
0.11495466
-0.111039236
0.021812279
-0.10582216
-0.11746277
-0.15742043
-0.13665842
-0.04193017
0.013922804
0.050320044
-0.0674029
-0.08998376
-0.07256102
-0.07281721
-0.10955546
0.05353537
0.054302007
-0.095098376
-0.0076914597
-0.014885119
0.0023651076
-0.07655188
0.11766257
-0.054139446
-0.12599841
-0.004072024
-0.16094041
-0.1124397
-0.048601624
-0.1322881
-0.055657182
0.01918392
-0.11737264
-0.117075406
-0.12497539
-0.1743513
0.15822417
-0.08377658
-0.08276035
